{"learner":{"attributes":{},"feature_names":[],"feature_types":[],"gradient_booster":{"model":{"gbtree_model_param":{"num_parallel_tree":"1","num_trees":"1500"},"iteration_indptr":[0,2,4,6,8,10,12,14,16,18,20,22,24,26,28,30,32,34,36,38,40,42,44,46,48,50,52,54,56,58,60,62,64,66,68,70,72,74,76,78,80,82,84,86,88,90,92,94,96,98,100,102,104,106,108,110,112,114,116,118,120,122,124,126,128,130,132,134,136,138,140,142,144,146,148,150,152,154,156,158,160,162,164,166,168,170,172,174,176,178,180,182,184,186,188,190,192,194,196,198,200,202,204,206,208,210,212,214,216,218,220,222,224,226,228,230,232,234,236,238,240,242,244,246,248,250,252,254,256,258,260,262,264,266,268,270,272,274,276,278,280,282,284,286,288,290,292,294,296,298,300,302,304,306,308,310,312,314,316,318,320,322,324,326,328,330,332,334,336,338,340,342,344,346,348,350,352,354,356,358,360,362,364,366,368,370,372,374,376,378,380,382,384,386,388,390,392,394,396,398,400,402,404,406,408,410,412,414,416,418,420,422,424,426,428,430,432,434,436,438,440,442,444,446,448,450,452,454,456,458,460,462,464,466,468,470,472,474,476,478,480,482,484,486,488,490,492,494,496,498,500,502,504,506,508,510,512,514,516,518,520,522,524,526,528,530,532,534,536,538,540,542,544,546,548,550,552,554,556,558,560,562,564,566,568,570,572,574,576,578,580,582,584,586,588,590,592,594,596,598,600,602,604,606,608,610,612,614,616,618,620,622,624,626,628,630,632,634,636,638,640,642,644,646,648,650,652,654,656,658,660,662,664,666,668,670,672,674,676,678,680,682,684,686,688,690,692,694,696,698,700,702,704,706,708,710,712,714,716,718,720,722,724,726,728,730,732,734,736,738,740,742,744,746,748,750,752,754,756,758,760,762,764,766,768,770,772,774,776,778,780,782,784,786,788,790,792,794,796,798,800,802,804,806,808,810,812,814,816,818,820,822,824,826,828,830,832,834,836,838,840,842,844,846,848,850,852,854,856,858,860,862,864,866,868,870,872,874,876,878,880,882,884,886,888,890,892,894,896,898,900,902,904,906,908,910,912,914,916,918,920,922,924,926,928,930,932,934,936,938,940,942,944,946,948,950,952,954,956,958,960,962,964,966,968,970,972,974,976,978,980,982,984,986,988,990,992,994,996,998,1000,1002,1004,1006,1008,1010,1012,1014,1016,1018,1020,1022,1024,1026,1028,1030,1032,1034,1036,1038,1040,1042,1044,1046,1048,1050,1052,1054,1056,1058,1060,1062,1064,1066,1068,1070,1072,1074,1076,1078,1080,1082,1084,1086,1088,1090,1092,1094,1096,1098,1100,1102,1104,1106,1108,1110,1112,1114,1116,1118,1120,1122,1124,1126,1128,1130,1132,1134,1136,1138,1140,1142,1144,1146,1148,1150,1152,1154,1156,1158,1160,1162,1164,1166,1168,1170,1172,1174,1176,1178,1180,1182,1184,1186,1188,1190,1192,1194,1196,1198,1200,1202,1204,1206,1208,1210,1212,1214,1216,1218,1220,1222,1224,1226,1228,1230,1232,1234,1236,1238,1240,1242,1244,1246,1248,1250,1252,1254,1256,1258,1260,1262,1264,1266,1268,1270,1272,1274,1276,1278,1280,1282,1284,1286,1288,1290,1292,1294,1296,1298,1300,1302,1304,1306,1308,1310,1312,1314,1316,1318,1320,1322,1324,1326,1328,1330,1332,1334,1336,1338,1340,1342,1344,1346,1348,1350,1352,1354,1356,1358,1360,1362,1364,1366,1368,1370,1372,1374,1376,1378,1380,1382,1384,1386,1388,1390,1392,1394,1396,1398,1400,1402,1404,1406,1408,1410,1412,1414,1416,1418,1420,1422,1424,1426,1428,1430,1432,1434,1436,1438,1440,1442,1444,1446,1448,1450,1452,1454,1456,1458,1460,1462,1464,1466,1468,1470,1472,1474,1476,1478,1480,1482,1484,1486,1488,1490,1492,1494,1496,1498,1500],"tree_info":[0,1,0,1,0,1,0,1,0,1,0,1,0,1,0,1,0,1,0,1,0,1,0,1,0,1,0,1,0,1,0,1,0,1,0,1,0,1,0,1,0,1,0,1,0,1,0,1,0,1,0,1,0,1,0,1,0,1,0,1,0,1,0,1,0,1,0,1,0,1,0,1,0,1,0,1,0,1,0,1,0,1,0,1,0,1,0,1,0,1,0,1,0,1,0,1,0,1,0,1,0,1,0,1,0,1,0,1,0,1,0,1,0,1,0,1,0,1,0,1,0,1,0,1,0,1,0,1,0,1,0,1,0,1,0,1,0,1,0,1,0,1,0,1,0,1,0,1,0,1,0,1,0,1,0,1,0,1,0,1,0,1,0,1,0,1,0,1,0,1,0,1,0,1,0,1,0,1,0,1,0,1,0,1,0,1,0,1,0,1,0,1,0,1,0,1,0,1,0,1,0,1,0,1,0,1,0,1,0,1,0,1,0,1,0,1,0,1,0,1,0,1,0,1,0,1,0,1,0,1,0,1,0,1,0,1,0,1,0,1,0,1,0,1,0,1,0,1,0,1,0,1,0,1,0,1,0,1,0,1,0,1,0,1,0,1,0,1,0,1,0,1,0,1,0,1,0,1,0,1,0,1,0,1,0,1,0,1,0,1,0,1,0,1,0,1,0,1,0,1,0,1,0,1,0,1,0,1,0,1,0,1,0,1,0,1,0,1,0,1,0,1,0,1,0,1,0,1,0,1,0,1,0,1,0,1,0,1,0,1,0,1,0,1,0,1,0,1,0,1,0,1,0,1,0,1,0,1,0,1,0,1,0,1,0,1,0,1,0,1,0,1,0,1,0,1,0,1,0,1,0,1,0,1,0,1,0,1,0,1,0,1,0,1,0,1,0,1,0,1,0,1,0,1,0,1,0,1,0,1,0,1,0,1,0,1,0,1,0,1,0,1,0,1,0,1,0,1,0,1,0,1,0,1,0,1,0,1,0,1,0,1,0,1,0,1,0,1,0,1,0,1,0,1,0,1,0,1,0,1,0,1,0,1,0,1,0,1,0,1,0,1,0,1,0,1,0,1,0,1,0,1,0,1,0,1,0,1,0,1,0,1,0,1,0,1,0,1,0,1,0,1,0,1,0,1,0,1,0,1,0,1,0,1,0,1,0,1,0,1,0,1,0,1,0,1,0,1,0,1,0,1,0,1,0,1,0,1,0,1,0,1,0,1,0,1,0,1,0,1,0,1,0,1,0,1,0,1,0,1,0,1,0,1,0,1,0,1,0,1,0,1,0,1,0,1,0,1,0,1,0,1,0,1,0,1,0,1,0,1,0,1,0,1,0,1,0,1,0,1,0,1,0,1,0,1,0,1,0,1,0,1,0,1,0,1,0,1,0,1,0,1,0,1,0,1,0,1,0,1,0,1,0,1,0,1,0,1,0,1,0,1,0,1,0,1,0,1,0,1,0,1,0,1,0,1,0,1,0,1,0,1,0,1,0,1,0,1,0,1,0,1,0,1,0,1,0,1,0,1,0,1,0,1,0,1,0,1,0,1,0,1,0,1,0,1,0,1,0,1,0,1,0,1,0,1,0,1,0,1,0,1,0,1,0,1,0,1,0,1,0,1,0,1,0,1,0,1,0,1,0,1,0,1,0,1,0,1,0,1,0,1,0,1,0,1,0,1,0,1,0,1,0,1,0,1,0,1,0,1,0,1,0,1,0,1,0,1,0,1,0,1,0,1,0,1,0,1,0,1,0,1,0,1,0,1,0,1,0,1,0,1,0,1,0,1,0,1,0,1,0,1,0,1,0,1,0,1,0,1,0,1,0,1,0,1,0,1,0,1,0,1,0,1,0,1,0,1,0,1,0,1,0,1,0,1,0,1,0,1,0,1,0,1,0,1,0,1,0,1,0,1,0,1,0,1,0,1,0,1,0,1,0,1,0,1,0,1,0,1,0,1,0,1,0,1,0,1,0,1,0,1,0,1,0,1,0,1,0,1,0,1,0,1,0,1,0,1,0,1,0,1,0,1,0,1,0,1,0,1,0,1,0,1,0,1,0,1,0,1,0,1,0,1,0,1,0,1,0,1,0,1,0,1,0,1,0,1,0,1,0,1,0,1,0,1,0,1,0,1,0,1,0,1,0,1,0,1,0,1,0,1,0,1,0,1,0,1,0,1,0,1,0,1,0,1,0,1,0,1,0,1,0,1,0,1,0,1,0,1,0,1,0,1,0,1,0,1,0,1,0,1,0,1,0,1,0,1,0,1,0,1,0,1,0,1,0,1,0,1,0,1,0,1,0,1,0,1,0,1,0,1,0,1,0,1,0,1,0,1,0,1,0,1,0,1,0,1,0,1,0,1,0,1,0,1,0,1,0,1,0,1,0,1,0,1,0,1,0,1,0,1,0,1,0,1,0,1,0,1,0,1,0,1,0,1,0,1,0,1,0,1,0,1,0,1,0,1,0,1,0,1,0,1,0,1,0,1,0,1,0,1,0,1,0,1,0,1,0,1,0,1,0,1,0,1,0,1,0,1,0,1,0,1,0,1,0,1,0,1,0,1,0,1,0,1,0,1,0,1,0,1,0,1,0,1,0,1,0,1,0,1,0,1,0,1,0,1,0,1,0,1,0,1,0,1,0,1,0,1,0,1,0,1,0,1,0,1,0,1,0,1,0,1,0,1,0,1,0,1,0,1,0,1,0,1,0,1,0,1,0,1,0,1,0,1,0,1,0,1,0,1,0,1,0,1,0,1,0,1,0,1,0,1,0,1,0,1,0,1,0,1,0,1,0,1,0,1,0,1,0,1,0,1,0,1,0,1,0,1,0,1,0,1,0,1,0,1,0,1,0,1,0,1,0,1,0,1,0,1,0,1,0,1,0,1,0,1,0,1,0,1,0,1,0,1,0,1,0,1,0,1,0,1,0,1,0,1,0,1,0,1,0,1,0,1,0,1,0,1,0,1,0,1,0,1,0,1,0,1,0,1,0,1,0,1,0,1,0,1,0,1,0,1,0,1,0,1,0,1,0,1,0,1,0,1,0,1,0,1,0,1,0,1,0,1,0,1,0,1,0,1,0,1,0,1,0,1,0,1,0,1,0,1,0,1,0,1,0,1,0,1,0,1,0,1,0,1,0,1,0,1,0,1,0,1,0,1,0,1,0,1,0,1,0,1,0,1,0,1,0,1,0,1,0,1,0,1,0,1,0,1,0,1,0,1,0,1,0,1,0,1,0,1,0,1,0,1,0,1,0,1,0,1,0,1,0,1,0,1,0,1,0,1,0,1,0,1,0,1,0,1,0,1,0,1,0,1,0,1,0,1,0,1,0,1,0,1,0,1,0,1,0,1,0,1,0,1,0,1],"trees":[{"base_weights":[-1.507534E-1,1.2364512E-1,-3.092174E-1,-4.408353E-2,3.0442035E-1,-4.2694497E-1,-6.7844525E-2,1.4309075E-3,-2.1172161E-3,4.7E-3,2.2125E-3,-3.4848484E-3,-6.145284E-3,7.51206E-4,-2.17958E-3],"categories":[],"categories_nodes":[],"categories_segments":[],"categories_sizes":[],"default_left":[0,0,0,0,0,0,0,0,0,0,0,0,0,0,0],"id":0,"left_children":[1,3,5,7,9,11,13,-1,-1,-1,-1,-1,-1,-1,-1],"loss_changes":[2.9582648E2,7.554349E1,1.2251608E2,4.0601456E1,1.640783E1,4.2445435E1,3.038368E1,0E0,0E0,0E0,0E0,0E0,0E0,0E0,0E0],"parents":[2147483647,0,0,1,1,2,2,3,3,4,4,5,5,6,6],"right_children":[2,4,6,8,10,12,14,-1,-1,-1,-1,-1,-1,-1,-1],"split_conditions":[4.58E-1,5.14E-1,2.9E0,-4.7E0,-6.2E0,2.3E1,3.2E0,1.4309075E-3,-2.1172161E-3,4.7E-3,2.2125E-3,-3.4848484E-3,-6.145284E-3,7.51206E-4,-2.17958E-3],"split_indices":[3,55,77,25,25,80,25,0,0,0,0,0,0,0,0],"split_type":[0,0,0,0,0,0,0,0,0,0,0,0,0,0,0],"sum_hessian":[6.8015E3,2.49E3,4.3115E3,1.292E3,1.198E3,2.8975E3,1.414E3,6.105E2,6.815E2,3.99E2,7.99E2,2.045E3,8.525E2,7.245E2,6.895E2],"tree_param":{"num_deleted":"0","num_feature":"106","num_nodes":"15","size_leaf_vector":"1"}},{"base_weights":[1.507534E-1,-1.2364512E-1,3.092174E-1,4.408353E-2,-3.0442035E-1,4.2694497E-1,6.7844525E-2,-1.4309075E-3,2.1172161E-3,-4.7E-3,-2.2125E-3,3.4848484E-3,6.145284E-3,-7.51206E-4,2.17958E-3],"categories":[],"categories_nodes":[],"categories_segments":[],"categories_sizes":[],"default_left":[0,0,0,0,0,0,0,0,0,0,0,0,0,0,0],"id":1,"left_children":[1,3,5,7,9,11,13,-1,-1,-1,-1,-1,-1,-1,-1],"loss_changes":[2.9582648E2,7.554349E1,1.2251608E2,4.0601456E1,1.640783E1,4.2445435E1,3.038368E1,0E0,0E0,0E0,0E0,0E0,0E0,0E0,0E0],"parents":[2147483647,0,0,1,1,2,2,3,3,4,4,5,5,6,6],"right_children":[2,4,6,8,10,12,14,-1,-1,-1,-1,-1,-1,-1,-1],"split_conditions":[4.58E-1,5.14E-1,2.9E0,-4.7E0,-6.2E0,2.3E1,3.2E0,-1.4309075E-3,2.1172161E-3,-4.7E-3,-2.2125E-3,3.4848484E-3,6.145284E-3,-7.51206E-4,2.17958E-3],"split_indices":[3,55,77,25,25,80,25,0,0,0,0,0,0,0,0],"split_type":[0,0,0,0,0,0,0,0,0,0,0,0,0,0,0],"sum_hessian":[6.8015E3,2.49E3,4.3115E3,1.292E3,1.198E3,2.8975E3,1.414E3,6.105E2,6.815E2,3.99E2,7.99E2,2.045E3,8.525E2,7.245E2,6.895E2],"tree_param":{"num_deleted":"0","num_feature":"106","num_nodes":"15","size_leaf_vector":"1"}},{"base_weights":[-1.4924829E-1,1.2241201E-1,-3.061321E-1,-4.3643363E-2,3.013851E-1,-4.2268717E-1,-6.716728E-2,1.4166252E-3,-2.0960846E-3,4.6532205E-3,2.1904132E-3,-3.4500589E-3,-6.0841334E-3,6.226135E-4,-2.2969746E-3],"categories":[],"categories_nodes":[],"categories_segments":[],"categories_sizes":[],"default_left":[0,0,0,0,0,0,0,0,0,0,0,0,0,0,0],"id":2,"left_children":[1,3,5,7,9,11,13,-1,-1,-1,-1,-1,-1,-1,-1],"loss_changes":[2.8995062E2,7.404378E1,1.2008414E2,3.9794884E1,1.6083435E1,4.1607178E1,2.9780252E1,0E0,0E0,0E0,0E0,0E0,0E0,0E0,0E0],"parents":[2147483647,0,0,1,1,2,2,3,3,4,4,5,5,6,6],"right_children":[2,4,6,8,10,12,14,-1,-1,-1,-1,-1,-1,-1,-1],"split_conditions":[4.58E-1,5.14E-1,2.9E0,-4.7E0,-6.2E0,2.3E1,3.6E0,1.4166252E-3,-2.0960846E-3,4.6532205E-3,2.1904132E-3,-3.4500589E-3,-6.0841334E-3,6.226135E-4,-2.2969746E-3],"split_indices":[3,55,77,25,25,80,25,0,0,0,0,0,0,0,0],"split_type":[0,0,0,0,0,0,0,0,0,0,0,0,0,0,0],"sum_hessian":[6.8014224E3,2.489983E3,4.3114395E3,1.2919957E3,1.1979873E3,2.8974429E3,1.4139963E3,6.104988E2,6.814969E2,3.9899118E2,7.989961E2,2.0449751E3,8.524678E2,7.874993E2,6.264971E2],"tree_param":{"num_deleted":"0","num_feature":"106","num_nodes":"15","size_leaf_vector":"1"}},{"base_weights":[1.4924827E-1,-1.2241202E-1,3.0613208E-1,4.3643355E-2,-3.0138513E-1,4.2268717E-1,6.716721E-2,-1.4166242E-3,2.0960837E-3,-4.6532205E-3,-2.1904132E-3,3.4500589E-3,6.0841334E-3,-6.226146E-4,2.2969744E-3],"categories":[],"categories_nodes":[],"categories_segments":[],"categories_sizes":[],"default_left":[0,0,0,0,0,0,0,0,0,0,0,0,0,0,0],"id":3,"left_children":[1,3,5,7,9,11,13,-1,-1,-1,-1,-1,-1,-1,-1],"loss_changes":[2.899506E2,7.404379E1,1.200842E2,3.979484E1,1.608342E1,4.1607178E1,2.9780266E1,0E0,0E0,0E0,0E0,0E0,0E0,0E0,0E0],"parents":[2147483647,0,0,1,1,2,2,3,3,4,4,5,5,6,6],"right_children":[2,4,6,8,10,12,14,-1,-1,-1,-1,-1,-1,-1,-1],"split_conditions":[4.58E-1,5.14E-1,2.9E0,-4.7E0,-6.2E0,2.3E1,3.6E0,-1.4166242E-3,2.0960837E-3,-4.6532205E-3,-2.1904132E-3,3.4500589E-3,6.0841334E-3,-6.226146E-4,2.2969744E-3],"split_indices":[3,55,77,25,25,80,25,0,0,0,0,0,0,0,0],"split_type":[0,0,0,0,0,0,0,0,0,0,0,0,0,0,0],"sum_hessian":[6.8014224E3,2.4899832E3,4.3114395E3,1.2919957E3,1.1979873E3,2.8974429E3,1.4139963E3,6.104988E2,6.8149695E2,3.9899118E2,7.9899615E2,2.0449751E3,8.524678E2,7.874993E2,6.26497E2],"tree_param":{"num_deleted":"0","num_feature":"106","num_nodes":"15","size_leaf_vector":"1"}},{"base_weights":[-1.4776158E-1,1.2119286E-1,-3.0308607E-1,-1.3163112E-1,2.3663545E-1,-4.1848812E-1,-6.649723E-2,6.076939E-4,-2.9610451E-3,8.9697173E-4,3.3895369E-3,-3.415699E-3,-6.024039E-3,7.374887E-4,-2.1375825E-3],"categories":[],"categories_nodes":[],"categories_segments":[],"categories_sizes":[],"default_left":[0,0,0,0,0,0,0,0,0,0,0,0,0,0,0],"id":4,"left_children":[1,3,5,7,9,11,13,-1,-1,-1,-1,-1,-1,-1,-1],"loss_changes":[2.8419977E2,7.273314E1,1.1770914E2,2.4748032E1,2.5685196E1,4.0794586E1,2.9239162E1,0E0,0E0,0E0,0E0,0E0,0E0,0E0,0E0],"parents":[2147483647,0,0,1,1,2,2,3,3,4,4,5,5,6,6],"right_children":[2,4,6,8,10,12,14,-1,-1,-1,-1,-1,-1,-1,-1],"split_conditions":[4.58E-1,-2E0,2.9E0,-4.7E0,2.4E1,2.3E1,3.2E0,6.076939E-4,-2.9610451E-3,8.9697173E-4,3.3895369E-3,-3.415699E-3,-6.024039E-3,7.374887E-4,-2.1375825E-3],"split_indices":[3,77,77,25,51,80,25,0,0,0,0,0,0,0,0],"split_type":[0,0,0,0,0,0,0,0,0,0,0,0,0,0,0],"sum_hessian":[6.8011924E3,2.4899326E3,4.3112603E3,7.8048914E2,1.7094434E3,2.8972742E3,1.413986E3,3.5999664E2,4.2049252E2,7.024863E2,1.0069571E3,2.0449016E3,8.523725E2,7.244986E2,6.894873E2],"tree_param":{"num_deleted":"0","num_feature":"106","num_nodes":"15","size_leaf_vector":"1"}},{"base_weights":[1.477616E-1,-1.2119281E-1,3.0308607E-1,1.3163118E-1,-2.366354E-1,4.1848812E-1,6.649725E-2,-6.076939E-4,2.9610463E-3,-8.969712E-4,-3.3895369E-3,3.415699E-3,6.024039E-3,-7.374884E-4,2.1375825E-3],"categories":[],"categories_nodes":[],"categories_segments":[],"categories_sizes":[],"default_left":[0,0,0,0,0,0,0,0,0,0,0,0,0,0,0],"id":5,"left_children":[1,3,5,7,9,11,13,-1,-1,-1,-1,-1,-1,-1,-1],"loss_changes":[2.8419968E2,7.273314E1,1.1770914E2,2.4748049E1,2.5685219E1,4.0794586E1,2.9239155E1,0E0,0E0,0E0,0E0,0E0,0E0,0E0,0E0],"parents":[2147483647,0,0,1,1,2,2,3,3,4,4,5,5,6,6],"right_children":[2,4,6,8,10,12,14,-1,-1,-1,-1,-1,-1,-1,-1],"split_conditions":[4.58E-1,-2E0,2.9E0,-4.7E0,2.4E1,2.3E1,3.2E0,-6.076939E-4,2.9610463E-3,-8.969712E-4,-3.3895369E-3,3.415699E-3,6.024039E-3,-7.374884E-4,2.1375825E-3],"split_indices":[3,77,77,25,51,80,25,0,0,0,0,0,0,0,0],"split_type":[0,0,0,0,0,0,0,0,0,0,0,0,0,0,0],"sum_hessian":[6.8011924E3,2.4899324E3,4.3112603E3,7.8048914E2,1.7094434E3,2.8972742E3,1.4139858E3,3.5999664E2,4.2049252E2,7.0248627E2,1.00695703E3,2.0449016E3,8.523725E2,7.244986E2,6.894873E2],"tree_param":{"num_deleted":"0","num_feature":"106","num_nodes":"15","size_leaf_vector":"1"}},{"base_weights":[-1.4629312E-1,-3.5196254E-1,5.342164E-2,-2.0012365E-1,-5.088147E-1,-1.9252129E-1,1.8447296E-1,-2.8948116E-3,-4.649543E-4,-4.148939E-3,-6.520478E-3,6.7812135E-4,-3.365995E-3,6.567982E-4,3.4133473E-3],"categories":[],"categories_nodes":[],"categories_segments":[],"categories_sizes":[],"default_left":[0,0,0,0,0,0,0,0,0,0,0,0,0,0,0],"id":6,"left_children":[1,3,5,7,9,11,13,-1,-1,-1,-1,-1,-1,-1,-1],"loss_changes":[2.7940555E2,7.970862E1,1.11289055E2,2.3384354E1,2.1895111E1,4.504746E1,4.1948135E1,0E0,0E0,0E0,0E0,0E0,0E0,0E0,0E0],"parents":[2147483647,0,0,1,1,2,2,3,3,4,4,5,5,6,6],"right_children":[2,4,6,8,10,12,14,-1,-1,-1,-1,-1,-1,-1,-1],"split_conditions":[1.5E1,1.3E1,-1.4E0,5.1E0,2.3E1,-4.7E0,2.4E1,-2.8948116E-3,-4.649543E-4,-4.148939E-3,-6.520478E-3,6.7812135E-4,-3.365995E-3,6.567982E-4,3.4133473E-3],"split_indices":[51,80,77,77,80,25,51,0,0,0,0,0,0,0,0],"split_type":[0,0,0,0,0,0,0,0,0,0,0,0,0,0,0],"sum_hessian":[6.800832E3,3.3500918E3,3.4507402E3,1.7034058E3,1.646686E3,1.1993887E3,2.2513516E3,1.0764226E3,6.269831E2,9.968973E2,6.497887E2,4.2749026E2,7.718984E2,1.2819418E3,9.694098E2],"tree_param":{"num_deleted":"0","num_feature":"106","num_nodes":"15","size_leaf_vector":"1"}},{"base_weights":[1.4629313E-1,3.5196254E-1,-5.3421613E-2,2.0012367E-1,5.088147E-1,1.925213E-1,-1.8447293E-1,2.8948116E-3,4.649543E-4,4.148939E-3,6.520478E-3,-6.781211E-4,3.365995E-3,-6.56798E-4,-3.4133468E-3],"categories":[],"categories_nodes":[],"categories_segments":[],"categories_sizes":[],"default_left":[0,0,0,0,0,0,0,0,0,0,0,0,0,0,0],"id":7,"left_children":[1,3,5,7,9,11,13,-1,-1,-1,-1,-1,-1,-1,-1],"loss_changes":[2.7940552E2,7.970865E1,1.1128905E2,2.3384354E1,2.189508E1,4.5047447E1,4.1948128E1,0E0,0E0,0E0,0E0,0E0,0E0,0E0,0E0],"parents":[2147483647,0,0,1,1,2,2,3,3,4,4,5,5,6,6],"right_children":[2,4,6,8,10,12,14,-1,-1,-1,-1,-1,-1,-1,-1],"split_conditions":[1.5E1,1.3E1,-1.4E0,5.1E0,2.3E1,-4.7E0,2.4E1,2.8948116E-3,4.649543E-4,4.148939E-3,6.520478E-3,-6.781211E-4,3.365995E-3,-6.56798E-4,-3.4133468E-3],"split_indices":[51,80,77,77,80,25,51,0,0,0,0,0,0,0,0],"split_type":[0,0,0,0,0,0,0,0,0,0,0,0,0,0,0],"sum_hessian":[6.800832E3,3.3500918E3,3.45074E3,1.7034058E3,1.646686E3,1.1993885E3,2.2513516E3,1.0764226E3,6.269831E2,9.968973E2,6.497887E2,4.2749023E2,7.718983E2,1.2819418E3,9.694098E2],"tree_param":{"num_deleted":"0","num_feature":"106","num_nodes":"15","size_leaf_vector":"1"}},{"base_weights":[-1.4484206E-1,-3.4848213E-1,5.2889813E-2,-1.9813083E-1,-5.03819E-1,-1.9060852E-1,1.8263549E-1,-2.8660323E-3,-4.6031372E-4,-4.107905E-3,-6.4571635E-3,6.7135884E-4,-3.332645E-3,6.5023464E-4,3.379486E-3],"categories":[],"categories_nodes":[],"categories_segments":[],"categories_sizes":[],"default_left":[0,0,0,0,0,0,0,0,0,0,0,0,0,0,0],"id":8,"left_children":[1,3,5,7,9,11,13,-1,-1,-1,-1,-1,-1,-1,-1],"loss_changes":[2.7388318E2,7.815747E1,1.09081024E2,2.2921577E1,2.1481323E1,4.415686E1,4.1119812E1,0E0,0E0,0E0,0E0,0E0,0E0,0E0,0E0],"parents":[2147483647,0,0,1,1,2,2,3,3,4,4,5,5,6,6],"right_children":[2,4,6,8,10,12,14,-1,-1,-1,-1,-1,-1,-1,-1],"split_conditions":[1.5E1,1.3E1,-1.4E0,5.1E0,2.3E1,-4.7E0,2.4E1,-2.8660323E-3,-4.6031372E-4,-4.107905E-3,-6.4571635E-3,6.7135884E-4,-3.332645E-3,6.5023464E-4,3.379486E-3],"split_indices":[51,80,77,77,80,25,51,0,0,0,0,0,0,0,0],"split_type":[0,0,0,0,0,0,0,0,0,0,0,0,0,0,0],"sum_hessian":[6.800367E3,3.3497573E3,3.4506099E3,1.703351E3,1.6464064E3,1.199325E3,2.251285E3,1.0763696E3,6.269813E2,9.9679724E2,6.4960913E2,4.274881E2,7.7183685E2,1.2819429E3,9.693421E2],"tree_param":{"num_deleted":"0","num_feature":"106","num_nodes":"15","size_leaf_vector":"1"}},{"base_weights":[1.4484206E-1,3.4848213E-1,-5.288981E-2,1.9813083E-1,5.038189E-1,1.9060853E-1,-1.8263549E-1,2.8660328E-3,4.6031323E-4,4.107905E-3,6.4571626E-3,-6.7135965E-4,3.3326456E-3,-6.502348E-4,-3.3794856E-3],"categories":[],"categories_nodes":[],"categories_segments":[],"categories_sizes":[],"default_left":[0,0,0,0,0,0,0,0,0,0,0,0,0,0,0],"id":9,"left_children":[1,3,5,7,9,11,13,-1,-1,-1,-1,-1,-1,-1,-1],"loss_changes":[2.7388318E2,7.815744E1,1.09081024E2,2.29216E1,2.1481323E1,4.415689E1,4.1119797E1,0E0,0E0,0E0,0E0,0E0,0E0,0E0,0E0],"parents":[2147483647,0,0,1,1,2,2,3,3,4,4,5,5,6,6],"right_children":[2,4,6,8,10,12,14,-1,-1,-1,-1,-1,-1,-1,-1],"split_conditions":[1.5E1,1.3E1,-1.4E0,5.1E0,2.3E1,-4.7E0,2.4E1,2.8660328E-3,4.6031323E-4,4.107905E-3,6.4571626E-3,-6.7135965E-4,3.3326456E-3,-6.502348E-4,-3.3794856E-3],"split_indices":[51,80,77,77,80,25,51,0,0,0,0,0,0,0,0],"split_type":[0,0,0,0,0,0,0,0,0,0,0,0,0,0,0],"sum_hessian":[6.800367E3,3.3497573E3,3.4506099E3,1.703351E3,1.6464065E3,1.199325E3,2.251285E3,1.0763696E3,6.269813E2,9.967973E2,6.496092E2,4.2748807E2,7.7183685E2,1.2819429E3,9.6934216E2],"tree_param":{"num_deleted":"0","num_feature":"106","num_nodes":"15","size_leaf_vector":"1"}},{"base_weights":[-1.4340845E-1,1.18351E-1,-2.9459912E-1,-4.2785E-2,2.92036E-1,-4.0720245E-1,-6.382401E-2,1.3532448E-3,-2.0231286E-3,4.509669E-3,2.122268E-3,-3.3260547E-3,-5.856565E-3,-2.1345168E-3,6.968648E-4],"categories":[],"categories_nodes":[],"categories_segments":[],"categories_sizes":[],"default_left":[0,0,0,0,0,0,0,0,0,0,0,0,0,0,0],"id":10,"left_children":[1,3,5,7,9,11,13,-1,-1,-1,-1,-1,-1,-1,-1],"loss_changes":[2.691789E2,6.971754E1,1.12003235E2,3.6762E1,1.5109642E1,3.837317E1,2.8280647E1,0E0,0E0,0E0,0E0,0E0,0E0,0E0,0E0],"parents":[2147483647,0,0,1,1,2,2,3,3,4,4,5,5,6,6],"right_children":[2,4,6,8,10,12,14,-1,-1,-1,-1,-1,-1,-1,-1],"split_conditions":[4.58E-1,5.14E-1,2.9E0,-4.7E0,-6.2E0,2.3E1,9E0,1.3532448E-3,-2.0231286E-3,4.509669E-3,2.122268E-3,-3.3260547E-3,-5.856565E-3,-2.1345168E-3,6.968648E-4],"split_indices":[3,55,77,25,25,80,51,0,0,0,0,0,0,0,0],"split_type":[0,0,0,0,0,0,0,0,0,0,0,0,0,0,0],"sum_hessian":[6.7997603E3,2.4896304E3,4.31013E3,1.2918615E3,1.1977688E3,2.8962046E3,1.4139252E3,6.1045416E2,6.8140735E2,3.9885132E2,7.989175E2,2.0444515E3,8.5175305E2,6.6643756E2,7.474876E2],"tree_param":{"num_deleted":"0","num_feature":"106","num_nodes":"15","size_leaf_vector":"1"}},{"base_weights":[1.4340843E-1,-1.18351005E-1,2.945991E-1,4.278498E-2,-2.92036E-1,4.0720242E-1,6.382401E-2,-1.3532458E-3,2.0231293E-3,-4.509668E-3,-2.1222683E-3,3.3260544E-3,5.856565E-3,2.1345168E-3,-6.9686485E-4],"categories":[],"categories_nodes":[],"categories_segments":[],"categories_sizes":[],"default_left":[0,0,0,0,0,0,0,0,0,0,0,0,0,0,0],"id":11,"left_children":[1,3,5,7,9,11,13,-1,-1,-1,-1,-1,-1,-1,-1],"loss_changes":[2.691789E2,6.971753E1,1.12003265E2,3.6762035E1,1.5109634E1,3.837314E1,2.828065E1,0E0,0E0,0E0,0E0,0E0,0E0,0E0,0E0],"parents":[2147483647,0,0,1,1,2,2,3,3,4,4,5,5,6,6],"right_children":[2,4,6,8,10,12,14,-1,-1,-1,-1,-1,-1,-1,-1],"split_conditions":[4.58E-1,5.14E-1,2.9E0,-4.7E0,-6.2E0,2.3E1,9E0,-1.3532458E-3,2.0231293E-3,-4.509668E-3,-2.1222683E-3,3.3260544E-3,5.856565E-3,2.1345168E-3,-6.9686485E-4],"split_indices":[3,55,77,25,25,80,51,0,0,0,0,0,0,0,0],"split_type":[0,0,0,0,0,0,0,0,0,0,0,0,0,0,0],"sum_hessian":[6.7997603E3,2.4896304E3,4.31013E3,1.2918615E3,1.1977688E3,2.8962046E3,1.4139252E3,6.1045416E2,6.8140735E2,3.9885135E2,7.989175E2,2.0444515E3,8.517531E2,6.6643756E2,7.474876E2],"tree_param":{"num_deleted":"0","num_feature":"106","num_nodes":"15","size_leaf_vector":"1"}},{"base_weights":[-1.4199081E-1,-3.4212625E-1,5.2309256E-2,-1.9440651E-1,-4.9479848E-1,-1.8713574E-1,1.798876E-1,-2.8151453E-3,-4.4671836E-4,-4.0357527E-3,-6.3400827E-3,6.5237243E-4,-3.2684773E-3,6.4645265E-4,3.320949E-3],"categories":[],"categories_nodes":[],"categories_segments":[],"categories_sizes":[],"default_left":[0,0,0,0,0,0,0,0,0,0,0,0,0,0,0],"id":12,"left_children":[1,3,5,7,9,11,13,-1,-1,-1,-1,-1,-1,-1,-1],"loss_changes":[2.6444543E2,7.545172E1,1.0546013E2,2.2215202E1,2.0655304E1,4.2337288E1,3.9481064E1,0E0,0E0,0E0,0E0,0E0,0E0,0E0,0E0],"parents":[2147483647,0,0,1,1,2,2,3,3,4,4,5,5,6,6],"right_children":[2,4,6,8,10,12,14,-1,-1,-1,-1,-1,-1,-1,-1],"split_conditions":[1.5E1,1.3E1,-1.4E0,5.1E0,2.3E1,-4.7E0,2.4E1,-2.8151453E-3,-4.4671836E-4,-4.0357527E-3,-6.3400827E-3,6.5237243E-4,-3.2684773E-3,6.4645265E-4,3.320949E-3],"split_indices":[51,80,77,77,80,25,51,0,0,0,0,0,0,0,0],"split_type":[0,0,0,0,0,0,0,0,0,0,0,0,0,0,0],"sum_hessian":[6.7990137E3,3.3488389E3,3.4501748E3,1.7031807E3,1.6456582E3,1.199128E3,2.2510466E3,1.076214E3,6.269667E2,9.96535E2,6.491233E2,4.2747635E2,7.7165173E2,1.281896E3,9.6915063E2],"tree_param":{"num_deleted":"0","num_feature":"106","num_nodes":"15","size_leaf_vector":"1"}},{"base_weights":[1.419908E-1,3.4212625E-1,-5.230928E-2,1.944065E-1,4.947985E-1,1.8713571E-1,-1.7988761E-1,2.8151453E-3,4.467182E-4,4.0357527E-3,6.340084E-3,-6.523724E-4,3.2684766E-3,-6.464528E-4,-3.3209494E-3],"categories":[],"categories_nodes":[],"categories_segments":[],"categories_sizes":[],"default_left":[0,0,0,0,0,0,0,0,0,0,0,0,0,0,0],"id":13,"left_children":[1,3,5,7,9,11,13,-1,-1,-1,-1,-1,-1,-1,-1],"loss_changes":[2.6444543E2,7.545178E1,1.0546013E2,2.221521E1,2.0655334E1,4.2337254E1,3.9481056E1,0E0,0E0,0E0,0E0,0E0,0E0,0E0,0E0],"parents":[2147483647,0,0,1,1,2,2,3,3,4,4,5,5,6,6],"right_children":[2,4,6,8,10,12,14,-1,-1,-1,-1,-1,-1,-1,-1],"split_conditions":[1.5E1,1.3E1,-1.4E0,5.1E0,2.3E1,-4.7E0,2.4E1,2.8151453E-3,4.467182E-4,4.0357527E-3,6.340084E-3,-6.523724E-4,3.2684766E-3,-6.464528E-4,-3.3209494E-3],"split_indices":[51,80,77,77,80,25,51,0,0,0,0,0,0,0,0],"split_type":[0,0,0,0,0,0,0,0,0,0,0,0,0,0,0],"sum_hessian":[6.7990137E3,3.3488389E3,3.4501748E3,1.7031807E3,1.6456582E3,1.199128E3,2.2510466E3,1.076214E3,6.269667E2,9.96535E2,6.491232E2,4.2747635E2,7.716518E2,1.281896E3,9.6915063E2],"tree_param":{"num_deleted":"0","num_feature":"106","num_nodes":"15","size_leaf_vector":"1"}},{"base_weights":[-1.4059064E-1,1.1638018E-1,-2.890382E-1,-4.2050313E-2,2.871633E-1,-3.9975575E-1,-6.221071E-2,1.3243422E-3,-1.9834123E-3,4.434161E-3,2.0871945E-3,-3.019097E-3,-5.3104702E-3,6.23103E-4,-2.1860695E-3],"categories":[],"categories_nodes":[],"categories_segments":[],"categories_sizes":[],"default_left":[0,0,0,0,0,0,0,0,0,0,0,0,0,0,0],"id":14,"left_children":[1,3,5,7,9,11,13,-1,-1,-1,-1,-1,-1,-1,-1],"loss_changes":[2.5939893E2,6.7392334E1,1.0821228E2,3.5279575E1,1.459816E1,3.7042816E1,2.7567425E1,0E0,0E0,0E0,0E0,0E0,0E0,0E0,0E0],"parents":[2147483647,0,0,1,1,2,2,3,3,4,4,5,5,6,6],"right_children":[2,4,6,8,10,12,14,-1,-1,-1,-1,-1,-1,-1,-1],"split_conditions":[4.58E-1,5.14E-1,2.9E0,-4.7E0,-6.2E0,2E1,3.6E0,1.3243422E-3,-1.9834123E-3,4.434161E-3,2.0871945E-3,-3.019097E-3,-5.3104702E-3,6.23103E-4,-2.1860695E-3],"split_indices":[3,55,77,25,25,80,25,0,0,0,0,0,0,0,0],"split_type":[0,0,0,0,0,0,0,0,0,0,0,0,0,0,0],"sum_hessian":[6.7981553E3,2.4892844E3,4.308871E3,1.2917343E3,1.1975502E3,2.8950137E3,1.4138573E3,6.104147E2,6.813196E2,3.9870816E2,7.9884204E2,1.6606779E3,1.2343358E3,7.874776E2,6.263797E2],"tree_param":{"num_deleted":"0","num_feature":"106","num_nodes":"15","size_leaf_vector":"1"}},{"base_weights":[1.4059065E-1,-1.16380155E-1,2.890382E-1,4.2050377E-2,-2.8716332E-1,3.9975575E-1,6.2210727E-2,-1.3243419E-3,1.9834132E-3,-4.434161E-3,-2.0871947E-3,3.0190975E-3,5.3104702E-3,-6.231026E-4,2.1860693E-3],"categories":[],"categories_nodes":[],"categories_segments":[],"categories_sizes":[],"default_left":[0,0,0,0,0,0,0,0,0,0,0,0,0,0,0],"id":15,"left_children":[1,3,5,7,9,11,13,-1,-1,-1,-1,-1,-1,-1,-1],"loss_changes":[2.593989E2,6.7392365E1,1.0821231E2,3.527959E1,1.459816E1,3.7042786E1,2.7567415E1,0E0,0E0,0E0,0E0,0E0,0E0,0E0,0E0],"parents":[2147483647,0,0,1,1,2,2,3,3,4,4,5,5,6,6],"right_children":[2,4,6,8,10,12,14,-1,-1,-1,-1,-1,-1,-1,-1],"split_conditions":[4.58E-1,5.14E-1,2.9E0,-4.7E0,-6.2E0,2E1,3.6E0,-1.3243419E-3,1.9834132E-3,-4.434161E-3,-2.0871947E-3,3.0190975E-3,5.3104702E-3,-6.231026E-4,2.1860693E-3],"split_indices":[3,55,77,25,25,80,25,0,0,0,0,0,0,0,0],"split_type":[0,0,0,0,0,0,0,0,0,0,0,0,0,0,0],"sum_hessian":[6.7981553E3,2.4892844E3,4.3088706E3,1.2917343E3,1.1975502E3,2.8950134E3,1.4138573E3,6.104147E2,6.813196E2,3.9870816E2,7.9884204E2,1.6606779E3,1.2343357E3,7.874776E2,6.263797E2],"tree_param":{"num_deleted":"0","num_feature":"106","num_nodes":"15","size_leaf_vector":"1"}},{"base_weights":[-1.392056E-1,-3.3593225E-1,5.1746048E-2,-1.9086163E-1,-4.8594016E-1,-1.8371321E-1,1.7719084E-1,-2.7667808E-3,-4.3371634E-4,-3.96123E-3,-6.230872E-3,6.3387107E-4,-3.205448E-3,6.427141E-4,3.2636246E-3],"categories":[],"categories_nodes":[],"categories_segments":[],"categories_sizes":[],"default_left":[0,0,0,0,0,0,0,0,0,0,0,0,0,0,0],"id":16,"left_children":[1,3,5,7,9,11,13,-1,-1,-1,-1,-1,-1,-1,-1],"loss_changes":[2.5539279E2,7.277835E1,1.0195309E2,2.1555073E1,2.0024353E1,4.058907E1,3.790793E1,0E0,0E0,0E0,0E0,0E0,0E0,0E0,0E0],"parents":[2147483647,0,0,1,1,2,2,3,3,4,4,5,5,6,6],"right_children":[2,4,6,8,10,12,14,-1,-1,-1,-1,-1,-1,-1,-1],"split_conditions":[1.5E1,1.3E1,-1.4E0,5.1E0,2.3E1,-4.7E0,2.4E1,-2.7667808E-3,-4.3371634E-4,-3.96123E-3,-6.230872E-3,6.3387107E-4,-3.205448E-3,6.427141E-4,3.2636246E-3],"split_indices":[51,80,77,77,80,25,51,0,0,0,0,0,0,0,0],"split_type":[0,0,0,0,0,0,0,0,0,0,0,0,0,0,0],"sum_hessian":[6.797177E3,3.3475876E3,3.4495889E3,1.7029551E3,1.6446326E3,1.1988635E3,2.2507253E3,1.0760082E3,6.2694696E2,9.961473E2,6.484853E2,4.2746082E2,7.714027E2,1.2818363E3,9.6888916E2],"tree_param":{"num_deleted":"0","num_feature":"106","num_nodes":"15","size_leaf_vector":"1"}},{"base_weights":[1.3920557E-1,3.3593222E-1,-5.1746074E-2,1.9086163E-1,4.8594013E-1,1.8371315E-1,-1.7719086E-1,2.7667806E-3,4.337168E-4,3.96123E-3,6.2308707E-3,-6.3387206E-4,3.2054477E-3,-6.4271403E-4,-3.263625E-3],"categories":[],"categories_nodes":[],"categories_segments":[],"categories_sizes":[],"default_left":[0,0,0,0,0,0,0,0,0,0,0,0,0,0,0],"id":17,"left_children":[1,3,5,7,9,11,13,-1,-1,-1,-1,-1,-1,-1,-1],"loss_changes":[2.553928E2,7.277838E1,1.0195306E2,2.1555065E1,2.0024323E1,4.0589073E1,3.7907944E1,0E0,0E0,0E0,0E0,0E0,0E0,0E0,0E0],"parents":[2147483647,0,0,1,1,2,2,3,3,4,4,5,5,6,6],"right_children":[2,4,6,8,10,12,14,-1,-1,-1,-1,-1,-1,-1,-1],"split_conditions":[1.5E1,1.3E1,-1.4E0,5.1E0,2.3E1,-4.7E0,2.4E1,2.7667806E-3,4.337168E-4,3.96123E-3,6.2308707E-3,-6.3387206E-4,3.2054477E-3,-6.4271403E-4,-3.263625E-3],"split_indices":[51,80,77,77,80,25,51,0,0,0,0,0,0,0,0],"split_type":[0,0,0,0,0,0,0,0,0,0,0,0,0,0,0],"sum_hessian":[6.797177E3,3.3475876E3,3.449589E3,1.7029551E3,1.6446326E3,1.1988635E3,2.2507253E3,1.0760082E3,6.2694696E2,9.961473E2,6.484853E2,4.2746082E2,7.714027E2,1.2818363E3,9.6888916E2],"tree_param":{"num_deleted":"0","num_feature":"106","num_nodes":"15","size_leaf_vector":"1"}},{"base_weights":[-1.3783777E-1,-3.32656E-1,5.123353E-2,-1.889695E-1,-4.8128086E-1,-1.8190008E-1,1.7543338E-1,-2.7394642E-3,-4.293888E-4,-3.9226273E-3,-6.1726146E-3,6.2755455E-4,-3.1740079E-3,6.3629297E-4,3.231558E-3],"categories":[],"categories_nodes":[],"categories_segments":[],"categories_sizes":[],"default_left":[0,0,0,0,0,0,0,0,0,0,0,0,0,0,0],"id":18,"left_children":[1,3,5,7,9,11,13,-1,-1,-1,-1,-1,-1,-1,-1],"loss_changes":[2.5038438E2,7.140256E1,9.9935455E1,2.1131393E1,1.966986E1,3.979185E1,3.7166206E1,0E0,0E0,0E0,0E0,0E0,0E0,0E0,0E0],"parents":[2147483647,0,0,1,1,2,2,3,3,4,4,5,5,6,6],"right_children":[2,4,6,8,10,12,14,-1,-1,-1,-1,-1,-1,-1,-1],"split_conditions":[1.5E1,1.3E1,-1.4E0,5.1E0,2.3E1,-4.7E0,2.4E1,-2.7394642E-3,-4.293888E-4,-3.9226273E-3,-6.1726146E-3,6.2755455E-4,-3.1740079E-3,6.3629297E-4,3.231558E-3],"split_indices":[51,80,77,77,80,25,51,0,0,0,0,0,0,0,0],"split_type":[0,0,0,0,0,0,0,0,0,0,0,0,0,0,0],"sum_hessian":[6.796082E3,3.3467976E3,3.4492847E3,1.7028245E3,1.6439731E3,1.1987205E3,2.2505642E3,1.0758809E3,6.2694354E2,9.959021E2,6.4807104E2,4.274564E2,7.712641E2,1.2818351E3,9.687291E2],"tree_param":{"num_deleted":"0","num_feature":"106","num_nodes":"15","size_leaf_vector":"1"}},{"base_weights":[1.378378E-1,3.32656E-1,-5.12335E-2,1.8896948E-1,4.8128092E-1,1.8190007E-1,-1.7543332E-1,2.7394637E-3,4.2938866E-4,3.9226273E-3,6.1726156E-3,-6.275544E-4,3.1740074E-3,-6.3629245E-4,-3.2315578E-3],"categories":[],"categories_nodes":[],"categories_segments":[],"categories_sizes":[],"default_left":[0,0,0,0,0,0,0,0,0,0,0,0,0,0,0],"id":19,"left_children":[1,3,5,7,9,11,13,-1,-1,-1,-1,-1,-1,-1,-1],"loss_changes":[2.5038435E2,7.140262E1,9.993542E1,2.113139E1,1.966986E1,3.9791832E1,3.7166206E1,0E0,0E0,0E0,0E0,0E0,0E0,0E0,0E0],"parents":[2147483647,0,0,1,1,2,2,3,3,4,4,5,5,6,6],"right_children":[2,4,6,8,10,12,14,-1,-1,-1,-1,-1,-1,-1,-1],"split_conditions":[1.5E1,1.3E1,-1.4E0,5.1E0,2.3E1,-4.7E0,2.4E1,2.7394637E-3,4.2938866E-4,3.9226273E-3,6.1726156E-3,-6.275544E-4,3.1740074E-3,-6.3629245E-4,-3.2315578E-3],"split_indices":[51,80,77,77,80,25,51,0,0,0,0,0,0,0,0],"split_type":[0,0,0,0,0,0,0,0,0,0,0,0,0,0,0],"sum_hessian":[6.796082E3,3.3467976E3,3.4492847E3,1.7028245E3,1.6439731E3,1.1987205E3,2.2505642E3,1.0758809E3,6.269436E2,9.959021E2,6.4807104E2,4.274564E2,7.712641E2,1.2818351E3,9.687291E2],"tree_param":{"num_deleted":"0","num_feature":"106","num_nodes":"15","size_leaf_vector":"1"}},{"base_weights":[-1.3648592E-1,-2.7301046E-1,1.2865214E-1,-1.259459E-1,-4.3897256E-1,2.0169668E-1,-2.1526875E-1,-3.0227576E-3,-9.426661E-5,-3.5561495E-3,-5.5387137E-3,3.240471E-3,8.204843E-4,-3.2908313E-3,8.7597437E-4],"categories":[],"categories_nodes":[],"categories_segments":[],"categories_sizes":[],"default_left":[0,0,0,0,0,0,0,0,0,0,0,0,0,0,0],"id":20,"left_children":[1,3,5,7,9,11,13,-1,-1,-1,-1,-1,-1,-1,-1],"loss_changes":[2.4603082E2,1.0944205E2,5.808885E1,4.8895412E1,1.9986298E1,2.788021E1,1.3998177E1,0E0,0E0,0E0,0E0,0E0,0E0,0E0,0E0],"parents":[2147483647,0,0,1,1,2,2,3,3,4,4,5,5,6,6],"right_children":[2,4,6,8,10,12,14,-1,-1,-1,-1,-1,-1,-1,-1],"split_conditions":[1.9E1,1.4E1,2.5E1,8E0,2.3E1,-4.6E0,2.7E1,-3.0227576E-3,-9.426661E-5,-3.5561495E-3,-5.5387137E-3,3.240471E-3,8.204843E-4,-3.2908313E-3,8.7597437E-4],"split_indices":[27,80,81,51,80,25,28,0,0,0,0,0,0,0,0],"split_type":[0,0,0,0,0,0,0,0,0,0,0,0,0,0,0],"sum_hessian":[6.7948647E3,4.4852803E3,2.3095845E3,2.3789614E3,2.1063186E3,1.9053297E3,4.0425482E2,9.4591034E2,1.4330511E3,1.2230829E3,8.8323584E2,9.411826E2,9.6414703E2,2.9377155E2,1.1048329E2],"tree_param":{"num_deleted":"0","num_feature":"106","num_nodes":"15","size_leaf_vector":"1"}},{"base_weights":[1.3648592E-1,2.7301046E-1,-1.2865216E-1,1.259459E-1,4.389726E-1,-2.0169668E-1,2.1526875E-1,3.0227576E-3,9.426648E-5,3.5561498E-3,5.5387137E-3,-3.2404708E-3,-8.204846E-4,3.2908316E-3,-8.7597437E-4],"categories":[],"categories_nodes":[],"categories_segments":[],"categories_sizes":[],"default_left":[0,0,0,0,0,0,0,0,0,0,0,0,0,0,0],"id":21,"left_children":[1,3,5,7,9,11,13,-1,-1,-1,-1,-1,-1,-1,-1],"loss_changes":[2.4603084E2,1.0944205E2,5.8088867E1,4.8895424E1,1.9986298E1,2.7880188E1,1.39981785E1,0E0,0E0,0E0,0E0,0E0,0E0,0E0,0E0],"parents":[2147483647,0,0,1,1,2,2,3,3,4,4,5,5,6,6],"right_children":[2,4,6,8,10,12,14,-1,-1,-1,-1,-1,-1,-1,-1],"split_conditions":[1.9E1,1.4E1,2.5E1,8E0,2.3E1,-4.6E0,2.7E1,3.0227576E-3,9.426648E-5,3.5561498E-3,5.5387137E-3,-3.2404708E-3,-8.204846E-4,3.2908316E-3,-8.7597437E-4],"split_indices":[27,80,81,51,80,25,28,0,0,0,0,0,0,0,0],"split_type":[0,0,0,0,0,0,0,0,0,0,0,0,0,0,0],"sum_hessian":[6.7948647E3,4.4852803E3,2.3095845E3,2.3789614E3,2.1063186E3,1.9053297E3,4.0425485E2,9.4591034E2,1.4330511E3,1.2230829E3,8.832358E2,9.411827E2,9.6414703E2,2.9377155E2,1.1048329E2],"tree_param":{"num_deleted":"0","num_feature":"106","num_nodes":"15","size_leaf_vector":"1"}},{"base_weights":[-1.3514723E-1,-3.2665098E-1,5.0651137E-2,-1.855065E-1,-4.7275025E-1,-1.7857222E-1,1.72752E-1,-2.6962038E-3,-4.0987605E-4,-3.8525527E-3,-6.0652005E-3,6.1215804E-4,-3.1142805E-3,6.3193304E-4,3.1755473E-3],"categories":[],"categories_nodes":[],"categories_segments":[],"categories_sizes":[],"default_left":[0,0,0,0,0,0,0,0,0,0,0,0,0,0,0],"id":22,"left_children":[1,3,5,7,9,11,13,-1,-1,-1,-1,-1,-1,-1,-1],"loss_changes":[2.4177722E2,6.891223E1,9.6578384E1,2.0697342E1,1.9002594E1,3.8227604E1,3.5693726E1,0E0,0E0,0E0,0E0,0E0,0E0,0E0,0E0],"parents":[2147483647,0,0,1,1,2,2,3,3,4,4,5,5,6,6],"right_children":[2,4,6,8,10,12,14,-1,-1,-1,-1,-1,-1,-1,-1],"split_conditions":[1.5E1,1.3E1,-1.4E0,5.1E0,2.3E1,-4.7E0,2.4E1,-2.6962038E-3,-4.0987605E-4,-3.8525527E-3,-6.0652005E-3,6.1215804E-4,-3.1142805E-3,6.3193304E-4,3.1755473E-3],"split_indices":[51,80,77,77,80,25,51,0,0,0,0,0,0,0,0],"split_type":[0,0,0,0,0,0,0,0,0,0,0,0,0,0,0],"sum_hessian":[6.7936416E3,3.3450825E3,3.448559E3,1.7025461E3,1.6425364E3,1.1983676E3,2.2501914E3,1.0756329E3,6.2691315E2,9.953723E2,6.471641E2,4.2743695E2,7.709306E2,1.2818055E3,9.683859E2],"tree_param":{"num_deleted":"0","num_feature":"106","num_nodes":"15","size_leaf_vector":"1"}},{"base_weights":[1.3514723E-1,3.2665098E-1,-5.065115E-2,1.8550646E-1,4.7275028E-1,1.7857224E-1,-1.7275202E-1,2.6962038E-3,4.098756E-4,3.852553E-3,6.0652005E-3,-6.121581E-4,3.1142805E-3,-6.3193333E-4,-3.1755476E-3],"categories":[],"categories_nodes":[],"categories_segments":[],"categories_sizes":[],"default_left":[0,0,0,0,0,0,0,0,0,0,0,0,0,0,0],"id":23,"left_children":[1,3,5,7,9,11,13,-1,-1,-1,-1,-1,-1,-1,-1],"loss_changes":[2.4177724E2,6.891226E1,9.65784E1,2.0697346E1,1.9002594E1,3.8227604E1,3.5693733E1,0E0,0E0,0E0,0E0,0E0,0E0,0E0,0E0],"parents":[2147483647,0,0,1,1,2,2,3,3,4,4,5,5,6,6],"right_children":[2,4,6,8,10,12,14,-1,-1,-1,-1,-1,-1,-1,-1],"split_conditions":[1.5E1,1.3E1,-1.4E0,5.1E0,2.3E1,-4.7E0,2.4E1,2.6962038E-3,4.098756E-4,3.852553E-3,6.0652005E-3,-6.121581E-4,3.1142805E-3,-6.3193333E-4,-3.1755476E-3],"split_indices":[51,80,77,77,80,25,51,0,0,0,0,0,0,0,0],"split_type":[0,0,0,0,0,0,0,0,0,0,0,0,0,0,0],"sum_hessian":[6.7936416E3,3.3450825E3,3.448559E3,1.7025461E3,1.6425365E3,1.1983676E3,2.2501917E3,1.0756329E3,6.269131E2,9.9537225E2,6.471642E2,4.2743695E2,7.709306E2,1.2818057E3,9.683859E2],"tree_param":{"num_deleted":"0","num_feature":"106","num_nodes":"15","size_leaf_vector":"1"}},{"base_weights":[-1.3382605E-1,1.0581979E-1,-2.7963126E-1,-4.6386044E-2,2.6895922E-1,-3.8572067E-1,-6.273661E-2,1.2411614E-3,-1.9121098E-3,4.270752E-3,1.9372058E-3,-3.1438507E-3,-5.5715083E-3,5.793227E-4,-2.0933629E-3],"categories":[],"categories_nodes":[],"categories_segments":[],"categories_sizes":[],"default_left":[0,0,0,0,0,0,0,0,0,0,0,0,0,0,0],"id":24,"left_children":[1,3,5,7,9,11,13,-1,-1,-1,-1,-1,-1,-1,-1],"loss_changes":[2.3739523E2,6.3837593E1,9.7166534E1,3.288057E1,1.4678215E1,3.4509277E1,2.4575998E1,0E0,0E0,0E0,0E0,0E0,0E0,0E0,0E0],"parents":[2147483647,0,0,1,1,2,2,3,3,4,4,5,5,6,6],"right_children":[2,4,6,8,10,12,14,-1,-1,-1,-1,-1,-1,-1,-1],"split_conditions":[4.64E-1,5.14E-1,2.9E0,-4.7E0,-6.2E0,2.3E1,3.6E0,1.2411614E-3,-1.9121098E-3,4.270752E-3,1.9372058E-3,-3.1438507E-3,-5.5715083E-3,5.793227E-4,-2.0933629E-3],"split_indices":[3,55,77,25,25,80,25,0,0,0,0,0,0,0,0],"split_type":[0,0,0,0,0,0,0,0,0,0,0,0,0,0,0],"sum_hessian":[6.792209E3,2.5694038E3,4.222805E3,1.3296151E3,1.2397887E3,2.835233E3,1.3875723E3,6.107376E2,7.188775E2,3.9822733E2,8.415614E2,2.0041143E3,8.311187E2,7.614301E2,6.261422E2],"tree_param":{"num_deleted":"0","num_feature":"106","num_nodes":"15","size_leaf_vector":"1"}},{"base_weights":[1.3382603E-1,-1.0581981E-1,2.7963123E-1,4.6386026E-2,-2.6895922E-1,3.8572064E-1,6.273657E-2,-1.241161E-3,1.9121091E-3,-4.2707515E-3,-1.937206E-3,3.1438505E-3,5.5715083E-3,-5.793226E-4,2.093362E-3],"categories":[],"categories_nodes":[],"categories_segments":[],"categories_sizes":[],"default_left":[0,0,0,0,0,0,0,0,0,0,0,0,0,0,0],"id":25,"left_children":[1,3,5,7,9,11,13,-1,-1,-1,-1,-1,-1,-1,-1],"loss_changes":[2.3739526E2,6.3837585E1,9.7166534E1,3.2880547E1,1.4678215E1,3.450934E1,2.4575975E1,0E0,0E0,0E0,0E0,0E0,0E0,0E0,0E0],"parents":[2147483647,0,0,1,1,2,2,3,3,4,4,5,5,6,6],"right_children":[2,4,6,8,10,12,14,-1,-1,-1,-1,-1,-1,-1,-1],"split_conditions":[4.64E-1,5.14E-1,2.9E0,-4.7E0,-6.2E0,2.3E1,3.6E0,-1.241161E-3,1.9121091E-3,-4.2707515E-3,-1.937206E-3,3.1438505E-3,5.5715083E-3,-5.793226E-4,2.093362E-3],"split_indices":[3,55,77,25,25,80,25,0,0,0,0,0,0,0,0],"split_type":[0,0,0,0,0,0,0,0,0,0,0,0,0,0,0],"sum_hessian":[6.792209E3,2.5694038E3,4.222805E3,1.3296151E3,1.2397887E3,2.835233E3,1.3875723E3,6.107376E2,7.188775E2,3.982273E2,8.4156146E2,2.0041143E3,8.311187E2,7.6143005E2,6.261422E2],"tree_param":{"num_deleted":"0","num_feature":"106","num_nodes":"15","size_leaf_vector":"1"}},{"base_weights":[-1.3251814E-1,-3.2079494E-1,5.008597E-2,-1.8205167E-1,-4.6452448E-1,-1.04638696E-1,2.2520138E-1,-2.6489382E-3,-3.9756298E-4,-3.7860405E-3,-5.9602372E-3,1.1795381E-3,-2.2679565E-3,1.1966325E-3,3.4784987E-3],"categories":[],"categories_nodes":[],"categories_segments":[],"categories_sizes":[],"default_left":[0,0,0,0,0,0,0,0,0,0,0,0,0,0,0],"id":26,"left_children":[1,3,5,7,9,11,13,-1,-1,-1,-1,-1,-1,-1,-1],"loss_changes":[2.3351566E2,6.66008E1,9.346381E1,2.0066685E1,1.832492E1,4.9830467E1,2.0902542E1,0E0,0E0,0E0,0E0,0E0,0E0,0E0,0E0],"parents":[2147483647,0,0,1,1,2,2,3,3,4,4,5,5,6,6],"right_children":[2,4,6,8,10,12,14,-1,-1,-1,-1,-1,-1,-1,-1],"split_conditions":[1.5E1,1.3E1,5.23E-1,5.1E0,2.3E1,-4.7E0,2.2E1,-2.6489382E-3,-3.9756298E-4,-3.7860405E-3,-5.9602372E-3,1.1795381E-3,-2.2679565E-3,1.1966325E-3,3.4784987E-3],"split_indices":[51,80,55,77,80,25,28,0,0,0,0,0,0,0,0],"split_type":[0,0,0,0,0,0,0,0,0,0,0,0,0,0,0],"sum_hessian":[6.790705E3,3.3430476E3,3.4476577E3,1.7021832E3,1.6408643E3,1.8306099E3,1.6170479E3,1.0752992E3,6.268841E2,9.947699E2,6.460944E2,6.486622E2,1.1819476E3,8.702122E2,7.4683563E2],"tree_param":{"num_deleted":"0","num_feature":"106","num_nodes":"15","size_leaf_vector":"1"}},{"base_weights":[1.3251814E-1,3.2079494E-1,-5.0085966E-2,1.8205164E-1,4.6452454E-1,1.04638696E-1,-2.2520138E-1,2.6489382E-3,3.975625E-4,3.7860414E-3,5.9602372E-3,-1.1795381E-3,2.2679567E-3,-1.1966326E-3,-3.4784984E-3],"categories":[],"categories_nodes":[],"categories_segments":[],"categories_sizes":[],"default_left":[0,0,0,0,0,0,0,0,0,0,0,0,0,0,0],"id":27,"left_children":[1,3,5,7,9,11,13,-1,-1,-1,-1,-1,-1,-1,-1],"loss_changes":[2.3351564E2,6.660086E1,9.346382E1,2.00667E1,1.832489E1,4.9830475E1,2.090252E1,0E0,0E0,0E0,0E0,0E0,0E0,0E0,0E0],"parents":[2147483647,0,0,1,1,2,2,3,3,4,4,5,5,6,6],"right_children":[2,4,6,8,10,12,14,-1,-1,-1,-1,-1,-1,-1,-1],"split_conditions":[1.5E1,1.3E1,5.23E-1,5.1E0,2.3E1,-4.7E0,2.2E1,2.6489382E-3,3.975625E-4,3.7860414E-3,5.9602372E-3,-1.1795381E-3,2.2679567E-3,-1.1966326E-3,-3.4784984E-3],"split_indices":[51,80,55,77,80,25,28,0,0,0,0,0,0,0,0],"split_type":[0,0,0,0,0,0,0,0,0,0,0,0,0,0,0],"sum_hessian":[6.790705E3,3.3430476E3,3.4476577E3,1.7021832E3,1.6408643E3,1.8306099E3,1.6170479E3,1.0752992E3,6.268841E2,9.947699E2,6.460944E2,6.486622E2,1.1819476E3,8.702122E2,7.4683563E2],"tree_param":{"num_deleted":"0","num_feature":"106","num_nodes":"15","size_leaf_vector":"1"}},{"base_weights":[-1.3122559E-1,-2.5144953E-1,1.495905E-1,-1.0986468E-1,-4.1356367E-1,-1.5993641E-1,2.3015918E-1,-2.5670144E-3,2.6012302E-4,-5.6261853E-3,-3.470266E-3,-2.6593923E-3,8.2274637E-4,3.7848204E-3,1.3517971E-3],"categories":[],"categories_nodes":[],"categories_segments":[],"categories_sizes":[],"default_left":[0,0,0,0,0,0,0,0,0,0,0,0,0,0,0],"id":28,"left_children":[1,3,5,7,9,11,13,-1,-1,-1,-1,-1,-1,-1,-1],"loss_changes":[2.2927719E2,1.0909418E2,5.0815113E1,5.0674953E1,2.1786285E1,1.0834452E1,2.271495E1,0E0,0E0,0E0,0E0,0E0,0E0,0E0,0E0],"parents":[2147483647,0,0,1,1,2,2,3,3,4,4,5,5,6,6],"right_children":[2,4,6,8,10,12,14,-1,-1,-1,-1,-1,-1,-1,-1],"split_conditions":[2E1,1.4E1,3.59E-1,1E1,7E0,2.7E1,-6.2E0,-2.5670144E-3,2.6012302E-4,-5.6261853E-3,-3.470266E-3,-2.6593923E-3,8.2274637E-4,3.7848204E-3,1.3517971E-3],"split_indices":[28,80,55,51,51,28,25,0,0,0,0,0,0,0,0],"split_type":[0,0,0,0,0,0,0,0,0,0,0,0,0,0,0],"sum_hessian":[6.7891064E3,4.7539385E3,2.0351677E3,2.5385422E3,2.2153965E3,4.2013138E2,1.6150364E3,1.2196387E3,1.3189036E3,6.814257E2,1.5339707E3,2.9216736E2,1.2796399E2,6.293068E2,9.857296E2],"tree_param":{"num_deleted":"0","num_feature":"106","num_nodes":"15","size_leaf_vector":"1"}},{"base_weights":[1.3122559E-1,2.5144953E-1,-1.495905E-1,1.0986467E-1,4.1356373E-1,1.5993643E-1,-2.3015918E-1,2.5670144E-3,-2.601229E-4,5.626186E-3,3.4702665E-3,2.6593923E-3,-8.227458E-4,-3.7848204E-3,-1.3517969E-3],"categories":[],"categories_nodes":[],"categories_segments":[],"categories_sizes":[],"default_left":[0,0,0,0,0,0,0,0,0,0,0,0,0,0,0],"id":29,"left_children":[1,3,5,7,9,11,13,-1,-1,-1,-1,-1,-1,-1,-1],"loss_changes":[2.2927718E2,1.0909424E2,5.081513E1,5.0674946E1,2.1786255E1,1.0834447E1,2.2714943E1,0E0,0E0,0E0,0E0,0E0,0E0,0E0,0E0],"parents":[2147483647,0,0,1,1,2,2,3,3,4,4,5,5,6,6],"right_children":[2,4,6,8,10,12,14,-1,-1,-1,-1,-1,-1,-1,-1],"split_conditions":[2E1,1.4E1,3.59E-1,1E1,7E0,2.7E1,-6.2E0,2.5670144E-3,-2.601229E-4,5.626186E-3,3.4702665E-3,2.6593923E-3,-8.227458E-4,-3.7848204E-3,-1.3517969E-3],"split_indices":[28,80,55,51,51,28,25,0,0,0,0,0,0,0,0],"split_type":[0,0,0,0,0,0,0,0,0,0,0,0,0,0,0],"sum_hessian":[6.7891064E3,4.7539385E3,2.0351677E3,2.5385422E3,2.2153962E3,4.2013138E2,1.6150364E3,1.2196387E3,1.3189036E3,6.8142566E2,1.5339707E3,2.9216736E2,1.27964E2,6.293068E2,9.857296E2],"tree_param":{"num_deleted":"0","num_feature":"106","num_nodes":"15","size_leaf_vector":"1"}},{"base_weights":[-1.2994497E-1,-3.1490204E-1,4.936269E-2,-1.7863132E-1,-4.56204E-1,-1.7317227E-1,1.678776E-1,-2.6064771E-3,-3.779129E-4,-3.7101551E-3,-5.86706E-3,5.767344E-4,-3.0117503E-3,6.229921E-4,3.0752062E-3],"categories":[],"categories_nodes":[],"categories_segments":[],"categories_sizes":[],"default_left":[0,0,0,0,0,0,0,0,0,0,0,0,0,0,0],"id":30,"left_children":[1,3,5,7,9,11,13,-1,-1,-1,-1,-1,-1,-1,-1],"loss_changes":[2.2515193E2,6.42652E1,9.095964E1,1.9659634E1,1.80141E1,3.5434494E1,3.315588E1,0E0,0E0,0E0,0E0,0E0,0E0,0E0,0E0],"parents":[2147483647,0,0,1,1,2,2,3,3,4,4,5,5,6,6],"right_children":[2,4,6,8,10,12,14,-1,-1,-1,-1,-1,-1,-1,-1],"split_conditions":[1.5E1,1.3E1,-1.4E0,5.1E0,2.3E1,-4.7E0,2.4E1,-2.6064771E-3,-3.779129E-4,-3.7101551E-3,-5.86706E-3,5.767344E-4,-3.0117503E-3,6.229921E-4,3.0752062E-3],"split_indices":[51,80,77,77,80,25,51,0,0,0,0,0,0,0,0],"split_type":[0,0,0,0,0,0,0,0,0,0,0,0,0,0,0],"sum_hessian":[6.787533E3,3.3407603E3,3.4467732E3,1.7018097E3,1.6389504E3,1.1975942E3,2.249179E3,1.0749662E3,6.2684357E2,9.939606E2,6.4498987E2,4.273829E2,7.7021136E2,1.2816339E3,9.6754504E2],"tree_param":{"num_deleted":"0","num_feature":"106","num_nodes":"15","size_leaf_vector":"1"}},{"base_weights":[1.2994497E-1,3.1490204E-1,-4.9362704E-2,1.7863132E-1,4.56204E-1,1.7317225E-1,-1.6787761E-1,2.6064774E-3,3.7791274E-4,3.7101551E-3,5.86706E-3,-5.767343E-4,3.0117498E-3,-6.229923E-4,-3.0752062E-3],"categories":[],"categories_nodes":[],"categories_segments":[],"categories_sizes":[],"default_left":[0,0,0,0,0,0,0,0,0,0,0,0,0,0,0],"id":31,"left_children":[1,3,5,7,9,11,13,-1,-1,-1,-1,-1,-1,-1,-1],"loss_changes":[2.2515198E2,6.426517E1,9.095964E1,1.9659637E1,1.801413E1,3.5434486E1,3.3155872E1,0E0,0E0,0E0,0E0,0E0,0E0,0E0,0E0],"parents":[2147483647,0,0,1,1,2,2,3,3,4,4,5,5,6,6],"right_children":[2,4,6,8,10,12,14,-1,-1,-1,-1,-1,-1,-1,-1],"split_conditions":[1.5E1,1.3E1,-1.4E0,5.1E0,2.3E1,-4.7E0,2.4E1,2.6064774E-3,3.7791274E-4,3.7101551E-3,5.86706E-3,-5.767343E-4,3.0117498E-3,-6.229923E-4,-3.0752062E-3],"split_indices":[51,80,77,77,80,25,51,0,0,0,0,0,0,0,0],"split_type":[0,0,0,0,0,0,0,0,0,0,0,0,0,0,0],"sum_hessian":[6.787533E3,3.3407603E3,3.4467732E3,1.7018097E3,1.6389506E3,1.1975944E3,2.249179E3,1.0749662E3,6.2684357E2,9.9396063E2,6.4498987E2,4.273829E2,7.702114E2,1.2816339E3,9.6754504E2],"tree_param":{"num_deleted":"0","num_feature":"106","num_nodes":"15","size_leaf_vector":"1"}},{"base_weights":[-1.2868209E-1,-2.583175E-1,1.2287165E-1,-1.1864718E-1,-4.162983E-1,-1.7952095E-1,1.9931915E-1,-2.88621E-3,-6.4009764E-5,-5.532616E-3,-3.503215E-3,-2.782854E-3,8.10823E-4,9.185855E-4,3.2964458E-3],"categories":[],"categories_nodes":[],"categories_segments":[],"categories_sizes":[],"default_left":[0,0,0,0,0,0,0,0,0,0,0,0,0,0,0],"id":32,"left_children":[1,3,5,7,9,11,13,-1,-1,-1,-1,-1,-1,-1,-1],"loss_changes":[2.2134837E2,9.878079E1,5.340672E1,4.5380505E1,1.8794678E1,1.2027184E1,2.578492E1,0E0,0E0,0E0,0E0,0E0,0E0,0E0,0E0],"parents":[2147483647,0,0,1,1,2,2,3,3,4,4,5,5,6,6],"right_children":[2,4,6,8,10,12,14,-1,-1,-1,-1,-1,-1,-1,-1],"split_conditions":[1.9E1,1.4E1,3.59E-1,8E0,7E0,2.7E1,2.6E1,-2.88621E-3,-6.4009764E-5,-5.532616E-3,-3.503215E-3,-2.782854E-3,8.10823E-4,9.185855E-4,3.2964458E-3],"split_indices":[27,80,55,51,51,28,51,0,0,0,0,0,0,0,0],"split_type":[0,0,0,0,0,0,0,0,0,0,0,0,0,0,0],"sum_hessian":[6.7857153E3,4.4780005E3,2.3077148E3,2.377665E3,2.1003354E3,4.6540997E2,1.8423048E3,9.450339E2,1.4326311E3,6.8042816E2,1.4199073E3,3.3745288E2,1.279571E2,1.0106622E3,8.3164264E2],"tree_param":{"num_deleted":"0","num_feature":"106","num_nodes":"15","size_leaf_vector":"1"}},{"base_weights":[1.2868208E-1,2.583175E-1,-1.22871645E-1,1.1864717E-1,4.1629827E-1,1.7952093E-1,-1.9931914E-1,2.88621E-3,6.400962E-5,5.532615E-3,3.5032146E-3,2.7828538E-3,-8.10823E-4,-9.1858534E-4,-3.2964456E-3],"categories":[],"categories_nodes":[],"categories_segments":[],"categories_sizes":[],"default_left":[0,0,0,0,0,0,0,0,0,0,0,0,0,0,0],"id":33,"left_children":[1,3,5,7,9,11,13,-1,-1,-1,-1,-1,-1,-1,-1],"loss_changes":[2.2134839E2,9.878073E1,5.3406708E1,4.53805E1,1.8794678E1,1.2027181E1,2.5784912E1,0E0,0E0,0E0,0E0,0E0,0E0,0E0,0E0],"parents":[2147483647,0,0,1,1,2,2,3,3,4,4,5,5,6,6],"right_children":[2,4,6,8,10,12,14,-1,-1,-1,-1,-1,-1,-1,-1],"split_conditions":[1.9E1,1.4E1,3.59E-1,8E0,7E0,2.7E1,2.6E1,2.88621E-3,6.400962E-5,5.532615E-3,3.5032146E-3,2.7828538E-3,-8.10823E-4,-9.1858534E-4,-3.2964456E-3],"split_indices":[27,80,55,51,51,28,51,0,0,0,0,0,0,0,0],"split_type":[0,0,0,0,0,0,0,0,0,0,0,0,0,0,0],"sum_hessian":[6.7857153E3,4.4780005E3,2.3077148E3,2.377665E3,2.1003357E3,4.6540997E2,1.8423048E3,9.450339E2,1.4326311E3,6.8042816E2,1.4199073E3,3.3745288E2,1.2795709E2,1.0106622E3,8.3164264E2],"tree_param":{"num_deleted":"0","num_feature":"106","num_nodes":"15","size_leaf_vector":"1"}},{"base_weights":[-1.2742986E-1,-3.091758E-1,4.868137E-2,-1.7536977E-1,-4.4807008E-1,-1.01704955E-1,2.188765E-1,-2.565664E-3,-3.5976656E-4,-3.6358717E-3,-5.7762275E-3,1.1282348E-3,-2.194761E-3,1.1694063E-3,3.3744313E-3],"categories":[],"categories_nodes":[],"categories_segments":[],"categories_sizes":[],"default_left":[0,0,0,0,0,0,0,0,0,0,0,0,0,0,0],"id":34,"left_children":[1,3,5,7,9,11,13,-1,-1,-1,-1,-1,-1,-1,-1],"loss_changes":[2.1718498E2,6.1980164E1,8.824231E1,1.9258938E1,1.7715729E1,4.6274178E1,1.9506477E1,0E0,0E0,0E0,0E0,0E0,0E0,0E0,0E0],"parents":[2147483647,0,0,1,1,2,2,3,3,4,4,5,5,6,6],"right_children":[2,4,6,8,10,12,14,-1,-1,-1,-1,-1,-1,-1,-1],"split_conditions":[1.5E1,1.3E1,5.23E-1,5.1E0,2.3E1,-4.7E0,2.2E1,-2.565664E-3,-3.5976656E-4,-3.6358717E-3,-5.7762275E-3,1.1282348E-3,-2.194761E-3,1.1694063E-3,3.3744313E-3],"split_indices":[51,80,55,77,80,25,28,0,0,0,0,0,0,0,0],"split_type":[0,0,0,0,0,0,0,0,0,0,0,0,0,0,0],"sum_hessian":[6.7839697E3,3.3382039E3,3.445766E3,1.7013976E3,1.6368062E3,1.829554E3,1.616212E3,1.0746008E3,6.2679675E2,9.9303955E2,6.437666E2,6.484318E2,1.1811222E3,8.701231E2,7.460889E2],"tree_param":{"num_deleted":"0","num_feature":"106","num_nodes":"15","size_leaf_vector":"1"}},{"base_weights":[1.2742986E-1,3.0917582E-1,-4.868137E-2,1.753698E-1,4.4807005E-1,1.01704955E-1,-2.188765E-1,2.5656642E-3,3.5976656E-4,3.6358712E-3,5.7762275E-3,-1.1282349E-3,2.194761E-3,-1.1694058E-3,-3.3744317E-3],"categories":[],"categories_nodes":[],"categories_segments":[],"categories_sizes":[],"default_left":[0,0,0,0,0,0,0,0,0,0,0,0,0,0,0],"id":35,"left_children":[1,3,5,7,9,11,13,-1,-1,-1,-1,-1,-1,-1,-1],"loss_changes":[2.1718498E2,6.1980164E1,8.8242294E1,1.9258942E1,1.771576E1,4.6274197E1,1.9506493E1,0E0,0E0,0E0,0E0,0E0,0E0,0E0,0E0],"parents":[2147483647,0,0,1,1,2,2,3,3,4,4,5,5,6,6],"right_children":[2,4,6,8,10,12,14,-1,-1,-1,-1,-1,-1,-1,-1],"split_conditions":[1.5E1,1.3E1,5.23E-1,5.1E0,2.3E1,-4.7E0,2.2E1,2.5656642E-3,3.5976656E-4,3.6358712E-3,5.7762275E-3,-1.1282349E-3,2.194761E-3,-1.1694058E-3,-3.3744317E-3],"split_indices":[51,80,55,77,80,25,28,0,0,0,0,0,0,0,0],"split_type":[0,0,0,0,0,0,0,0,0,0,0,0,0,0,0],"sum_hessian":[6.7839697E3,3.3382039E3,3.445766E3,1.7013976E3,1.6368062E3,1.829554E3,1.616212E3,1.0746008E3,6.2679675E2,9.9303955E2,6.437666E2,6.484318E2,1.1811222E3,8.701231E2,7.460889E2],"tree_param":{"num_deleted":"0","num_feature":"106","num_nodes":"15","size_leaf_vector":"1"}},{"base_weights":[-1.2619375E-1,-2.4231489E-1,1.448841E-1,-1.441474E-1,-4.6289125E-1,-1.5498047E-1,2.2295338E-1,-3.2083003E-3,-3.9643212E-4,-4.0481235E-3,-5.9451014E-3,-2.5761279E-3,7.940807E-4,3.6706536E-3,1.3074396E-3],"categories":[],"categories_nodes":[],"categories_segments":[],"categories_sizes":[],"default_left":[0,0,0,0,0,0,0,0,0,0,0,0,0,0,0],"id":36,"left_children":[1,3,5,7,9,11,13,-1,-1,-1,-1,-1,-1,-1,-1],"loss_changes":[2.1354984E2,1.0276883E2,4.7670914E1,6.069629E1,1.0936829E1,1.0146212E1,2.1411934E1,0E0,0E0,0E0,0E0,0E0,0E0,0E0,0E0],"parents":[2147483647,0,0,1,1,2,2,3,3,4,4,5,5,6,6],"right_children":[2,4,6,8,10,12,14,-1,-1,-1,-1,-1,-1,-1,-1],"split_conditions":[2E1,1.9E1,3.59E-1,8E0,3.7E1,2.7E1,-6.2E0,-3.2083003E-3,-3.9643212E-4,-4.0481235E-3,-5.9451014E-3,-2.5761279E-3,7.940807E-4,3.6706536E-3,1.3074396E-3],"split_indices":[28,80,55,51,54,28,25,0,0,0,0,0,0,0,0],"split_type":[0,0,0,0,0,0,0,0,0,0,0,0,0,0,0],"sum_hessian":[6.782011E3,4.748157E3,2.0338538E3,3.2869526E3,1.4612046E3,4.199269E2,1.6139269E3,1.2208396E3,2.066113E3,1.0166623E3,4.4454233E2,2.9197842E2,1.2794847E2,6.285694E2,9.853575E2],"tree_param":{"num_deleted":"0","num_feature":"106","num_nodes":"15","size_leaf_vector":"1"}},{"base_weights":[1.2619375E-1,2.4231489E-1,-1.4488412E-1,1.441474E-1,4.6289125E-1,1.5498042E-1,-2.229534E-1,3.2083003E-3,3.9643203E-4,4.0481235E-3,5.945102E-3,2.5761279E-3,-7.9408137E-4,-3.6706536E-3,-1.3074399E-3],"categories":[],"categories_nodes":[],"categories_segments":[],"categories_sizes":[],"default_left":[0,0,0,0,0,0,0,0,0,0,0,0,0,0,0],"id":37,"left_children":[1,3,5,7,9,11,13,-1,-1,-1,-1,-1,-1,-1,-1],"loss_changes":[2.1354987E2,1.0276883E2,4.767091E1,6.069629E1,1.0936829E1,1.0146211E1,2.1411926E1,0E0,0E0,0E0,0E0,0E0,0E0,0E0,0E0],"parents":[2147483647,0,0,1,1,2,2,3,3,4,4,5,5,6,6],"right_children":[2,4,6,8,10,12,14,-1,-1,-1,-1,-1,-1,-1,-1],"split_conditions":[2E1,1.9E1,3.59E-1,8E0,3.7E1,2.7E1,-6.2E0,3.2083003E-3,3.9643203E-4,4.0481235E-3,5.945102E-3,2.5761279E-3,-7.9408137E-4,-3.6706536E-3,-1.3074399E-3],"split_indices":[28,80,55,51,54,28,25,0,0,0,0,0,0,0,0],"split_type":[0,0,0,0,0,0,0,0,0,0,0,0,0,0,0],"sum_hessian":[6.782011E3,4.748157E3,2.0338538E3,3.2869526E3,1.4612046E3,4.199269E2,1.6139269E3,1.2208396E3,2.066113E3,1.0166623E3,4.4454233E2,2.9197845E2,1.2794847E2,6.285694E2,9.853575E2],"tree_param":{"num_deleted":"0","num_feature":"106","num_nodes":"15","size_leaf_vector":"1"}},{"base_weights":[-1.2496858E-1,-3.036593E-1,4.809563E-2,-3.9887452E-1,-1.1319719E-1,-1.6793811E-1,1.631184E-1,-3.296609E-3,-5.684068E-3,-4.0928752E-4,-2.4004255E-3,-3.2408957E-3,9.584934E-5,6.142831E-4,2.9774308E-3],"categories":[],"categories_nodes":[],"categories_segments":[],"categories_sizes":[],"default_left":[0,0,0,0,0,0,0,0,0,0,0,0,0,0,0],"id":38,"left_children":[1,3,5,7,9,11,13,-1,-1,-1,-1,-1,-1,-1,-1],"loss_changes":[2.0972052E2,6.0461273E1,8.564784E1,2.5909302E1,1.01968775E1,3.3202744E1,3.0770512E1,0E0,0E0,0E0,0E0,0E0,0E0,0E0,0E0],"parents":[2147483647,0,0,1,1,2,2,3,3,4,4,5,5,6,6],"right_children":[2,4,6,8,10,12,14,-1,-1,-1,-1,-1,-1,-1,-1],"split_conditions":[1.5E1,2.9E0,-1.4E0,2.3E1,6.71E-1,2.2E1,2.4E1,-3.296609E-3,-5.684068E-3,-4.0928752E-4,-2.4004255E-3,-3.2408957E-3,9.584934E-5,6.142831E-4,2.9774308E-3],"split_indices":[51,77,77,80,3,28,51,0,0,0,0,0,0,0,0],"split_type":[0,0,0,0,0,0,0,0,0,0,0,0,0,0,0],"sum_hessian":[6.7801206E3,3.3354634E3,3.4446572E3,2.2230356E3,1.1124277E3,1.1966571E3,2.248E3,1.5806577E3,6.42378E2,7.0951416E2,4.0291348E2,6.3621173E2,5.604454E2,1.2814788E3,9.6652136E2],"tree_param":{"num_deleted":"0","num_feature":"106","num_nodes":"15","size_leaf_vector":"1"}},{"base_weights":[1.2496858E-1,3.036593E-1,-4.809563E-2,3.9887452E-1,1.1319719E-1,1.6793811E-1,-1.631184E-1,3.296609E-3,5.684068E-3,4.0928734E-4,2.4004257E-3,3.2408957E-3,-9.584916E-5,-6.1428326E-4,-2.9774308E-3],"categories":[],"categories_nodes":[],"categories_segments":[],"categories_sizes":[],"default_left":[0,0,0,0,0,0,0,0,0,0,0,0,0,0,0],"id":39,"left_children":[1,3,5,7,9,11,13,-1,-1,-1,-1,-1,-1,-1,-1],"loss_changes":[2.0972052E2,6.0461304E1,8.564784E1,2.5909271E1,1.0196878E1,3.3202744E1,3.0770504E1,0E0,0E0,0E0,0E0,0E0,0E0,0E0,0E0],"parents":[2147483647,0,0,1,1,2,2,3,3,4,4,5,5,6,6],"right_children":[2,4,6,8,10,12,14,-1,-1,-1,-1,-1,-1,-1,-1],"split_conditions":[1.5E1,2.9E0,-1.4E0,2.3E1,6.71E-1,2.2E1,2.4E1,3.296609E-3,5.684068E-3,4.0928734E-4,2.4004257E-3,3.2408957E-3,-9.584916E-5,-6.1428326E-4,-2.9774308E-3],"split_indices":[51,77,77,80,3,28,51,0,0,0,0,0,0,0,0],"split_type":[0,0,0,0,0,0,0,0,0,0,0,0,0,0,0],"sum_hessian":[6.7801206E3,3.3354634E3,3.4446572E3,2.2230356E3,1.1124277E3,1.1966571E3,2.248E3,1.5806577E3,6.42378E2,7.0951416E2,4.0291348E2,6.3621173E2,5.604454E2,1.2814788E3,9.6652136E2],"tree_param":{"num_deleted":"0","num_feature":"106","num_nodes":"15","size_leaf_vector":"1"}},{"base_weights":[-1.23759575E-1,-2.4894886E-1,1.1899149E-1,-1.1365169E-1,-4.0228063E-1,1.8711802E-1,-2.0175844E-1,-2.785905E-3,-4.8126585E-5,-5.3660045E-3,-3.3765684E-3,2.9909646E-3,7.77901E-4,-3.0789147E-3,8.023366E-4],"categories":[],"categories_nodes":[],"categories_segments":[],"categories_sizes":[],"default_left":[0,0,0,0,0,0,0,0,0,0,0,0,0,0,0],"id":40,"left_children":[1,3,5,7,9,11,13,-1,-1,-1,-1,-1,-1,-1,-1],"loss_changes":[2.0604263E2,9.274451E1,5.045352E1,4.2679794E1,1.8015045E1,2.3280296E1,1.2136051E1,0E0,0E0,0E0,0E0,0E0,0E0,0E0,0E0],"parents":[2147483647,0,0,1,1,2,2,3,3,4,4,5,5,6,6],"right_children":[2,4,6,8,10,12,14,-1,-1,-1,-1,-1,-1,-1,-1],"split_conditions":[1.9E1,1.4E1,2.5E1,8E0,7E0,-4.6E0,2.7E1,-2.785905E-3,-4.8126585E-5,-5.3660045E-3,-3.3765684E-3,2.9909646E-3,7.77901E-4,-3.0789147E-3,8.023366E-4],"split_indices":[27,80,81,51,51,25,28,0,0,0,0,0,0,0,0],"split_type":[0,0,0,0,0,0,0,0,0,0,0,0,0,0,0],"sum_hessian":[6.7780117E3,4.471821E3,2.3061907E3,2.3765435E3,2.0952773E3,1.9025171E3,4.0367358E2,9.4416315E2,1.4323804E3,6.7824634E2,1.4170311E3,9.3900806E2,9.63509E2,2.9322208E2,1.1045151E2],"tree_param":{"num_deleted":"0","num_feature":"106","num_nodes":"15","size_leaf_vector":"1"}},{"base_weights":[1.2375955E-1,2.4894884E-1,-1.1899152E-1,1.1365168E-1,4.022806E-1,-1.8711805E-1,2.0175841E-1,2.785905E-3,4.812641E-5,5.366004E-3,3.3765682E-3,-2.9909648E-3,-7.7790127E-4,3.0789145E-3,-8.0233684E-4],"categories":[],"categories_nodes":[],"categories_segments":[],"categories_sizes":[],"default_left":[0,0,0,0,0,0,0,0,0,0,0,0,0,0,0],"id":41,"left_children":[1,3,5,7,9,11,13,-1,-1,-1,-1,-1,-1,-1,-1],"loss_changes":[2.0604268E2,9.274451E1,5.0453518E1,4.26798E1,1.8015045E1,2.3280296E1,1.2136051E1,0E0,0E0,0E0,0E0,0E0,0E0,0E0,0E0],"parents":[2147483647,0,0,1,1,2,2,3,3,4,4,5,5,6,6],"right_children":[2,4,6,8,10,12,14,-1,-1,-1,-1,-1,-1,-1,-1],"split_conditions":[1.9E1,1.4E1,2.5E1,8E0,7E0,-4.6E0,2.7E1,2.785905E-3,4.812641E-5,5.366004E-3,3.3765682E-3,-2.9909648E-3,-7.7790127E-4,3.0789145E-3,-8.0233684E-4],"split_indices":[27,80,81,51,51,25,28,0,0,0,0,0,0,0,0],"split_type":[0,0,0,0,0,0,0,0,0,0,0,0,0,0,0],"sum_hessian":[6.7780117E3,4.471821E3,2.3061907E3,2.3765435E3,2.0952773E3,1.9025171E3,4.0367358E2,9.4416315E2,1.4323804E3,6.7824634E2,1.4170311E3,9.390081E2,9.63509E2,2.9322208E2,1.1045151E2],"tree_param":{"num_deleted":"0","num_feature":"106","num_nodes":"15","size_leaf_vector":"1"}},{"base_weights":[-1.2256148E-1,-2.981763E-1,4.7426905E-2,-3.9204448E-1,-1.10609084E-1,-9.891741E-2,2.1303223E-1,-3.236548E-3,-5.597926E-3,-3.9625278E-4,-2.352386E-3,1.0816081E-3,-2.1264222E-3,4.0232367E-3,1.5302488E-3],"categories":[],"categories_nodes":[],"categories_segments":[],"categories_sizes":[],"default_left":[0,0,0,0,0,0,0,0,0,0,0,0,0,0,0],"id":42,"left_children":[1,3,5,7,9,11,13,-1,-1,-1,-1,-1,-1,-1,-1],"loss_changes":[2.0232242E2,5.8647156E1,8.3499756E1,2.5301361E1,9.838869E0,4.310215E1,1.8296951E1,0E0,0E0,0E0,0E0,0E0,0E0,0E0,0E0],"parents":[2147483647,0,0,1,1,2,2,3,3,4,4,5,5,6,6],"right_children":[2,4,6,8,10,12,14,-1,-1,-1,-1,-1,-1,-1,-1],"split_conditions":[1.5E1,2.9E0,5.23E-1,2.3E1,6.71E-1,-4.7E0,-6.2E0,-3.236548E-3,-5.597926E-3,-3.9625278E-4,-2.352386E-3,1.0816081E-3,-2.1264222E-3,4.0232367E-3,1.5302488E-3],"split_indices":[51,77,55,80,3,25,25,0,0,0,0,0,0,0,0],"split_type":[0,0,0,0,0,0,0,0,0,0,0,0,0,0,0],"sum_hessian":[6.775934E3,3.3324402E3,3.4434941E3,2.2202322E3,1.1122079E3,1.8282684E3,1.6152258E3,1.5792946E3,6.409376E2,7.0945166E2,4.0275626E2,6.481393E2,1.1801292E3,3.8741904E2,1.2278068E3],"tree_param":{"num_deleted":"0","num_feature":"106","num_nodes":"15","size_leaf_vector":"1"}},{"base_weights":[1.2256148E-1,2.981763E-1,-4.7426913E-2,3.920445E-1,1.1060908E-1,9.891741E-2,-2.1303226E-1,3.2365483E-3,5.5979257E-3,3.9625316E-4,2.352385E-3,-1.0816085E-3,2.1264222E-3,-4.023238E-3,-1.5302487E-3],"categories":[],"categories_nodes":[],"categories_segments":[],"categories_sizes":[],"default_left":[0,0,0,0,0,0,0,0,0,0,0,0,0,0,0],"id":43,"left_children":[1,3,5,7,9,11,13,-1,-1,-1,-1,-1,-1,-1,-1],"loss_changes":[2.0232242E2,5.8647186E1,8.349977E1,2.530133E1,9.838855E0,4.3102165E1,1.8296967E1,0E0,0E0,0E0,0E0,0E0,0E0,0E0,0E0],"parents":[2147483647,0,0,1,1,2,2,3,3,4,4,5,5,6,6],"right_children":[2,4,6,8,10,12,14,-1,-1,-1,-1,-1,-1,-1,-1],"split_conditions":[1.5E1,2.9E0,5.23E-1,2.3E1,6.71E-1,-4.7E0,-6.2E0,3.2365483E-3,5.5979257E-3,3.9625316E-4,2.352385E-3,-1.0816085E-3,2.1264222E-3,-4.023238E-3,-1.5302487E-3],"split_indices":[51,77,55,80,3,25,25,0,0,0,0,0,0,0,0],"split_type":[0,0,0,0,0,0,0,0,0,0,0,0,0,0,0],"sum_hessian":[6.7759346E3,3.3324402E3,3.4434944E3,2.2202322E3,1.1122079E3,1.8282684E3,1.6152258E3,1.5792946E3,6.409376E2,7.094516E2,4.0275626E2,6.481393E2,1.1801292E3,3.8741904E2,1.2278068E3],"tree_param":{"num_deleted":"0","num_feature":"106","num_nodes":"15","size_leaf_vector":"1"}},{"base_weights":[-1.2137783E-1,-2.3357053E-1,1.4034393E-1,-1.3841319E-1,-4.4789165E-1,-1.5111242E-1,2.162453E-1,-3.0975596E-3,-3.716444E-4,-3.9039499E-3,-5.783103E-3,-2.5078733E-3,7.6400547E-4,3.559204E-3,1.2697147E-3],"categories":[],"categories_nodes":[],"categories_segments":[],"categories_sizes":[],"default_left":[0,0,0,0,0,0,0,0,0,0,0,0,0,0,0],"id":44,"left_children":[1,3,5,7,9,11,13,-1,-1,-1,-1,-1,-1,-1,-1],"loss_changes":[1.9895947E2,9.66539E1,4.5014526E1,5.6988087E1,1.0705017E1,9.559742E0,2.0075958E1,0E0,0E0,0E0,0E0,0E0,0E0,0E0,0E0],"parents":[2147483647,0,0,1,1,2,2,3,3,4,4,5,5,6,6],"right_children":[2,4,6,8,10,12,14,-1,-1,-1,-1,-1,-1,-1,-1],"split_conditions":[2E1,1.9E1,3.59E-1,8E0,3.7E1,2.7E1,-6.2E0,-3.0975596E-3,-3.716444E-4,-3.9039499E-3,-5.783103E-3,-2.5078733E-3,7.6400547E-4,3.559204E-3,1.2697147E-3],"split_indices":[28,80,55,51,54,28,25,0,0,0,0,0,0,0,0],"split_type":[0,0,0,0,0,0,0,0,0,0,0,0,0,0,0],"sum_hessian":[6.773677E3,4.7413164E3,2.0323602E3,3.284613E3,1.4567035E3,4.1970993E2,1.6126504E3,1.21924E3,2.065373E3,1.01376575E3,4.4293768E2,2.9177783E2,1.2793209E2,6.2765436E2,9.84996E2],"tree_param":{"num_deleted":"0","num_feature":"106","num_nodes":"15","size_leaf_vector":"1"}},{"base_weights":[1.21377826E-1,2.3357052E-1,-1.4034392E-1,1.3841318E-1,4.4789162E-1,1.5111242E-1,-2.1624526E-1,3.0975596E-3,3.7164416E-4,3.9039494E-3,5.7831025E-3,2.5078733E-3,-7.640054E-4,-3.5592036E-3,-1.2697147E-3],"categories":[],"categories_nodes":[],"categories_segments":[],"categories_sizes":[],"default_left":[0,0,0,0,0,0,0,0,0,0,0,0,0,0,0],"id":45,"left_children":[1,3,5,7,9,11,13,-1,-1,-1,-1,-1,-1,-1,-1],"loss_changes":[1.9895944E2,9.665384E1,4.5014526E1,5.6988102E1,1.0705017E1,9.559741E0,2.0075935E1,0E0,0E0,0E0,0E0,0E0,0E0,0E0,0E0],"parents":[2147483647,0,0,1,1,2,2,3,3,4,4,5,5,6,6],"right_children":[2,4,6,8,10,12,14,-1,-1,-1,-1,-1,-1,-1,-1],"split_conditions":[2E1,1.9E1,3.59E-1,8E0,3.7E1,2.7E1,-6.2E0,3.0975596E-3,3.7164416E-4,3.9039494E-3,5.7831025E-3,2.5078733E-3,-7.640054E-4,-3.5592036E-3,-1.2697147E-3],"split_indices":[28,80,55,51,54,28,25,0,0,0,0,0,0,0,0],"split_type":[0,0,0,0,0,0,0,0,0,0,0,0,0,0,0],"sum_hessian":[6.773677E3,4.7413164E3,2.0323602E3,3.284613E3,1.4567035E3,4.1970993E2,1.6126503E3,1.21924E3,2.065373E3,1.01376575E3,4.4293768E2,2.9177783E2,1.2793209E2,6.2765436E2,9.84996E2],"tree_param":{"num_deleted":"0","num_feature":"106","num_nodes":"15","size_leaf_vector":"1"}},{"base_weights":[-1.2020505E-1,-2.928942E-1,4.68549E-2,-3.8563716E-1,-1.0777662E-1,-9.724498E-2,2.0991443E-1,-3.1831015E-3,-5.510537E-3,-3.8059222E-4,-2.3022795E-3,1.0583814E-3,-2.0880348E-3,1.131102E-3,3.227013E-3],"categories":[],"categories_nodes":[],"categories_segments":[],"categories_sizes":[],"default_left":[0,0,0,0,0,0,0,0,0,0,0,0,0,0,0],"id":46,"left_children":[1,3,5,7,9,11,13,-1,-1,-1,-1,-1,-1,-1,-1],"loss_changes":[1.9539594E2,5.7133698E1,8.092495E1,2.4529999E1,9.492477E0,4.144918E1,1.7603592E1,0E0,0E0,0E0,0E0,0E0,0E0,0E0,0E0],"parents":[2147483647,0,0,1,1,2,2,3,3,4,4,5,5,6,6],"right_children":[2,4,6,8,10,12,14,-1,-1,-1,-1,-1,-1,-1,-1],"split_conditions":[1.5E1,2.9E0,5.23E-1,2.3E1,6.71E-1,-4.7E0,2.2E1,-3.1831015E-3,-5.510537E-3,-3.8059222E-4,-2.3022795E-3,1.0583814E-3,-2.0880348E-3,1.131102E-3,3.227013E-3],"split_indices":[51,77,55,80,3,25,28,0,0,0,0,0,0,0,0],"split_type":[0,0,0,0,0,0,0,0,0,0,0,0,0,0,0],"sum_hessian":[6.771477E3,3.3292708E3,3.4422063E3,2.217321E3,1.1119497E3,1.8275538E3,1.6146523E3,1.5779827E3,6.3933844E2,7.0937787E2,4.0257187E2,6.479909E2,1.179563E3,8.699676E2,7.4468475E2],"tree_param":{"num_deleted":"0","num_feature":"106","num_nodes":"15","size_leaf_vector":"1"}},{"base_weights":[1.20205045E-1,2.9289418E-1,-4.68549E-2,3.8563713E-1,1.0777662E-1,9.724496E-2,-2.0991443E-1,3.1831013E-3,5.510537E-3,3.8059248E-4,2.302279E-3,-1.0583815E-3,2.0880348E-3,-1.1311015E-3,-3.2270132E-3],"categories":[],"categories_nodes":[],"categories_segments":[],"categories_sizes":[],"default_left":[0,0,0,0,0,0,0,0,0,0,0,0,0,0,0],"id":47,"left_children":[1,3,5,7,9,11,13,-1,-1,-1,-1,-1,-1,-1,-1],"loss_changes":[1.9539587E2,5.7133698E1,8.0924934E1,2.453003E1,9.492469E0,4.1449177E1,1.76036E1,0E0,0E0,0E0,0E0,0E0,0E0,0E0,0E0],"parents":[2147483647,0,0,1,1,2,2,3,3,4,4,5,5,6,6],"right_children":[2,4,6,8,10,12,14,-1,-1,-1,-1,-1,-1,-1,-1],"split_conditions":[1.5E1,2.9E0,5.23E-1,2.3E1,6.71E-1,-4.7E0,2.2E1,3.1831013E-3,5.510537E-3,3.8059248E-4,2.302279E-3,-1.0583815E-3,2.0880348E-3,-1.1311015E-3,-3.2270132E-3],"split_indices":[51,77,55,80,3,25,28,0,0,0,0,0,0,0,0],"split_type":[0,0,0,0,0,0,0,0,0,0,0,0,0,0,0],"sum_hessian":[6.771477E3,3.3292708E3,3.4422063E3,2.217321E3,1.1119497E3,1.8275538E3,1.6146523E3,1.5779827E3,6.3933844E2,7.0937787E2,4.0257187E2,6.479909E2,1.179563E3,8.699676E2,7.4468475E2],"tree_param":{"num_deleted":"0","num_feature":"106","num_nodes":"15","size_leaf_vector":"1"}},{"base_weights":[-1.1904699E-1,-2.4006194E-1,1.1541832E-1,-1.0891752E-1,-3.890136E-1,1.8166283E-1,-1.964792E-1,-2.6854658E-3,-3.6816095E-5,-5.20933E-3,-3.256387E-3,2.895266E-3,7.645329E-4,-2.9945294E-3,7.688693E-4],"categories":[],"categories_nodes":[],"categories_segments":[],"categories_sizes":[],"default_left":[0,0,0,0,0,0,0,0,0,0,0,0,0,0,0],"id":48,"left_children":[1,3,5,7,9,11,13,-1,-1,-1,-1,-1,-1,-1,-1],"loss_changes":[1.9212042E2,8.719107E1,4.766846E1,3.991584E1,1.730777E1,2.1562786E1,1.1405232E1,0E0,0E0,0E0,0E0,0E0,0E0,0E0,0E0],"parents":[2147483647,0,0,1,1,2,2,3,3,4,4,5,5,6,6],"right_children":[2,4,6,8,10,12,14,-1,-1,-1,-1,-1,-1,-1,-1],"split_conditions":[1.9E1,1.4E1,2.5E1,8E0,7E0,-4.6E0,2.7E1,-2.6854658E-3,-3.6816095E-5,-5.20933E-3,-3.256387E-3,2.895266E-3,7.645329E-4,-2.9945294E-3,7.688693E-4],"split_indices":[27,80,81,51,51,25,28,0,0,0,0,0,0,0,0],"split_type":[0,0,0,0,0,0,0,0,0,0,0,0,0,0,0],"sum_hessian":[6.769072E3,4.4646836E3,2.304388E3,2.3751846E3,2.089499E3,1.90104E3,4.03348E2,9.4308966E2,1.432095E3,6.7571954E2,1.4137794E3,9.378144E2,9.632256E2,2.9291498E2,1.10433014E2],"tree_param":{"num_deleted":"0","num_feature":"106","num_nodes":"15","size_leaf_vector":"1"}},{"base_weights":[1.1904699E-1,2.4006194E-1,-1.15418315E-1,1.0891751E-1,3.8901362E-1,-1.8166283E-1,1.9647923E-1,2.6854654E-3,3.6816033E-5,5.20933E-3,3.2563873E-3,-2.8952663E-3,-7.6453266E-4,2.9945294E-3,-7.6886825E-4],"categories":[],"categories_nodes":[],"categories_segments":[],"categories_sizes":[],"default_left":[0,0,0,0,0,0,0,0,0,0,0,0,0,0,0],"id":49,"left_children":[1,3,5,7,9,11,13,-1,-1,-1,-1,-1,-1,-1,-1],"loss_changes":[1.9212042E2,8.719107E1,4.7668472E1,3.991584E1,1.730774E1,2.1562794E1,1.1405226E1,0E0,0E0,0E0,0E0,0E0,0E0,0E0,0E0],"parents":[2147483647,0,0,1,1,2,2,3,3,4,4,5,5,6,6],"right_children":[2,4,6,8,10,12,14,-1,-1,-1,-1,-1,-1,-1,-1],"split_conditions":[1.9E1,1.4E1,2.5E1,8E0,7E0,-4.6E0,2.7E1,2.6854654E-3,3.6816033E-5,5.20933E-3,3.2563873E-3,-2.8952663E-3,-7.6453266E-4,2.9945294E-3,-7.6886825E-4],"split_indices":[27,80,81,51,51,25,28,0,0,0,0,0,0,0,0],"split_type":[0,0,0,0,0,0,0,0,0,0,0,0,0,0,0],"sum_hessian":[6.769072E3,4.4646836E3,2.304388E3,2.3751846E3,2.089499E3,1.90104E3,4.03348E2,9.4308966E2,1.432095E3,6.7571954E2,1.4137794E3,9.378144E2,9.632256E2,2.9291498E2,1.10433014E2],"tree_param":{"num_deleted":"0","num_feature":"106","num_nodes":"15","size_leaf_vector":"1"}},{"base_weights":[-1.17899664E-1,9.5845364E-2,-2.4828199E-1,-4.2672444E-2,2.4445339E-1,-3.4595641E-1,-4.969405E-2,1.0808756E-3,-1.7082496E-3,3.8729592E-3,1.7676584E-3,-2.8103027E-3,-5.0321347E-3,5.9914746E-4,-1.8311145E-3],"categories":[],"categories_nodes":[],"categories_segments":[],"categories_sizes":[],"default_left":[0,0,0,0,0,0,0,0,0,0,0,0,0,0,0],"id":50,"left_children":[1,3,5,7,9,11,13,-1,-1,-1,-1,-1,-1,-1,-1],"loss_changes":[1.886301E2,5.280765E1,8.152475E1,2.5682499E1,1.1896606E1,2.8627747E1,2.0295979E1,0E0,0E0,0E0,0E0,0E0,0E0,0E0,0E0],"parents":[2147483647,0,0,1,1,2,2,3,3,4,4,5,5,6,6],"right_children":[2,4,6,8,10,12,14,-1,-1,-1,-1,-1,-1,-1,-1],"split_conditions":[4.64E-1,5.14E-1,2.9E0,-4.7E0,-6.2E0,2.3E1,3.6E0,1.0808756E-3,-1.7082496E-3,3.8729592E-3,1.7676584E-3,-2.8103027E-3,-5.0321347E-3,5.9914746E-4,-1.8311145E-3],"split_indices":[3,55,77,25,25,80,25,0,0,0,0,0,0,0,0],"split_type":[0,0,0,0,0,0,0,0,0,0,0,0,0,0,0],"sum_hessian":[6.766706E3,2.5638574E3,4.202849E3,1.3273473E3,1.23651E3,2.8167185E3,1.3861304E3,6.099509E2,7.1739636E2,3.960323E2,8.404777E2,1.9955923E3,8.2112634E2,7.6126526E2,6.2486505E2],"tree_param":{"num_deleted":"0","num_feature":"106","num_nodes":"15","size_leaf_vector":"1"}},{"base_weights":[1.1789966E-1,-9.5845364E-2,2.4828199E-1,4.267245E-2,-2.4445339E-1,3.4595641E-1,4.9694054E-2,-1.0808755E-3,1.7082494E-3,-3.8729592E-3,-1.7676584E-3,2.8103024E-3,5.0321347E-3,-5.991476E-4,1.8311149E-3],"categories":[],"categories_nodes":[],"categories_segments":[],"categories_sizes":[],"default_left":[0,0,0,0,0,0,0,0,0,0,0,0,0,0,0],"id":51,"left_children":[1,3,5,7,9,11,13,-1,-1,-1,-1,-1,-1,-1,-1],"loss_changes":[1.8863011E2,5.280766E1,8.152472E1,2.5682497E1,1.1896606E1,2.8627747E1,2.0295986E1,0E0,0E0,0E0,0E0,0E0,0E0,0E0,0E0],"parents":[2147483647,0,0,1,1,2,2,3,3,4,4,5,5,6,6],"right_children":[2,4,6,8,10,12,14,-1,-1,-1,-1,-1,-1,-1,-1],"split_conditions":[4.64E-1,5.14E-1,2.9E0,-4.7E0,-6.2E0,2.3E1,3.6E0,-1.0808755E-3,1.7082494E-3,-3.8729592E-3,-1.7676584E-3,2.8103024E-3,5.0321347E-3,-5.991476E-4,1.8311149E-3],"split_indices":[3,55,77,25,25,80,25,0,0,0,0,0,0,0,0],"split_type":[0,0,0,0,0,0,0,0,0,0,0,0,0,0,0],"sum_hessian":[6.766706E3,2.5638574E3,4.2028486E3,1.3273473E3,1.23651E3,2.8167185E3,1.3861304E3,6.099509E2,7.1739636E2,3.9603232E2,8.404777E2,1.9955923E3,8.211263E2,7.6126526E2,6.2486505E2],"tree_param":{"num_deleted":"0","num_feature":"106","num_nodes":"15","size_leaf_vector":"1"}},{"base_weights":[-1.1676533E-1,-2.8530976E-1,4.6135064E-2,-3.7602097E-1,-1.0457821E-1,-1.815526E-1,1.4560299E-1,-3.0996741E-3,-5.38716E-3,-1.852228E-3,2.5403156E-6,-4.1051426E-5,-3.2972833E-3,5.056563E-4,2.7021149E-3],"categories":[],"categories_nodes":[],"categories_segments":[],"categories_sizes":[],"default_left":[0,0,0,0,0,0,0,0,0,0,0,0,0,0,0],"id":52,"left_children":[1,3,5,7,9,11,13,-1,-1,-1,-1,-1,-1,-1,-1],"loss_changes":[1.8575764E2,5.447409E1,7.795807E1,2.3621063E1,9.405989E0,2.751884E1,2.835371E1,0E0,0E0,0E0,0E0,0E0,0E0,0E0,0E0],"parents":[2147483647,0,0,1,1,2,2,3,3,4,4,5,5,6,6],"right_children":[2,4,6,8,10,12,14,-1,-1,-1,-1,-1,-1,-1,-1],"split_conditions":[1.5E1,2.9E0,-2E0,2.3E1,1.16E1,-3.5E0,2.4E1,-3.0996741E-3,-5.38716E-3,-1.852228E-3,2.5403156E-6,-4.1051426E-5,-3.2972833E-3,5.056563E-4,2.7021149E-3],"split_indices":[51,77,77,80,60,25,51,0,0,0,0,0,0,0,0],"split_type":[0,0,0,0,0,0,0,0,0,0,0,0,0,0,0],"sum_hessian":[6.7641807E3,3.324129E3,3.4400518E3,2.2125464E3,1.1115825E3,1.0456576E3,2.3943943E3,1.575717E3,6.3682935E2,6.2783746E2,4.8374506E2,4.76297E2,5.693606E2,1.3591746E3,1.0352197E3],"tree_param":{"num_deleted":"0","num_feature":"106","num_nodes":"15","size_leaf_vector":"1"}},{"base_weights":[1.1676534E-1,2.8530976E-1,-4.6135053E-2,3.7602094E-1,1.0457823E-1,1.815526E-1,-1.4560297E-1,3.0996741E-3,5.3871605E-3,1.8522282E-3,-2.540136E-6,4.1051382E-5,3.297283E-3,-5.05656E-4,-2.7021149E-3],"categories":[],"categories_nodes":[],"categories_segments":[],"categories_sizes":[],"default_left":[0,0,0,0,0,0,0,0,0,0,0,0,0,0,0],"id":53,"left_children":[1,3,5,7,9,11,13,-1,-1,-1,-1,-1,-1,-1,-1],"loss_changes":[1.8575766E2,5.447406E1,7.795807E1,2.3621094E1,9.405989E0,2.7518833E1,2.8353714E1,0E0,0E0,0E0,0E0,0E0,0E0,0E0,0E0],"parents":[2147483647,0,0,1,1,2,2,3,3,4,4,5,5,6,6],"right_children":[2,4,6,8,10,12,14,-1,-1,-1,-1,-1,-1,-1,-1],"split_conditions":[1.5E1,2.9E0,-2E0,2.3E1,1.16E1,-3.5E0,2.4E1,3.0996741E-3,5.3871605E-3,1.8522282E-3,-2.540136E-6,4.1051382E-5,3.297283E-3,-5.05656E-4,-2.7021149E-3],"split_indices":[51,77,77,80,60,25,51,0,0,0,0,0,0,0,0],"split_type":[0,0,0,0,0,0,0,0,0,0,0,0,0,0,0],"sum_hessian":[6.7641807E3,3.324129E3,3.4400518E3,2.2125464E3,1.1115825E3,1.0456576E3,2.3943943E3,1.575717E3,6.3682935E2,6.2783746E2,4.8374506E2,4.76297E2,5.693606E2,1.3591744E3,1.0352197E3],"tree_param":{"num_deleted":"0","num_feature":"106","num_nodes":"15","size_leaf_vector":"1"}},{"base_weights":[-1.1564375E-1,-2.8262246E-1,4.568257E-2,-3.725718E-1,-1.0354213E-1,-1.9398384E-1,1.3840768E-1,-3.0703065E-3,-5.3417264E-3,-1.8339856E-3,2.5148518E-6,-1.2187876E-4,-3.4603972E-3,4.498469E-4,2.6051556E-3],"categories":[],"categories_nodes":[],"categories_segments":[],"categories_sizes":[],"default_left":[0,0,0,0,0,0,0,0,0,0,0,0,0,0,0],"id":54,"left_children":[1,3,5,7,9,11,13,-1,-1,-1,-1,-1,-1,-1,-1],"loss_changes":[1.8218454E2,5.3492523E1,7.6482765E1,2.3261597E1,9.221077E0,2.6537556E1,2.8293308E1,0E0,0E0,0E0,0E0,0E0,0E0,0E0,0E0],"parents":[2147483647,0,0,1,1,2,2,3,3,4,4,5,5,6,6],"right_children":[2,4,6,8,10,12,14,-1,-1,-1,-1,-1,-1,-1,-1],"split_conditions":[1.5E1,2.9E0,-2.4E0,2.3E1,1.16E1,-3.5E0,2.4E1,-3.0703065E-3,-5.3417264E-3,-1.8339856E-3,2.5148518E-6,-1.2187876E-4,-3.4603972E-3,4.498469E-4,2.6051556E-3],"split_indices":[51,77,77,80,60,25,51,0,0,0,0,0,0,0,0],"split_type":[0,0,0,0,0,0,0,0,0,0,0,0,0,0,0],"sum_hessian":[6.7616104E3,3.3222288E3,3.4393818E3,2.2107314E3,1.1114973E3,9.591574E2,2.4802244E3,1.5748947E3,6.3583685E2,6.2775214E2,4.8374515E2,4.3734903E2,5.2180835E2,1.4059335E3,1.0742909E3],"tree_param":{"num_deleted":"0","num_feature":"106","num_nodes":"15","size_leaf_vector":"1"}},{"base_weights":[1.1564376E-1,2.826225E-1,-4.5682553E-2,3.7257183E-1,1.0354212E-1,1.9398385E-1,-1.3840766E-1,3.0703067E-3,5.3417264E-3,1.8339854E-3,-2.5147122E-6,1.2187891E-4,3.4603977E-3,-4.498469E-4,-2.6051553E-3],"categories":[],"categories_nodes":[],"categories_segments":[],"categories_sizes":[],"default_left":[0,0,0,0,0,0,0,0,0,0,0,0,0,0,0],"id":55,"left_children":[1,3,5,7,9,11,13,-1,-1,-1,-1,-1,-1,-1,-1],"loss_changes":[1.8218454E2,5.3492523E1,7.648277E1,2.3261566E1,9.221076E0,2.6537556E1,2.8293297E1,0E0,0E0,0E0,0E0,0E0,0E0,0E0,0E0],"parents":[2147483647,0,0,1,1,2,2,3,3,4,4,5,5,6,6],"right_children":[2,4,6,8,10,12,14,-1,-1,-1,-1,-1,-1,-1,-1],"split_conditions":[1.5E1,2.9E0,-2.4E0,2.3E1,1.16E1,-3.5E0,2.4E1,3.0703067E-3,5.3417264E-3,1.8339854E-3,-2.5147122E-6,1.2187891E-4,3.4603977E-3,-4.498469E-4,-2.6051553E-3],"split_indices":[51,77,77,80,60,25,51,0,0,0,0,0,0,0,0],"split_type":[0,0,0,0,0,0,0,0,0,0,0,0,0,0,0],"sum_hessian":[6.7616104E3,3.3222288E3,3.4393818E3,2.2107314E3,1.1114973E3,9.591574E2,2.4802244E3,1.5748947E3,6.3583685E2,6.2775214E2,4.8374515E2,4.3734903E2,5.2180835E2,1.4059335E3,1.0742909E3],"tree_param":{"num_deleted":"0","num_feature":"106","num_nodes":"15","size_leaf_vector":"1"}},{"base_weights":[-1.14534006E-1,-2.211963E-1,1.3398793E-1,-1.3023683E-1,-4.2692387E-1,-1.4545116E-1,2.0679115E-1,-2.9518206E-3,-3.2917626E-4,-3.701477E-3,-5.559083E-3,-2.4114577E-3,7.273777E-4,3.4089803E-3,1.2122047E-3],"categories":[],"categories_nodes":[],"categories_segments":[],"categories_sizes":[],"default_left":[0,0,0,0,0,0,0,0,0,0,0,0,0,0,0],"id":56,"left_children":[1,3,5,7,9,11,13,-1,-1,-1,-1,-1,-1,-1,-1],"loss_changes":[1.7922272E2,8.846245E1,4.134185E1,5.2666447E1,1.0411499E1,8.79305E0,1.845005E1,0E0,0E0,0E0,0E0,0E0,0E0,0E0,0E0],"parents":[2147483647,0,0,1,1,2,2,3,3,4,4,5,5,6,6],"right_children":[2,4,6,8,10,12,14,-1,-1,-1,-1,-1,-1,-1,-1],"split_conditions":[2E1,1.9E1,3.59E-1,8E0,3.7E1,2.7E1,-6.2E0,-2.9518206E-3,-3.2917626E-4,-3.701477E-3,-5.559083E-3,-2.4114577E-3,7.273777E-4,3.4089803E-3,1.2122047E-3],"split_indices":[28,80,55,51,54,28,25,0,0,0,0,0,0,0,0],"split_type":[0,0,0,0,0,0,0,0,0,0,0,0,0,0,0],"sum_hessian":[6.7589834E3,4.7293286E3,2.0296547E3,3.2805254E3,1.4488036E3,4.19293E2,1.6103617E3,1.2165593E3,2.063966E3,1.0086759E3,4.401277E2,2.9138876E2,1.2790424E2,6.261194E2,9.8424225E2],"tree_param":{"num_deleted":"0","num_feature":"106","num_nodes":"15","size_leaf_vector":"1"}},{"base_weights":[1.1453401E-1,2.2119631E-1,-1.3398793E-1,1.3023685E-1,4.2692387E-1,1.4545114E-1,-2.0679115E-1,2.9518206E-3,3.2917637E-4,3.7014766E-3,5.559083E-3,2.4114577E-3,-7.2737806E-4,-3.4089803E-3,-1.2122048E-3],"categories":[],"categories_nodes":[],"categories_segments":[],"categories_sizes":[],"default_left":[0,0,0,0,0,0,0,0,0,0,0,0,0,0,0],"id":57,"left_children":[1,3,5,7,9,11,13,-1,-1,-1,-1,-1,-1,-1,-1],"loss_changes":[1.7922275E2,8.846239E1,4.134184E1,5.266644E1,1.0411499E1,8.793052E0,1.8450043E1,0E0,0E0,0E0,0E0,0E0,0E0,0E0,0E0],"parents":[2147483647,0,0,1,1,2,2,3,3,4,4,5,5,6,6],"right_children":[2,4,6,8,10,12,14,-1,-1,-1,-1,-1,-1,-1,-1],"split_conditions":[2E1,1.9E1,3.59E-1,8E0,3.7E1,2.7E1,-6.2E0,2.9518206E-3,3.2917637E-4,3.7014766E-3,5.559083E-3,2.4114577E-3,-7.2737806E-4,-3.4089803E-3,-1.2122048E-3],"split_indices":[28,80,55,51,54,28,25,0,0,0,0,0,0,0,0],"split_type":[0,0,0,0,0,0,0,0,0,0,0,0,0,0,0],"sum_hessian":[6.7589834E3,4.7293286E3,2.0296547E3,3.2805254E3,1.4488036E3,4.19293E2,1.6103617E3,1.2165593E3,2.063966E3,1.00867584E3,4.401277E2,2.9138876E2,1.2790425E2,6.2611945E2,9.8424225E2],"tree_param":{"num_deleted":"0","num_feature":"106","num_nodes":"15","size_leaf_vector":"1"}},{"base_weights":[-1.1343398E-1,-2.7765933E-1,4.512471E-2,-3.6657047E-1,-1.0087539E-1,-9.3201675E-2,2.0162718E-1,-3.020068E-3,-5.260745E-3,-1.7995709E-3,1.890544E-5,7.109816E-4,-2.1689225E-3,3.7901031E-3,1.4559852E-3],"categories":[],"categories_nodes":[],"categories_segments":[],"categories_sizes":[],"default_left":[0,0,0,0,0,0,0,0,0,0,0,0,0,0,0],"id":58,"left_children":[1,3,5,7,9,11,13,-1,-1,-1,-1,-1,-1,-1,-1],"loss_changes":[1.7597089E2,5.2139496E1,7.4465004E1,2.2582672E1,9.03918E0,3.712654E1,1.5983147E1,0E0,0E0,0E0,0E0,0E0,0E0,0E0,0E0],"parents":[2147483647,0,0,1,1,2,2,3,3,4,4,5,5,6,6],"right_children":[2,4,6,8,10,12,14,-1,-1,-1,-1,-1,-1,-1,-1],"split_conditions":[1.5E1,2.9E0,5.23E-1,2.3E1,1.16E1,-3.7E0,-6.2E0,-3.020068E-3,-5.260745E-3,-1.7995709E-3,1.890544E-5,7.109816E-4,-2.1689225E-3,3.7901031E-3,1.4559852E-3],"split_indices":[51,77,55,80,60,25,25,0,0,0,0,0,0,0,0],"split_type":[0,0,0,0,0,0,0,0,0,0,0,0,0,0,0],"sum_hessian":[6.7564E3,3.3185247E3,3.4378752E3,2.2073127E3,1.111212E3,1.8251241E3,1.6127511E3,1.5733497E3,6.3396295E2,6.275449E2,4.836671E2,7.840651E2,1.041059E3,3.8574432E2,1.2270067E3],"tree_param":{"num_deleted":"0","num_feature":"106","num_nodes":"15","size_leaf_vector":"1"}},{"base_weights":[1.1343397E-1,2.7765933E-1,-4.512472E-2,3.6657044E-1,1.0087538E-1,9.320166E-2,-2.0162718E-1,3.020068E-3,5.260745E-3,1.7995707E-3,-1.8905537E-5,-7.1098184E-4,2.1689222E-3,-3.7901031E-3,-1.4559852E-3],"categories":[],"categories_nodes":[],"categories_segments":[],"categories_sizes":[],"default_left":[0,0,0,0,0,0,0,0,0,0,0,0,0,0,0],"id":59,"left_children":[1,3,5,7,9,11,13,-1,-1,-1,-1,-1,-1,-1,-1],"loss_changes":[1.7597087E2,5.2139496E1,7.4465E1,2.2582703E1,9.03918E0,3.7126545E1,1.5983139E1,0E0,0E0,0E0,0E0,0E0,0E0,0E0,0E0],"parents":[2147483647,0,0,1,1,2,2,3,3,4,4,5,5,6,6],"right_children":[2,4,6,8,10,12,14,-1,-1,-1,-1,-1,-1,-1,-1],"split_conditions":[1.5E1,2.9E0,5.23E-1,2.3E1,1.16E1,-3.7E0,-6.2E0,3.020068E-3,5.260745E-3,1.7995707E-3,-1.8905537E-5,-7.1098184E-4,2.1689222E-3,-3.7901031E-3,-1.4559852E-3],"split_indices":[51,77,55,80,60,25,25,0,0,0,0,0,0,0,0],"split_type":[0,0,0,0,0,0,0,0,0,0,0,0,0,0,0],"sum_hessian":[6.7564E3,3.3185247E3,3.4378752E3,2.2073127E3,1.111212E3,1.8251241E3,1.6127511E3,1.5733497E3,6.3396295E2,6.275449E2,4.8366714E2,7.840651E2,1.041059E3,3.8574432E2,1.2270067E3],"tree_param":{"num_deleted":"0","num_feature":"106","num_nodes":"15","size_leaf_vector":"1"}},{"base_weights":[-1.1234677E-1,-2.2746007E-1,1.1036854E-1,-1.02067895E-1,-3.7041923E-1,1.7389835E-1,-1.8876053E-1,-2.5571317E-3,-9.200079E-6,-4.9955356E-3,-3.085279E-3,8.1524136E-4,2.847208E-3,-2.8782084E-3,7.3782005E-4],"categories":[],"categories_nodes":[],"categories_segments":[],"categories_sizes":[],"default_left":[0,0,0,0,0,0,0,0,0,0,0,0,0,0,0],"id":60,"left_children":[1,3,5,7,9,11,13,-1,-1,-1,-1,-1,-1,-1,-1],"loss_changes":[1.7319753E2,7.979314E1,4.378458E1,3.6891197E1,1.6474182E1,1.9422195E1,1.05227995E1,0E0,0E0,0E0,0E0,0E0,0E0,0E0,0E0],"parents":[2147483647,0,0,1,1,2,2,3,3,4,4,5,5,6,6],"right_children":[2,4,6,8,10,12,14,-1,-1,-1,-1,-1,-1,-1,-1],"split_conditions":[1.9E1,1.4E1,2.5E1,8E0,7E0,2.6E1,2.7E1,-2.5571317E-3,-9.200079E-6,-4.9955356E-3,-3.085279E-3,8.1524136E-4,2.847208E-3,-2.8782084E-3,7.3782005E-4],"split_indices":[27,80,81,51,51,51,28,0,0,0,0,0,0,0,0],"split_type":[0,0,0,0,0,0,0,0,0,0,0,0,0,0,0],"sum_hessian":[6.7536553E3,4.452369E3,2.3012861E3,2.3728293E3,2.0795396E3,1.8984971E3,4.0278912E2,9.4136017E2,1.4314694E3,6.714691E2,1.4080704E3,1.0363774E3,8.621196E2,2.92376E2,1.104131E2],"tree_param":{"num_deleted":"0","num_feature":"106","num_nodes":"15","size_leaf_vector":"1"}},{"base_weights":[1.1234677E-1,2.2746009E-1,-1.1036854E-1,1.0206791E-1,3.7041923E-1,-1.7389835E-1,1.8876052E-1,2.557132E-3,9.200105E-6,4.9955356E-3,3.085279E-3,-8.152412E-4,-2.847208E-3,2.8782082E-3,-7.3782005E-4],"categories":[],"categories_nodes":[],"categories_segments":[],"categories_sizes":[],"default_left":[0,0,0,0,0,0,0,0,0,0,0,0,0,0,0],"id":61,"left_children":[1,3,5,7,9,11,13,-1,-1,-1,-1,-1,-1,-1,-1],"loss_changes":[1.7319754E2,7.979312E1,4.3784576E1,3.689121E1,1.6474182E1,1.9422203E1,1.0522797E1,0E0,0E0,0E0,0E0,0E0,0E0,0E0,0E0],"parents":[2147483647,0,0,1,1,2,2,3,3,4,4,5,5,6,6],"right_children":[2,4,6,8,10,12,14,-1,-1,-1,-1,-1,-1,-1,-1],"split_conditions":[1.9E1,1.4E1,2.5E1,8E0,7E0,2.6E1,2.7E1,2.557132E-3,9.200105E-6,4.9955356E-3,3.085279E-3,-8.152412E-4,-2.847208E-3,2.8782082E-3,-7.3782005E-4],"split_indices":[27,80,81,51,51,51,28,0,0,0,0,0,0,0,0],"split_type":[0,0,0,0,0,0,0,0,0,0,0,0,0,0,0],"sum_hessian":[6.7536553E3,4.452369E3,2.3012861E3,2.3728293E3,2.0795396E3,1.8984971E3,4.027891E2,9.413601E2,1.4314692E3,6.714691E2,1.4080704E3,1.0363774E3,8.621196E2,2.92376E2,1.104131E2],"tree_param":{"num_deleted":"0","num_feature":"106","num_nodes":"15","size_leaf_vector":"1"}},{"base_weights":[-1.1126992E-1,-2.1523373E-1,1.3080335E-1,-1.2633075E-1,-4.1677794E-1,-1.4249313E-1,2.0202313E-1,-2.8751409E-3,-3.1331676E-4,-3.6044866E-3,-5.4487805E-3,-2.3585183E-3,7.024873E-4,3.3287548E-3,1.1862939E-3],"categories":[],"categories_nodes":[],"categories_segments":[],"categories_sizes":[],"default_left":[0,0,0,0,0,0,0,0,0,0,0,0,0,0,0],"id":62,"left_children":[1,3,5,7,9,11,13,-1,-1,-1,-1,-1,-1,-1,-1],"loss_changes":[1.6995328E2,8.458707E1,3.952505E1,5.020447E1,1.0233719E1,8.359655E0,1.7530533E1,0E0,0E0,0E0,0E0,0E0,0E0,0E0,0E0],"parents":[2147483647,0,0,1,1,2,2,3,3,4,4,5,5,6,6],"right_children":[2,4,6,8,10,12,14,-1,-1,-1,-1,-1,-1,-1,-1],"split_conditions":[2E1,1.9E1,3.59E-1,8E0,3.7E1,2.7E1,-6.2E0,-2.8751409E-3,-3.1331676E-4,-3.6044866E-3,-5.4487805E-3,-2.3585183E-3,7.024873E-4,3.3287548E-3,1.1862939E-3],"split_indices":[28,80,55,51,54,28,25,0,0,0,0,0,0,0,0],"split_type":[0,0,0,0,0,0,0,0,0,0,0,0,0,0,0],"sum_hessian":[6.750941E3,4.7227573E3,2.0281835E3,3.2782976E3,1.44446E3,4.1906738E2,1.6091161E3,1.214926E3,2.0633716E3,1.0059353E3,4.3852466E2,2.9117902E2,1.27888374E2,6.251723E2,9.839438E2],"tree_param":{"num_deleted":"0","num_feature":"106","num_nodes":"15","size_leaf_vector":"1"}},{"base_weights":[1.11269906E-1,2.1523371E-1,-1.3080336E-1,1.2633075E-1,4.167779E-1,1.4249311E-1,-2.0202315E-1,2.8751409E-3,3.1331673E-4,3.6044861E-3,5.44878E-3,2.3585183E-3,-7.024874E-4,-3.328755E-3,-1.1862939E-3],"categories":[],"categories_nodes":[],"categories_segments":[],"categories_sizes":[],"default_left":[0,0,0,0,0,0,0,0,0,0,0,0,0,0,0],"id":63,"left_children":[1,3,5,7,9,11,13,-1,-1,-1,-1,-1,-1,-1,-1],"loss_changes":[1.699533E2,8.458705E1,3.9525047E1,5.0204468E1,1.0233749E1,8.359655E0,1.7530533E1,0E0,0E0,0E0,0E0,0E0,0E0,0E0,0E0],"parents":[2147483647,0,0,1,1,2,2,3,3,4,4,5,5,6,6],"right_children":[2,4,6,8,10,12,14,-1,-1,-1,-1,-1,-1,-1,-1],"split_conditions":[2E1,1.9E1,3.59E-1,8E0,3.7E1,2.7E1,-6.2E0,2.8751409E-3,3.1331673E-4,3.6044861E-3,5.44878E-3,2.3585183E-3,-7.024874E-4,-3.328755E-3,-1.1862939E-3],"split_indices":[28,80,55,51,54,28,25,0,0,0,0,0,0,0,0],"split_type":[0,0,0,0,0,0,0,0,0,0,0,0,0,0,0],"sum_hessian":[6.750941E3,4.7227573E3,2.0281835E3,3.2782974E3,1.44446E3,4.1906738E2,1.6091161E3,1.214926E3,2.0633716E3,1.0059353E3,4.3852466E2,2.9117902E2,1.27888374E2,6.251723E2,9.839438E2],"tree_param":{"num_deleted":"0","num_feature":"106","num_nodes":"15","size_leaf_vector":"1"}},{"base_weights":[-1.10204175E-1,-2.7048478E-1,4.4382636E-2,-3.579303E-1,-9.695955E-2,-9.110907E-2,1.9765939E-1,-2.9452927E-3,-5.1499847E-3,-1.752674E-3,4.7726993E-5,9.575513E-4,-1.9388167E-3,1.0796116E-3,3.0248703E-3],"categories":[],"categories_nodes":[],"categories_segments":[],"categories_sizes":[],"default_left":[0,0,0,0,0,0,0,0,0,0,0,0,0,0,0],"id":64,"left_children":[1,3,5,7,9,11,13,-1,-1,-1,-1,-1,-1,-1,-1],"loss_changes":[1.6723833E2,5.0247543E1,7.138577E1,2.1786285E1,8.857295E0,3.506195E1,1.5131592E1,0E0,0E0,0E0,0E0,0E0,0E0,0E0,0E0],"parents":[2147483647,0,0,1,1,2,2,3,3,4,4,5,5,6,6],"right_children":[2,4,6,8,10,12,14,-1,-1,-1,-1,-1,-1,-1,-1],"split_conditions":[1.5E1,2.9E0,5.23E-1,2.3E1,1.16E1,-4.7E0,2.2E1,-2.9452927E-3,-5.1499847E-3,-1.752674E-3,4.7726993E-5,9.575513E-4,-1.9388167E-3,1.0796116E-3,3.0248703E-3],"split_indices":[51,77,55,80,60,25,28,0,0,0,0,0,0,0,0],"split_type":[0,0,0,0,0,0,0,0,0,0,0,0,0,0,0],"sum_hessian":[6.748183E3,3.3127092E3,3.435474E3,2.2019873E3,1.1107219E3,1.8237466E3,1.6117275E3,1.5708035E3,6.3118384E2,6.272087E2,4.8351328E2,6.471491E2,1.1765974E3,8.6963446E2,7.42093E2],"tree_param":{"num_deleted":"0","num_feature":"106","num_nodes":"15","size_leaf_vector":"1"}},{"base_weights":[1.1020417E-1,2.704848E-1,-4.4382654E-2,3.579303E-1,9.695956E-2,9.110908E-2,-1.9765945E-1,2.9452927E-3,5.1499857E-3,1.7526741E-3,-4.772708E-5,-9.57551E-4,1.9388167E-3,-1.0796123E-3,-3.0248708E-3],"categories":[],"categories_nodes":[],"categories_segments":[],"categories_sizes":[],"default_left":[0,0,0,0,0,0,0,0,0,0,0,0,0,0,0],"id":65,"left_children":[1,3,5,7,9,11,13,-1,-1,-1,-1,-1,-1,-1,-1],"loss_changes":[1.6723837E2,5.024756E1,7.1385796E1,2.1786255E1,8.857296E0,3.5061943E1,1.5131588E1,0E0,0E0,0E0,0E0,0E0,0E0,0E0,0E0],"parents":[2147483647,0,0,1,1,2,2,3,3,4,4,5,5,6,6],"right_children":[2,4,6,8,10,12,14,-1,-1,-1,-1,-1,-1,-1,-1],"split_conditions":[1.5E1,2.9E0,5.23E-1,2.3E1,1.16E1,-4.7E0,2.2E1,2.9452927E-3,5.1499857E-3,1.7526741E-3,-4.772708E-5,-9.57551E-4,1.9388167E-3,-1.0796123E-3,-3.0248708E-3],"split_indices":[51,77,55,80,60,25,28,0,0,0,0,0,0,0,0],"split_type":[0,0,0,0,0,0,0,0,0,0,0,0,0,0,0],"sum_hessian":[6.748183E3,3.3127092E3,3.435474E3,2.2019873E3,1.1107219E3,1.8237466E3,1.6117275E3,1.5708035E3,6.3118384E2,6.272087E2,4.8351328E2,6.471491E2,1.1765974E3,8.6963446E2,7.420931E2],"tree_param":{"num_deleted":"0","num_feature":"106","num_nodes":"15","size_leaf_vector":"1"}},{"base_weights":[-1.091509E-1,-2.2131526E-1,1.07694566E-1,-9.876118E-2,-3.6133245E-1,1.6977708E-1,-1.8464093E-1,-2.4880709E-3,-8.017144E-7,-3.0187017E-3,-4.9239728E-3,7.983253E-4,2.7779262E-3,-2.8135818E-3,7.1462017E-4],"categories":[],"categories_nodes":[],"categories_segments":[],"categories_sizes":[],"default_left":[0,0,0,0,0,0,0,0,0,0,0,0,0,0,0],"id":66,"left_children":[1,3,5,7,9,11,13,-1,-1,-1,-1,-1,-1,-1,-1],"loss_changes":[1.6410873E2,7.626807E1,4.178431E1,3.5130188E1,1.6023499E1,1.8418736E1,1.0013759E1,0E0,0E0,0E0,0E0,0E0,0E0,0E0,0E0],"parents":[2147483647,0,0,1,1,2,2,3,3,4,4,5,5,6,6],"right_children":[2,4,6,8,10,12,14,-1,-1,-1,-1,-1,-1,-1,-1],"split_conditions":[1.9E1,1.4E1,2.5E1,8E0,2.6E1,2.6E1,2.7E1,-2.4880709E-3,-8.017144E-7,-3.0187017E-3,-4.9239728E-3,7.983253E-4,2.7779262E-3,-2.8135818E-3,7.1462017E-4],"split_indices":[27,80,81,51,103,51,28,0,0,0,0,0,0,0,0],"split_type":[0,0,0,0,0,0,0,0,0,0,0,0,0,0,0],"sum_hessian":[6.745265E3,4.44569E3,2.299575E3,2.3715916E3,2.0740986E3,1.89711E3,4.0246497E2,9.40312E2,1.4312794E3,1.4290582E3,6.450403E2,1.0360938E3,8.610163E2,2.9206723E2,1.1039775E2],"tree_param":{"num_deleted":"0","num_feature":"106","num_nodes":"15","size_leaf_vector":"1"}},{"base_weights":[1.0915091E-1,2.2131526E-1,-1.0769456E-1,9.8761186E-2,3.6133245E-1,-1.6977707E-1,1.8464094E-1,2.4880709E-3,8.018376E-7,3.0187017E-3,4.9239728E-3,-7.9832546E-4,-2.7779257E-3,2.8135814E-3,-7.146199E-4],"categories":[],"categories_nodes":[],"categories_segments":[],"categories_sizes":[],"default_left":[0,0,0,0,0,0,0,0,0,0,0,0,0,0,0],"id":67,"left_children":[1,3,5,7,9,11,13,-1,-1,-1,-1,-1,-1,-1,-1],"loss_changes":[1.6410873E2,7.62681E1,4.17843E1,3.513018E1,1.6023438E1,1.8418724E1,1.0013758E1,0E0,0E0,0E0,0E0,0E0,0E0,0E0,0E0],"parents":[2147483647,0,0,1,1,2,2,3,3,4,4,5,5,6,6],"right_children":[2,4,6,8,10,12,14,-1,-1,-1,-1,-1,-1,-1,-1],"split_conditions":[1.9E1,1.4E1,2.5E1,8E0,2.6E1,2.6E1,2.7E1,2.4880709E-3,8.018376E-7,3.0187017E-3,4.9239728E-3,-7.9832546E-4,-2.7779257E-3,2.8135814E-3,-7.146199E-4],"split_indices":[27,80,81,51,103,51,28,0,0,0,0,0,0,0,0],"split_type":[0,0,0,0,0,0,0,0,0,0,0,0,0,0,0],"sum_hessian":[6.745265E3,4.44569E3,2.299575E3,2.3715916E3,2.0740984E3,1.89711E3,4.02465E2,9.403121E2,1.4312794E3,1.4290582E3,6.450403E2,1.0360938E3,8.6101624E2,2.9206723E2,1.1039774E2],"tree_param":{"num_deleted":"0","num_feature":"106","num_nodes":"15","size_leaf_vector":"1"}},{"base_weights":[-1.081075E-1,-2.6580006E-1,4.3870684E-2,-3.5213467E-1,-9.473024E-2,-1.8450066E-1,1.3214515E-1,-2.8962304E-3,-5.073337E-3,-1.7493907E-3,3.4948913E-5,-1.2452267E-4,-3.2882271E-3,4.483491E-4,2.4649375E-3],"categories":[],"categories_nodes":[],"categories_segments":[],"categories_sizes":[],"default_left":[0,0,0,0,0,0,0,0,0,0,0,0,0,0,0],"id":68,"left_children":[1,3,5,7,9,11,13,-1,-1,-1,-1,-1,-1,-1,-1],"loss_changes":[1.616224E2,4.8847153E1,6.926709E1,2.1189026E1,8.757023E0,2.3782448E1,2.4726883E1,0E0,0E0,0E0,0E0,0E0,0E0,0E0,0E0],"parents":[2147483647,0,0,1,1,2,2,3,3,4,4,5,5,6,6],"right_children":[2,4,6,8,10,12,14,-1,-1,-1,-1,-1,-1,-1,-1],"split_conditions":[1.5E1,2.9E0,-2.4E0,2.3E1,6E0,-3.5E0,2.4E1,-2.8962304E-3,-5.073337E-3,-1.7493907E-3,3.4948913E-5,-1.2452267E-4,-3.2882271E-3,4.483491E-4,2.4649375E-3],"split_indices":[51,77,77,80,77,25,51,0,0,0,0,0,0,0,0],"split_type":[0,0,0,0,0,0,0,0,0,0,0,0,0,0,0],"sum_hessian":[6.7423823E3,3.3086147E3,3.4337676E3,2.198187E3,1.1104276E3,9.5696124E2,2.4768064E3,1.5690612E3,6.2912585E2,6.108432E2,4.9958438E2,4.370427E2,5.199185E2,1.4052373E3,1.071569E3],"tree_param":{"num_deleted":"0","num_feature":"106","num_nodes":"15","size_leaf_vector":"1"}},{"base_weights":[1.0810751E-1,2.658001E-1,-4.3870684E-2,3.5213467E-1,9.4730265E-2,1.8450065E-1,-1.3214514E-1,2.8962304E-3,5.073337E-3,1.7493907E-3,-3.4948378E-5,1.2452232E-4,3.2882271E-3,-4.483491E-4,-2.4649373E-3],"categories":[],"categories_nodes":[],"categories_segments":[],"categories_sizes":[],"default_left":[0,0,0,0,0,0,0,0,0,0,0,0,0,0,0],"id":69,"left_children":[1,3,5,7,9,11,13,-1,-1,-1,-1,-1,-1,-1,-1],"loss_changes":[1.6162244E2,4.8847153E1,6.926708E1,2.1188995E1,8.757017E0,2.3782455E1,2.472688E1,0E0,0E0,0E0,0E0,0E0,0E0,0E0,0E0],"parents":[2147483647,0,0,1,1,2,2,3,3,4,4,5,5,6,6],"right_children":[2,4,6,8,10,12,14,-1,-1,-1,-1,-1,-1,-1,-1],"split_conditions":[1.5E1,2.9E0,-2.4E0,2.3E1,6E0,-3.5E0,2.4E1,2.8962304E-3,5.073337E-3,1.7493907E-3,-3.4948378E-5,1.2452232E-4,3.2882271E-3,-4.483491E-4,-2.4649373E-3],"split_indices":[51,77,77,80,77,25,51,0,0,0,0,0,0,0,0],"split_type":[0,0,0,0,0,0,0,0,0,0,0,0,0,0,0],"sum_hessian":[6.7423823E3,3.3086147E3,3.4337676E3,2.198187E3,1.1104276E3,9.5696124E2,2.4768064E3,1.5690613E3,6.2912585E2,6.108432E2,4.9958438E2,4.370427E2,5.199185E2,1.4052373E3,1.071569E3],"tree_param":{"num_deleted":"0","num_feature":"106","num_nodes":"15","size_leaf_vector":"1"}},{"base_weights":[-1.0707632E-1,-2.6332352E-1,4.344164E-2,-3.489545E-1,-9.3794025E-2,-8.921155E-2,1.9349378E-1,-2.8690465E-3,-5.0319675E-3,-1.7127417E-3,6.834627E-5,6.6204724E-4,-2.0633782E-3,3.632863E-3,1.400294E-3],"categories":[],"categories_nodes":[],"categories_segments":[],"categories_sizes":[],"default_left":[0,0,0,0,0,0,0,0,0,0,0,0,0,0,0],"id":70,"left_children":[1,3,5,7,9,11,13,-1,-1,-1,-1,-1,-1,-1,-1],"loss_changes":[1.5853171E2,4.7980545E1,6.837047E1,2.088321E1,8.665791E0,3.3204716E1,1.4579346E1,0E0,0E0,0E0,0E0,0E0,0E0,0E0,0E0],"parents":[2147483647,0,0,1,1,2,2,3,3,4,4,5,5,6,6],"right_children":[2,4,6,8,10,12,14,-1,-1,-1,-1,-1,-1,-1,-1],"split_conditions":[1.5E1,2.9E0,5.23E-1,2.3E1,1.16E1,-3.7E0,-6.2E0,-2.8690465E-3,-5.0319675E-3,-1.7127417E-3,6.834627E-5,6.6204724E-4,-2.0633782E-3,3.632863E-3,1.400294E-3],"split_indices":[51,77,55,80,60,25,25,0,0,0,0,0,0,0,0],"split_type":[0,0,0,0,0,0,0,0,0,0,0,0,0,0,0],"sum_hessian":[6.7393774E3,3.3063877E3,3.4329897E3,2.196072E3,1.1103157E3,1.822351E3,1.6106389E3,1.5681028E3,6.279691E2,6.269141E2,4.8340155E2,7.8334955E2,1.0390013E3,3.8431952E2,1.2263195E3],"tree_param":{"num_deleted":"0","num_feature":"106","num_nodes":"15","size_leaf_vector":"1"}},{"base_weights":[1.070763E-1,2.6332352E-1,-4.3441672E-2,3.489545E-1,9.3794025E-2,8.921153E-2,-1.9349383E-1,2.8690465E-3,5.0319675E-3,1.7127418E-3,-6.834625E-5,-6.620477E-4,2.063378E-3,-3.632863E-3,-1.4002944E-3],"categories":[],"categories_nodes":[],"categories_segments":[],"categories_sizes":[],"default_left":[0,0,0,0,0,0,0,0,0,0,0,0,0,0,0],"id":71,"left_children":[1,3,5,7,9,11,13,-1,-1,-1,-1,-1,-1,-1,-1],"loss_changes":[1.5853174E2,4.798053E1,6.837048E1,2.088321E1,8.665791E0,3.3204723E1,1.4579346E1,0E0,0E0,0E0,0E0,0E0,0E0,0E0,0E0],"parents":[2147483647,0,0,1,1,2,2,3,3,4,4,5,5,6,6],"right_children":[2,4,6,8,10,12,14,-1,-1,-1,-1,-1,-1,-1,-1],"split_conditions":[1.5E1,2.9E0,5.23E-1,2.3E1,1.16E1,-3.7E0,-6.2E0,2.8690465E-3,5.0319675E-3,1.7127418E-3,-6.834625E-5,-6.620477E-4,2.063378E-3,-3.632863E-3,-1.4002944E-3],"split_indices":[51,77,55,80,60,25,25,0,0,0,0,0,0,0,0],"split_type":[0,0,0,0,0,0,0,0,0,0,0,0,0,0,0],"sum_hessian":[6.7393774E3,3.3063877E3,3.4329897E3,2.196072E3,1.1103157E3,1.822351E3,1.6106389E3,1.5681028E3,6.279692E2,6.269141E2,4.8340155E2,7.8334955E2,1.0390013E3,3.8431955E2,1.2263193E3],"tree_param":{"num_deleted":"0","num_feature":"106","num_nodes":"15","size_leaf_vector":"1"}},{"base_weights":[-1.0605501E-1,-2.058245E-1,1.2597482E-1,-1.2023521E-1,-4.006909E-1,-1.3797374E-1,1.9478634E-1,-2.7668509E-3,-2.8167822E-4,-3.449153E-3,-5.277511E-3,-2.280769E-3,6.7117764E-4,3.2118857E-3,1.1437447E-3],"categories":[],"categories_nodes":[],"categories_segments":[],"categories_sizes":[],"default_left":[0,0,0,0,0,0,0,0,0,0,0,0,0,0,0],"id":72,"left_children":[1,3,5,7,9,11,13,-1,-1,-1,-1,-1,-1,-1,-1],"loss_changes":[1.5599167E2,7.853822E1,3.6833267E1,4.7169632E1,1.0005539E1,7.7700367E0,1.6305737E1,0E0,0E0,0E0,0E0,0E0,0E0,0E0,0E0],"parents":[2147483647,0,0,1,1,2,2,3,3,4,4,5,5,6,6],"right_children":[2,4,6,8,10,12,14,-1,-1,-1,-1,-1,-1,-1,-1],"split_conditions":[2E1,1.9E1,3.59E-1,8E0,3.7E1,2.7E1,-6.2E0,-2.7668509E-3,-2.8167822E-4,-3.449153E-3,-5.277511E-3,-2.280769E-3,6.7117764E-4,3.2118857E-3,1.1437447E-3],"split_indices":[28,80,55,51,54,28,25,0,0,0,0,0,0,0,0],"split_type":[0,0,0,0,0,0,0,0,0,0,0,0,0,0,0],"sum_hessian":[6.7363276E3,4.710845E3,2.0254827E3,3.274316E3,1.436529E3,4.186421E2,1.6068406E3,1.2122825E3,2.0620334E3,1.00088525E3,4.3564377E2,2.9078085E2,1.2786124E2,6.235952E2,9.8324536E2],"tree_param":{"num_deleted":"0","num_feature":"106","num_nodes":"15","size_leaf_vector":"1"}},{"base_weights":[1.0605502E-1,2.058245E-1,-1.2597479E-1,1.2023522E-1,4.006909E-1,1.3797376E-1,-1.9478631E-1,2.7668506E-3,2.816783E-4,3.4491532E-3,5.277511E-3,2.280769E-3,-6.7117764E-4,-3.211885E-3,-1.1437444E-3],"categories":[],"categories_nodes":[],"categories_segments":[],"categories_sizes":[],"default_left":[0,0,0,0,0,0,0,0,0,0,0,0,0,0,0],"id":73,"left_children":[1,3,5,7,9,11,13,-1,-1,-1,-1,-1,-1,-1,-1],"loss_changes":[1.5599164E2,7.853821E1,3.683327E1,4.716962E1,1.0005539E1,7.770037E0,1.630574E1,0E0,0E0,0E0,0E0,0E0,0E0,0E0,0E0],"parents":[2147483647,0,0,1,1,2,2,3,3,4,4,5,5,6,6],"right_children":[2,4,6,8,10,12,14,-1,-1,-1,-1,-1,-1,-1,-1],"split_conditions":[2E1,1.9E1,3.59E-1,8E0,3.7E1,2.7E1,-6.2E0,2.7668506E-3,2.816783E-4,3.4491532E-3,5.277511E-3,2.280769E-3,-6.7117764E-4,-3.211885E-3,-1.1437444E-3],"split_indices":[28,80,55,51,54,28,25,0,0,0,0,0,0,0,0],"split_type":[0,0,0,0,0,0,0,0,0,0,0,0,0,0,0],"sum_hessian":[6.7363276E3,4.710845E3,2.0254827E3,3.2743162E3,1.436529E3,4.186421E2,1.6068406E3,1.2122826E3,2.0620334E3,1.00088525E3,4.3564377E2,2.9078085E2,1.2786123E2,6.235952E2,9.832453E2],"tree_param":{"num_deleted":"0","num_feature":"106","num_nodes":"15","size_leaf_vector":"1"}},{"base_weights":[-1.0504312E-1,8.7721914E-2,-2.2302192E-1,-3.9985944E-2,2.24888E-1,-3.1391603E-1,-3.958098E-2,9.5358846E-4,-1.5515083E-3,1.5682727E-3,3.5780221E-3,-2.6511985E-3,-4.8952815E-3,6.20891E-4,-1.636195E-3],"categories":[],"categories_nodes":[],"categories_segments":[],"categories_sizes":[],"default_left":[0,0,0,0,0,0,0,0,0,0,0,0,0,0,0],"id":74,"left_children":[1,3,5,7,9,11,13,-1,-1,-1,-1,-1,-1,-1,-1],"loss_changes":[1.5317297E2,4.4809414E1,6.964726E1,2.0671696E1,1.1100117E1,2.3807892E1,1.748095E1,0E0,0E0,0E0,0E0,0E0,0E0,0E0,0E0],"parents":[2147483647,0,0,1,1,2,2,3,3,4,4,5,5,6,6],"right_children":[2,4,6,8,10,12,14,-1,-1,-1,-1,-1,-1,-1,-1],"split_conditions":[4.64E-1,5.14E-1,2.9E0,-4.7E0,3.5E1,2.6E1,3.6E0,9.5358846E-4,-1.5515083E-3,1.5682727E-3,3.5780221E-3,-2.6511985E-3,-4.8952815E-3,6.20891E-4,-1.636195E-3],"split_indices":[3,55,77,25,2,103,25,0,0,0,0,0,0,0,0],"split_type":[0,0,0,0,0,0,0,0,0,0,0,0,0,0,0],"sum_hessian":[6.73333E3,2.5565125E3,4.176818E3,1.3242676E3,1.2322449E3,2.7924573E3,1.3843604E3,6.088744E2,7.153932E2,8.1638336E2,4.1586148E2,2.1872192E3,6.0523816E2,7.6105194E2,6.233085E2],"tree_param":{"num_deleted":"0","num_feature":"106","num_nodes":"15","size_leaf_vector":"1"}},{"base_weights":[1.05043136E-1,-8.7721914E-2,2.2302194E-1,3.9985962E-2,-2.2488803E-1,3.1391603E-1,3.958101E-2,-9.5358817E-4,1.5515084E-3,-1.568273E-3,-3.5780224E-3,2.6511988E-3,4.895281E-3,-6.2089064E-4,1.6361953E-3],"categories":[],"categories_nodes":[],"categories_segments":[],"categories_sizes":[],"default_left":[0,0,0,0,0,0,0,0,0,0,0,0,0,0,0],"id":75,"left_children":[1,3,5,7,9,11,13,-1,-1,-1,-1,-1,-1,-1,-1],"loss_changes":[1.5317297E2,4.4809425E1,6.964726E1,2.0671694E1,1.1100121E1,2.3807892E1,1.7480947E1,0E0,0E0,0E0,0E0,0E0,0E0,0E0,0E0],"parents":[2147483647,0,0,1,1,2,2,3,3,4,4,5,5,6,6],"right_children":[2,4,6,8,10,12,14,-1,-1,-1,-1,-1,-1,-1,-1],"split_conditions":[4.64E-1,5.14E-1,2.9E0,-4.7E0,3.5E1,2.6E1,3.6E0,-9.5358817E-4,1.5515084E-3,-1.568273E-3,-3.5780224E-3,2.6511988E-3,4.895281E-3,-6.2089064E-4,1.6361953E-3],"split_indices":[3,55,77,25,2,103,25,0,0,0,0,0,0,0,0],"split_type":[0,0,0,0,0,0,0,0,0,0,0,0,0,0,0],"sum_hessian":[6.73333E3,2.5565125E3,4.176818E3,1.3242676E3,1.2322449E3,2.7924573E3,1.3843605E3,6.088744E2,7.153932E2,8.1638336E2,4.1586148E2,2.1872192E3,6.0523816E2,7.6105194E2,6.233085E2],"tree_param":{"num_deleted":"0","num_feature":"106","num_nodes":"15","size_leaf_vector":"1"}},{"base_weights":[-1.04040876E-1,-2.5668216E-1,4.2837795E-2,-3.406909E-1,-9.074075E-2,-1.4650749E-1,1.4347643E-1,-2.79786E-3,-4.9258256E-3,-1.7014071E-3,6.455445E-5,-2.823546E-3,7.01838E-5,5.7909475E-4,2.5743223E-3],"categories":[],"categories_nodes":[],"categories_segments":[],"categories_sizes":[],"default_left":[0,0,0,0,0,0,0,0,0,0,0,0,0,0,0],"id":76,"left_children":[1,3,5,7,9,11,13,-1,-1,-1,-1,-1,-1,-1,-1],"loss_changes":[1.5092471E2,4.5987244E1,6.54051E1,2.0132706E1,8.573918E0,2.4847956E1,2.1836212E1,0E0,0E0,0E0,0E0,0E0,0E0,0E0,0E0],"parents":[2147483647,0,0,1,1,2,2,3,3,4,4,5,5,6,6],"right_children":[2,4,6,8,10,12,14,-1,-1,-1,-1,-1,-1,-1,-1],"split_conditions":[1.5E1,2.9E0,-1.4E0,2.3E1,6E0,2.2E1,2.4E1,-2.79786E-3,-4.9258256E-3,-1.7014071E-3,6.455445E-5,-2.823546E-3,7.01838E-5,5.7909475E-4,2.5743223E-3],"split_indices":[51,77,77,80,77,28,51,0,0,0,0,0,0,0,0],"split_type":[0,0,0,0,0,0,0,0,0,0,0,0,0,0,0],"sum_hessian":[6.730286E3,3.300033E3,3.4302532E3,2.190186E3,1.1098469E3,1.1903079E3,2.2399453E3,1.5653574E3,6.248287E2,6.10432E2,4.994149E2,6.310686E2,5.592392E2,1.280188E3,9.597573E2],"tree_param":{"num_deleted":"0","num_feature":"106","num_nodes":"15","size_leaf_vector":"1"}},{"base_weights":[1.0404088E-1,2.5668216E-1,-4.283779E-2,3.406909E-1,9.074074E-2,1.465075E-1,-1.4347643E-1,2.7978602E-3,4.9258256E-3,1.7014069E-3,-6.4554515E-5,2.823546E-3,-7.018369E-5,-5.7909463E-4,-2.5743225E-3],"categories":[],"categories_nodes":[],"categories_segments":[],"categories_sizes":[],"default_left":[0,0,0,0,0,0,0,0,0,0,0,0,0,0,0],"id":77,"left_children":[1,3,5,7,9,11,13,-1,-1,-1,-1,-1,-1,-1,-1],"loss_changes":[1.5092473E2,4.598723E1,6.5405106E1,2.0132751E1,8.573919E0,2.484795E1,2.1836227E1,0E0,0E0,0E0,0E0,0E0,0E0,0E0,0E0],"parents":[2147483647,0,0,1,1,2,2,3,3,4,4,5,5,6,6],"right_children":[2,