{"learner":{"attributes":{},"feature_names":[],"feature_types":[],"gradient_booster":{"model":{"gbtree_model_param":{"num_parallel_tree":"1","num_trees":"1500"},"iteration_indptr":[0,2,4,6,8,10,12,14,16,18,20,22,24,26,28,30,32,34,36,38,40,42,44,46,48,50,52,54,56,58,60,62,64,66,68,70,72,74,76,78,80,82,84,86,88,90,92,94,96,98,100,102,104,106,108,110,112,114,116,118,120,122,124,126,128,130,132,134,136,138,140,142,144,146,148,150,152,154,156,158,160,162,164,166,168,170,172,174,176,178,180,182,184,186,188,190,192,194,196,198,200,202,204,206,208,210,212,214,216,218,220,222,224,226,228,230,232,234,236,238,240,242,244,246,248,250,252,254,256,258,260,262,264,266,268,270,272,274,276,278,280,282,284,286,288,290,292,294,296,298,300,302,304,306,308,310,312,314,316,318,320,322,324,326,328,330,332,334,336,338,340,342,344,346,348,350,352,354,356,358,360,362,364,366,368,370,372,374,376,378,380,382,384,386,388,390,392,394,396,398,400,402,404,406,408,410,412,414,416,418,420,422,424,426,428,430,432,434,436,438,440,442,444,446,448,450,452,454,456,458,460,462,464,466,468,470,472,474,476,478,480,482,484,486,488,490,492,494,496,498,500,502,504,506,508,510,512,514,516,518,520,522,524,526,528,530,532,534,536,538,540,542,544,546,548,550,552,554,556,558,560,562,564,566,568,570,572,574,576,578,580,582,584,586,588,590,592,594,596,598,600,602,604,606,608,610,612,614,616,618,620,622,624,626,628,630,632,634,636,638,640,642,644,646,648,650,652,654,656,658,660,662,664,666,668,670,672,674,676,678,680,682,684,686,688,690,692,694,696,698,700,702,704,706,708,710,712,714,716,718,720,722,724,726,728,730,732,734,736,738,740,742,744,746,748,750,752,754,756,758,760,762,764,766,768,770,772,774,776,778,780,782,784,786,788,790,792,794,796,798,800,802,804,806,808,810,812,814,816,818,820,822,824,826,828,830,832,834,836,838,840,842,844,846,848,850,852,854,856,858,860,862,864,866,868,870,872,874,876,878,880,882,884,886,888,890,892,894,896,898,900,902,904,906,908,910,912,914,916,918,920,922,924,926,928,930,932,934,936,938,940,942,944,946,948,950,952,954,956,958,960,962,964,966,968,970,972,974,976,978,980,982,984,986,988,990,992,994,996,998,1000,1002,1004,1006,1008,1010,1012,1014,1016,1018,1020,1022,1024,1026,1028,1030,1032,1034,1036,1038,1040,1042,1044,1046,1048,1050,1052,1054,1056,1058,1060,1062,1064,1066,1068,1070,1072,1074,1076,1078,1080,1082,1084,1086,1088,1090,1092,1094,1096,1098,1100,1102,1104,1106,1108,1110,1112,1114,1116,1118,1120,1122,1124,1126,1128,1130,1132,1134,1136,1138,1140,1142,1144,1146,1148,1150,1152,1154,1156,1158,1160,1162,1164,1166,1168,1170,1172,1174,1176,1178,1180,1182,1184,1186,1188,1190,1192,1194,1196,1198,1200,1202,1204,1206,1208,1210,1212,1214,1216,1218,1220,1222,1224,1226,1228,1230,1232,1234,1236,1238,1240,1242,1244,1246,1248,1250,1252,1254,1256,1258,1260,1262,1264,1266,1268,1270,1272,1274,1276,1278,1280,1282,1284,1286,1288,1290,1292,1294,1296,1298,1300,1302,1304,1306,1308,1310,1312,1314,1316,1318,1320,1322,1324,1326,1328,1330,1332,1334,1336,1338,1340,1342,1344,1346,1348,1350,1352,1354,1356,1358,1360,1362,1364,1366,1368,1370,1372,1374,1376,1378,1380,1382,1384,1386,1388,1390,1392,1394,1396,1398,1400,1402,1404,1406,1408,1410,1412,1414,1416,1418,1420,1422,1424,1426,1428,1430,1432,1434,1436,1438,1440,1442,1444,1446,1448,1450,1452,1454,1456,1458,1460,1462,1464,1466,1468,1470,1472,1474,1476,1478,1480,1482,1484,1486,1488,1490,1492,1494,1496,1498,1500],"tree_info":[0,1,0,1,0,1,0,1,0,1,0,1,0,1,0,1,0,1,0,1,0,1,0,1,0,1,0,1,0,1,0,1,0,1,0,1,0,1,0,1,0,1,0,1,0,1,0,1,0,1,0,1,0,1,0,1,0,1,0,1,0,1,0,1,0,1,0,1,0,1,0,1,0,1,0,1,0,1,0,1,0,1,0,1,0,1,0,1,0,1,0,1,0,1,0,1,0,1,0,1,0,1,0,1,0,1,0,1,0,1,0,1,0,1,0,1,0,1,0,1,0,1,0,1,0,1,0,1,0,1,0,1,0,1,0,1,0,1,0,1,0,1,0,1,0,1,0,1,0,1,0,1,0,1,0,1,0,1,0,1,0,1,0,1,0,1,0,1,0,1,0,1,0,1,0,1,0,1,0,1,0,1,0,1,0,1,0,1,0,1,0,1,0,1,0,1,0,1,0,1,0,1,0,1,0,1,0,1,0,1,0,1,0,1,0,1,0,1,0,1,0,1,0,1,0,1,0,1,0,1,0,1,0,1,0,1,0,1,0,1,0,1,0,1,0,1,0,1,0,1,0,1,0,1,0,1,0,1,0,1,0,1,0,1,0,1,0,1,0,1,0,1,0,1,0,1,0,1,0,1,0,1,0,1,0,1,0,1,0,1,0,1,0,1,0,1,0,1,0,1,0,1,0,1,0,1,0,1,0,1,0,1,0,1,0,1,0,1,0,1,0,1,0,1,0,1,0,1,0,1,0,1,0,1,0,1,0,1,0,1,0,1,0,1,0,1,0,1,0,1,0,1,0,1,0,1,0,1,0,1,0,1,0,1,0,1,0,1,0,1,0,1,0,1,0,1,0,1,0,1,0,1,0,1,0,1,0,1,0,1,0,1,0,1,0,1,0,1,0,1,0,1,0,1,0,1,0,1,0,1,0,1,0,1,0,1,0,1,0,1,0,1,0,1,0,1,0,1,0,1,0,1,0,1,0,1,0,1,0,1,0,1,0,1,0,1,0,1,0,1,0,1,0,1,0,1,0,1,0,1,0,1,0,1,0,1,0,1,0,1,0,1,0,1,0,1,0,1,0,1,0,1,0,1,0,1,0,1,0,1,0,1,0,1,0,1,0,1,0,1,0,1,0,1,0,1,0,1,0,1,0,1,0,1,0,1,0,1,0,1,0,1,0,1,0,1,0,1,0,1,0,1,0,1,0,1,0,1,0,1,0,1,0,1,0,1,0,1,0,1,0,1,0,1,0,1,0,1,0,1,0,1,0,1,0,1,0,1,0,1,0,1,0,1,0,1,0,1,0,1,0,1,0,1,0,1,0,1,0,1,0,1,0,1,0,1,0,1,0,1,0,1,0,1,0,1,0,1,0,1,0,1,0,1,0,1,0,1,0,1,0,1,0,1,0,1,0,1,0,1,0,1,0,1,0,1,0,1,0,1,0,1,0,1,0,1,0,1,0,1,0,1,0,1,0,1,0,1,0,1,0,1,0,1,0,1,0,1,0,1,0,1,0,1,0,1,0,1,0,1,0,1,0,1,0,1,0,1,0,1,0,1,0,1,0,1,0,1,0,1,0,1,0,1,0,1,0,1,0,1,0,1,0,1,0,1,0,1,0,1,0,1,0,1,0,1,0,1,0,1,0,1,0,1,0,1,0,1,0,1,0,1,0,1,0,1,0,1,0,1,0,1,0,1,0,1,0,1,0,1,0,1,0,1,0,1,0,1,0,1,0,1,0,1,0,1,0,1,0,1,0,1,0,1,0,1,0,1,0,1,0,1,0,1,0,1,0,1,0,1,0,1,0,1,0,1,0,1,0,1,0,1,0,1,0,1,0,1,0,1,0,1,0,1,0,1,0,1,0,1,0,1,0,1,0,1,0,1,0,1,0,1,0,1,0,1,0,1,0,1,0,1,0,1,0,1,0,1,0,1,0,1,0,1,0,1,0,1,0,1,0,1,0,1,0,1,0,1,0,1,0,1,0,1,0,1,0,1,0,1,0,1,0,1,0,1,0,1,0,1,0,1,0,1,0,1,0,1,0,1,0,1,0,1,0,1,0,1,0,1,0,1,0,1,0,1,0,1,0,1,0,1,0,1,0,1,0,1,0,1,0,1,0,1,0,1,0,1,0,1,0,1,0,1,0,1,0,1,0,1,0,1,0,1,0,1,0,1,0,1,0,1,0,1,0,1,0,1,0,1,0,1,0,1,0,1,0,1,0,1,0,1,0,1,0,1,0,1,0,1,0,1,0,1,0,1,0,1,0,1,0,1,0,1,0,1,0,1,0,1,0,1,0,1,0,1,0,1,0,1,0,1,0,1,0,1,0,1,0,1,0,1,0,1,0,1,0,1,0,1,0,1,0,1,0,1,0,1,0,1,0,1,0,1,0,1,0,1,0,1,0,1,0,1,0,1,0,1,0,1,0,1,0,1,0,1,0,1,0,1,0,1,0,1,0,1,0,1,0,1,0,1,0,1,0,1,0,1,0,1,0,1,0,1,0,1,0,1,0,1,0,1,0,1,0,1,0,1,0,1,0,1,0,1,0,1,0,1,0,1,0,1,0,1,0,1,0,1,0,1,0,1,0,1,0,1,0,1,0,1,0,1,0,1,0,1,0,1,0,1,0,1,0,1,0,1,0,1,0,1,0,1,0,1,0,1,0,1,0,1,0,1,0,1,0,1,0,1,0,1,0,1,0,1,0,1,0,1,0,1,0,1,0,1,0,1,0,1,0,1,0,1,0,1,0,1,0,1,0,1,0,1,0,1,0,1,0,1,0,1,0,1,0,1,0,1,0,1,0,1,0,1,0,1,0,1,0,1,0,1,0,1,0,1,0,1,0,1,0,1,0,1,0,1,0,1,0,1,0,1,0,1,0,1,0,1,0,1,0,1,0,1,0,1,0,1,0,1,0,1,0,1,0,1,0,1,0,1,0,1,0,1,0,1,0,1,0,1,0,1,0,1,0,1,0,1,0,1,0,1,0,1,0,1,0,1,0,1,0,1,0,1,0,1,0,1,0,1,0,1,0,1,0,1,0,1,0,1,0,1,0,1,0,1,0,1,0,1,0,1,0,1,0,1,0,1,0,1,0,1,0,1,0,1,0,1,0,1,0,1,0,1,0,1,0,1,0,1,0,1,0,1,0,1,0,1,0,1,0,1,0,1,0,1,0,1,0,1,0,1,0,1,0,1,0,1,0,1,0,1,0,1,0,1,0,1,0,1,0,1,0,1,0,1,0,1,0,1,0,1,0,1,0,1,0,1,0,1,0,1,0,1,0,1,0,1,0,1,0,1,0,1,0,1,0,1,0,1,0,1,0,1,0,1,0,1,0,1,0,1,0,1,0,1,0,1,0,1,0,1],"trees":[{"base_weights":[-1.4898935E-1,-2.846395E-1,1.7265296E-1,-1.7374179E-1,-5.6422526E-1,-1.007874E-1,2.979415E-1,-4.5380875E-4,-3.2424724E-3,-4.355949E-3,-6.4042304E-3,8.422664E-4,-2.956381E-3,3.074141E-4,3.6429213E-3],"categories":[],"categories_nodes":[],"categories_segments":[],"categories_sizes":[],"default_left":[0,0,0,0,0,0,0,0,0,0,0,0,0,0,0],"id":0,"left_children":[1,3,5,7,9,11,13,-1,-1,-1,-1,-1,-1,-1,-1],"loss_changes":[2.9684784E2,1.4826291E2,6.91817E1,6.620122E1,1.3036194E1,2.2916727E1,2.453447E1,0E0,0E0,0E0,0E0,0E0,0E0,0E0,0E0],"parents":[2147483647,0,0,1,1,2,2,3,3,4,4,5,5,6,6],"right_children":[2,4,6,8,10,12,14,-1,-1,-1,-1,-1,-1,-1,-1],"split_conditions":[2E1,2E1,-2E0,2.9E0,1E0,-4.8E0,2.2E1,-4.5380875E-4,-3.2424724E-3,-4.355949E-3,-6.4042304E-3,8.422664E-4,-2.956381E-3,3.074141E-4,3.6429213E-3],"split_indices":[28,80,77,25,25,25,51,0,0,0,0,0,0,0,0],"split_type":[0,0,0,0,0,0,0,0,0,0,0,0,0,0,0],"sum_hessian":[6.8015E3,4.784E3,2.0175E3,3.4265E3,1.3575E3,6.34E2,1.3835E3,1.85E3,1.5765E3,5.075E2,8.5E2,3.255E2,3.085E2,2.755E2,1.108E3],"tree_param":{"num_deleted":"0","num_feature":"106","num_nodes":"15","size_leaf_vector":"1"}},{"base_weights":[1.4898935E-1,2.846395E-1,-1.7265296E-1,1.7374179E-1,5.6422526E-1,1.007874E-1,-2.979415E-1,4.5380875E-4,3.2424724E-3,4.355949E-3,6.4042304E-3,-8.422664E-4,2.956381E-3,-3.074141E-4,-3.6429213E-3],"categories":[],"categories_nodes":[],"categories_segments":[],"categories_sizes":[],"default_left":[0,0,0,0,0,0,0,0,0,0,0,0,0,0,0],"id":1,"left_children":[1,3,5,7,9,11,13,-1,-1,-1,-1,-1,-1,-1,-1],"loss_changes":[2.9684784E2,1.4826291E2,6.91817E1,6.620122E1,1.3036194E1,2.2916727E1,2.453447E1,0E0,0E0,0E0,0E0,0E0,0E0,0E0,0E0],"parents":[2147483647,0,0,1,1,2,2,3,3,4,4,5,5,6,6],"right_children":[2,4,6,8,10,12,14,-1,-1,-1,-1,-1,-1,-1,-1],"split_conditions":[2E1,2E1,-2E0,2.9E0,1E0,-4.8E0,2.2E1,4.5380875E-4,3.2424724E-3,4.355949E-3,6.4042304E-3,-8.422664E-4,2.956381E-3,-3.074141E-4,-3.6429213E-3],"split_indices":[28,80,77,25,25,25,51,0,0,0,0,0,0,0,0],"split_type":[0,0,0,0,0,0,0,0,0,0,0,0,0,0,0],"sum_hessian":[6.8015E3,4.784E3,2.0175E3,3.4265E3,1.3575E3,6.34E2,1.3835E3,1.85E3,1.5765E3,5.075E2,8.5E2,3.255E2,3.085E2,2.755E2,1.108E3],"tree_param":{"num_deleted":"0","num_feature":"106","num_nodes":"15","size_leaf_vector":"1"}},{"base_weights":[-1.4750302E-1,-2.8179973E-1,1.7092884E-1,-1.720063E-1,-5.5860925E-1,-9.97833E-2,2.9496807E-1,-4.4927298E-4,-3.2101017E-3,-4.3125567E-3,-6.3405237E-3,8.3387067E-4,-2.9269385E-3,3.0435083E-4,3.606573E-3],"categories":[],"categories_nodes":[],"categories_segments":[],"categories_sizes":[],"default_left":[0,0,0,0,0,0,0,0,0,0,0,0,0,0,0],"id":2,"left_children":[1,3,5,7,9,11,13,-1,-1,-1,-1,-1,-1,-1,-1],"loss_changes":[2.9094928E2,1.4532718E2,6.780789E1,6.488587E1,1.2778564E1,2.2462345E1,2.4047188E1,0E0,0E0,0E0,0E0,0E0,0E0,0E0,0E0],"parents":[2147483647,0,0,1,1,2,2,3,3,4,4,5,5,6,6],"right_children":[2,4,6,8,10,12,14,-1,-1,-1,-1,-1,-1,-1,-1],"split_conditions":[2E1,2E1,-2E0,2.9E0,1E0,-4.8E0,2.2E1,-4.4927298E-4,-3.2101017E-3,-4.3125567E-3,-6.3405237E-3,8.3387067E-4,-2.9269385E-3,3.0435083E-4,3.606573E-3],"split_indices":[28,80,77,25,25,25,51,0,0,0,0,0,0,0,0],"split_type":[0,0,0,0,0,0,0,0,0,0,0,0,0,0,0],"sum_hessian":[6.801421E3,4.783939E3,2.0174823E3,3.4264832E3,1.3574556E3,6.339971E2,1.3834852E3,1.8499996E3,1.5764835E3,5.074904E2,8.4996515E2,3.2549976E2,3.084973E2,2.7549997E2,1.1079852E3],"tree_param":{"num_deleted":"0","num_feature":"106","num_nodes":"15","size_leaf_vector":"1"}},{"base_weights":[1.4750302E-1,2.8179973E-1,-1.7092884E-1,1.7200628E-1,5.5860925E-1,9.978333E-2,-2.9496807E-1,4.4927298E-4,3.2101013E-3,4.3125567E-3,6.3405237E-3,-8.338698E-4,2.9269385E-3,-3.0435083E-4,-3.606573E-3],"categories":[],"categories_nodes":[],"categories_segments":[],"categories_sizes":[],"default_left":[0,0,0,0,0,0,0,0,0,0,0,0,0,0,0],"id":3,"left_children":[1,3,5,7,9,11,13,-1,-1,-1,-1,-1,-1,-1,-1],"loss_changes":[2.9094934E2,1.4532709E2,6.780791E1,6.4885864E1,1.2778564E1,2.2462337E1,2.4047188E1,0E0,0E0,0E0,0E0,0E0,0E0,0E0,0E0],"parents":[2147483647,0,0,1,1,2,2,3,3,4,4,5,5,6,6],"right_children":[2,4,6,8,10,12,14,-1,-1,-1,-1,-1,-1,-1,-1],"split_conditions":[2E1,2E1,-2E0,2.9E0,1E0,-4.8E0,2.2E1,4.4927298E-4,3.2101013E-3,4.3125567E-3,6.3405237E-3,-8.338698E-4,2.9269385E-3,-3.0435083E-4,-3.606573E-3],"split_indices":[28,80,77,25,25,25,51,0,0,0,0,0,0,0,0],"split_type":[0,0,0,0,0,0,0,0,0,0,0,0,0,0,0],"sum_hessian":[6.801421E3,4.7839385E3,2.0174823E3,3.4264832E3,1.3574556E3,6.339971E2,1.3834852E3,1.8499996E3,1.5764835E3,5.074904E2,8.4996515E2,3.254998E2,3.0849728E2,2.7549997E2,1.1079852E3],"tree_param":{"num_deleted":"0","num_feature":"106","num_nodes":"15","size_leaf_vector":"1"}},{"base_weights":[-1.460349E-1,-2.7899542E-1,1.6922486E-1,-1.6242485E-1,-5.348228E-1,-9.87902E-2,2.9203048E-1,-3.0543952E-4,-3.120558E-3,-4.1026366E-3,-6.090066E-3,8.255581E-4,-2.8978393E-3,3.013185E-4,3.5706807E-3],"categories":[],"categories_nodes":[],"categories_segments":[],"categories_sizes":[],"default_left":[0,0,0,0,0,0,0,0,0,0,0,0,0,0,0],"id":4,"left_children":[1,3,5,7,9,11,13,-1,-1,-1,-1,-1,-1,-1,-1],"loss_changes":[2.851751E2,1.4260394E2,6.646297E1,6.48827E1,1.3585785E1,2.201735E1,2.3570793E1,0E0,0E0,0E0,0E0,0E0,0E0,0E0,0E0],"parents":[2147483647,0,0,1,1,2,2,3,3,4,4,5,5,6,6],"right_children":[2,4,6,8,10,12,14,-1,-1,-1,-1,-1,-1,-1,-1],"split_conditions":[2E1,1.9E1,-2E0,2.8E0,1E0,-4.8E0,2.2E1,-3.0543952E-4,-3.120558E-3,-4.1026366E-3,-6.090066E-3,8.255581E-4,-2.8978393E-3,3.013185E-4,3.5706807E-3],"split_indices":[28,80,77,25,25,25,51,0,0,0,0,0,0,0,0],"split_type":[0,0,0,0,0,0,0,0,0,0,0,0,0,0,0],"sum_hessian":[6.8011865E3,4.783757E3,2.01743E3,3.2874355E3,1.4963212E3,6.339884E2,1.3834417E3,1.7479985E3,1.5394369E3,5.609618E2,9.353594E2,3.2549908E2,3.0848932E2,2.754999E2,1.1079418E3],"tree_param":{"num_deleted":"0","num_feature":"106","num_nodes":"15","size_leaf_vector":"1"}},{"base_weights":[1.4603488E-1,2.7899542E-1,-1.6922489E-1,1.6242483E-1,5.348228E-1,9.87901E-2,-2.9203048E-1,3.0543952E-4,3.1205579E-3,4.1026366E-3,6.090066E-3,-8.2555896E-4,2.897838E-3,-3.013188E-4,-3.5706807E-3],"categories":[],"categories_nodes":[],"categories_segments":[],"categories_sizes":[],"default_left":[0,0,0,0,0,0,0,0,0,0,0,0,0,0,0],"id":5,"left_children":[1,3,5,7,9,11,13,-1,-1,-1,-1,-1,-1,-1,-1],"loss_changes":[2.8517523E2,1.4260385E2,6.646294E1,6.488267E1,1.3585785E1,2.2017345E1,2.3570786E1,0E0,0E0,0E0,0E0,0E0,0E0,0E0,0E0],"parents":[2147483647,0,0,1,1,2,2,3,3,4,4,5,5,6,6],"right_children":[2,4,6,8,10,12,14,-1,-1,-1,-1,-1,-1,-1,-1],"split_conditions":[2E1,1.9E1,-2E0,2.8E0,1E0,-4.8E0,2.2E1,3.0543952E-4,3.1205579E-3,4.1026366E-3,6.090066E-3,-8.2555896E-4,2.897838E-3,-3.013188E-4,-3.5706807E-3],"split_indices":[28,80,77,25,25,25,51,0,0,0,0,0,0,0,0],"split_type":[0,0,0,0,0,0,0,0,0,0,0,0,0,0,0],"sum_hessian":[6.8011865E3,4.7837563E3,2.01743E3,3.2874353E3,1.4963212E3,6.339884E2,1.3834417E3,1.7479985E3,1.5394369E3,5.609618E2,9.353594E2,3.2549905E2,3.0848932E2,2.754999E2,1.1079418E3],"tree_param":{"num_deleted":"0","num_feature":"106","num_nodes":"15","size_leaf_vector":"1"}},{"base_weights":[-1.4458449E-1,-2.762255E-1,1.6754067E-1,-1.685208E-1,-5.478261E-1,-9.780775E-2,2.8912798E-1,-4.395113E-4,-3.145943E-3,-4.229184E-3,-6.218328E-3,8.173309E-4,-2.869076E-3,2.983171E-4,3.5352346E-3],"categories":[],"categories_nodes":[],"categories_segments":[],"categories_sizes":[],"default_left":[0,0,0,0,0,0,0,0,0,0,0,0,0,0,0],"id":6,"left_children":[1,3,5,7,9,11,13,-1,-1,-1,-1,-1,-1,-1,-1],"loss_changes":[2.7952206E2,1.3986597E2,6.514612E1,6.2351295E1,1.2291473E1,2.1581554E1,2.3105003E1,0E0,0E0,0E0,0E0,0E0,0E0,0E0,0E0],"parents":[2147483647,0,0,1,1,2,2,3,3,4,4,5,5,6,6],"right_children":[2,4,6,8,10,12,14,-1,-1,-1,-1,-1,-1,-1,-1],"split_conditions":[2E1,2E1,-2E0,2.9E0,1E0,-4.8E0,2.2E1,-4.395113E-4,-3.145943E-3,-4.229184E-3,-6.218328E-3,8.173309E-4,-2.869076E-3,2.983171E-4,3.5352346E-3],"split_indices":[28,80,77,25,25,25,51,0,0,0,0,0,0,0,0],"split_type":[0,0,0,0,0,0,0,0,0,0,0,0,0,0,0],"sum_hessian":[6.800806E3,4.783462E3,2.0173442E3,3.4263462E3,1.3571157E3,6.339742E2,1.3833701E3,1.8499946E3,1.5763516E3,5.074172E2,8.4969855E2,3.2549796E2,3.0847623E2,2.7549976E2,1.1078702E3],"tree_param":{"num_deleted":"0","num_feature":"106","num_nodes":"15","size_leaf_vector":"1"}},{"base_weights":[1.4458448E-1,2.762255E-1,-1.675407E-1,1.6852078E-1,5.478262E-1,9.7807735E-2,-2.8912804E-1,4.39511E-4,3.145943E-3,4.229184E-3,6.218328E-3,-8.173309E-4,2.869076E-3,-2.9831624E-4,-3.5352355E-3],"categories":[],"categories_nodes":[],"categories_segments":[],"categories_sizes":[],"default_left":[0,0,0,0,0,0,0,0,0,0,0,0,0,0,0],"id":7,"left_children":[1,3,5,7,9,11,13,-1,-1,-1,-1,-1,-1,-1,-1],"loss_changes":[2.7952213E2,1.3986597E2,6.514614E1,6.235128E1,1.2291473E1,2.1581553E1,2.3105003E1,0E0,0E0,0E0,0E0,0E0,0E0,0E0,0E0],"parents":[2147483647,0,0,1,1,2,2,3,3,4,4,5,5,6,6],"right_children":[2,4,6,8,10,12,14,-1,-1,-1,-1,-1,-1,-1,-1],"split_conditions":[2E1,2E1,-2E0,2.9E0,1E0,-4.8E0,2.2E1,4.39511E-4,3.145943E-3,4.229184E-3,6.218328E-3,-8.173309E-4,2.869076E-3,-2.9831624E-4,-3.5352355E-3],"split_indices":[28,80,77,25,25,25,51,0,0,0,0,0,0,0,0],"split_type":[0,0,0,0,0,0,0,0,0,0,0,0,0,0,0],"sum_hessian":[6.800806E3,4.783462E3,2.0173442E3,3.426346E3,1.3571158E3,6.339742E2,1.38337E3,1.8499945E3,1.5763516E3,5.0741724E2,8.4969855E2,3.2549796E2,3.084762E2,2.754998E2,1.1078702E3],"tree_param":{"num_deleted":"0","num_feature":"106","num_nodes":"15","size_leaf_vector":"1"}},{"base_weights":[-1.431517E-1,-2.7348986E-1,1.6587594E-1,-1.1355127E-1,-4.5353246E-1,-9.683591E-2,2.8626E-1,-2.5625706E-3,1.7357412E-4,-3.4263069E-3,-5.699213E-3,8.091868E-4,-2.8406447E-3,2.953443E-4,3.500227E-3],"categories":[],"categories_nodes":[],"categories_segments":[],"categories_sizes":[],"default_left":[0,0,0,0,0,0,0,0,0,0,0,0,0,0,0],"id":8,"left_children":[1,3,5,7,9,11,13,-1,-1,-1,-1,-1,-1,-1,-1],"loss_changes":[2.7398782E2,1.377089E2,6.385679E1,4.735826E1,2.8850342E1,2.115474E1,2.2649483E1,0E0,0E0,0E0,0E0,0E0,0E0,0E0,0E0],"parents":[2147483647,0,0,1,1,2,2,3,3,4,4,5,5,6,6],"right_children":[2,4,6,8,10,12,14,-1,-1,-1,-1,-1,-1,-1,-1],"split_conditions":[2E1,1.4E1,-2E0,1E1,2.2E1,-4.8E0,2.2E1,-2.5625706E-3,1.7357412E-4,-3.4263069E-3,-5.699213E-3,8.091868E-4,-2.8406447E-3,2.953443E-4,3.500227E-3],"split_indices":[28,80,77,51,80,25,51,0,0,0,0,0,0,0,0],"split_type":[0,0,0,0,0,0,0,0,0,0,0,0,0,0,0],"sum_hessian":[6.8002773E3,4.783052E3,2.0172258E3,2.533807E3,2.2492449E3,6.339545E2,1.3832712E3,1.2118217E3,1.3219852E3,1.1537917E3,1.095453E3,3.254964E2,3.0845813E2,2.754996E2,1.1077717E3],"tree_param":{"num_deleted":"0","num_feature":"106","num_nodes":"15","size_leaf_vector":"1"}},{"base_weights":[1.4315167E-1,2.734898E-1,-1.6587596E-1,1.135512E-1,4.5353246E-1,9.683591E-2,-2.8626004E-1,2.5625702E-3,-1.7357498E-4,3.4263064E-3,5.6992136E-3,-8.091868E-4,2.8406447E-3,-2.953443E-4,-3.500227E-3],"categories":[],"categories_nodes":[],"categories_segments":[],"categories_sizes":[],"default_left":[0,0,0,0,0,0,0,0,0,0,0,0,0,0,0],"id":9,"left_children":[1,3,5,7,9,11,13,-1,-1,-1,-1,-1,-1,-1,-1],"loss_changes":[2.7398782E2,1.3770892E2,6.3856792E1,4.7358276E1,2.8850342E1,2.115474E1,2.2649498E1,0E0,0E0,0E0,0E0,0E0,0E0,0E0,0E0],"parents":[2147483647,0,0,1,1,2,2,3,3,4,4,5,5,6,6],"right_children":[2,4,6,8,10,12,14,-1,-1,-1,-1,-1,-1,-1,-1],"split_conditions":[2E1,1.4E1,-2E0,1E1,2.2E1,-4.8E0,2.2E1,2.5625702E-3,-1.7357498E-4,3.4263064E-3,5.6992136E-3,-8.091868E-4,2.8406447E-3,-2.953443E-4,-3.500227E-3],"split_indices":[28,80,77,51,80,25,51,0,0,0,0,0,0,0,0],"split_type":[0,0,0,0,0,0,0,0,0,0,0,0,0,0,0],"sum_hessian":[6.8002773E3,4.783052E3,2.0172258E3,2.533807E3,2.2492449E3,6.339545E2,1.3832714E3,1.2118217E3,1.3219852E3,1.1537917E3,1.095453E3,3.254964E2,3.0845813E2,2.754996E2,1.1077717E3],"tree_param":{"num_deleted":"0","num_feature":"106","num_nodes":"15","size_leaf_vector":"1"}},{"base_weights":[-1.4173505E-1,-2.707852E-1,1.6423036E-1,-1.1242027E-1,-4.490831E-1,-9.587458E-2,2.8342593E-1,-2.5371357E-3,1.7183961E-4,-6.1776284E-3,-3.734372E-3,8.011243E-4,-2.8125392E-3,2.924012E-4,3.4656487E-3],"categories":[],"categories_nodes":[],"categories_segments":[],"categories_sizes":[],"default_left":[0,0,0,0,0,0,0,0,0,0,0,0,0,0,0],"id":10,"left_children":[1,3,5,7,9,11,13,-1,-1,-1,-1,-1,-1,-1,-1],"loss_changes":[2.6856693E2,1.3501883E2,6.259431E1,4.642083E1,2.847705E1,2.0736706E1,2.2204056E1,0E0,0E0,0E0,0E0,0E0,0E0,0E0,0E0],"parents":[2147483647,0,0,1,1,2,2,3,3,4,4,5,5,6,6],"right_children":[2,4,6,8,10,12,14,-1,-1,-1,-1,-1,-1,-1,-1],"split_conditions":[2E1,1.4E1,-2E0,1E1,7E0,-4.8E0,2.2E1,-2.5371357E-3,1.7183961E-4,-6.1776284E-3,-3.734372E-3,8.011243E-4,-2.8125392E-3,2.924012E-4,3.4656487E-3],"split_indices":[28,80,77,51,51,25,51,0,0,0,0,0,0,0,0],"split_type":[0,0,0,0,0,0,0,0,0,0,0,0,0,0,0],"sum_hessian":[6.7996396E3,4.782564E3,2.0170759E3,2.5337273E3,2.2488367E3,6.339297E2,1.3831462E3,1.211741E3,1.3219862E3,6.940454E2,1.5547911E3,3.2549445E2,3.0843524E2,2.754994E2,1.1076469E3],"tree_param":{"num_deleted":"0","num_feature":"106","num_nodes":"15","size_leaf_vector":"1"}},{"base_weights":[1.4173502E-1,2.7078518E-1,-1.6423038E-1,1.1242021E-1,4.490831E-1,9.587456E-2,-2.8342596E-1,2.5371357E-3,-1.7184045E-4,6.1776284E-3,3.7343726E-3,-8.011243E-4,2.812539E-3,-2.924015E-4,-3.4656492E-3],"categories":[],"categories_nodes":[],"categories_segments":[],"categories_sizes":[],"default_left":[0,0,0,0,0,0,0,0,0,0,0,0,0,0,0],"id":11,"left_children":[1,3,5,7,9,11,13,-1,-1,-1,-1,-1,-1,-1,-1],"loss_changes":[2.6856693E2,1.3501892E2,6.259431E1,4.642084E1,2.847705E1,2.0736704E1,2.2204056E1,0E0,0E0,0E0,0E0,0E0,0E0,0E0,0E0],"parents":[2147483647,0,0,1,1,2,2,3,3,4,4,5,5,6,6],"right_children":[2,4,6,8,10,12,14,-1,-1,-1,-1,-1,-1,-1,-1],"split_conditions":[2E1,1.4E1,-2E0,1E1,7E0,-4.8E0,2.2E1,2.5371357E-3,-1.7184045E-4,6.1776284E-3,3.7343726E-3,-8.011243E-4,2.812539E-3,-2.924015E-4,-3.4656492E-3],"split_indices":[28,80,77,51,51,25,51,0,0,0,0,0,0,0,0],"split_type":[0,0,0,0,0,0,0,0,0,0,0,0,0,0,0],"sum_hessian":[6.7996396E3,4.782564E3,2.0170759E3,2.5337273E3,2.2488367E3,6.339297E2,1.3831462E3,1.2117408E3,1.3219863E3,6.940454E2,1.5547913E3,3.2549445E2,3.0843524E2,2.754994E2,1.1076469E3],"tree_param":{"num_deleted":"0","num_feature":"106","num_nodes":"15","size_leaf_vector":"1"}},{"base_weights":[-1.4033496E-1,1.14352114E-1,-2.9243997E-1,-1.4099199E-1,2.3210579E-1,-1.3542844E-1,-4.6753702E-1,7.103059E-4,-3.0945276E-3,7.9792854E-4,3.4686916E-3,-2.5056368E-3,-1.8960754E-5,-3.7332734E-3,-5.957887E-3],"categories":[],"categories_nodes":[],"categories_segments":[],"categories_sizes":[],"default_left":[0,0,0,0,0,0,0,0,0,0,0,0,0,0,0],"id":12,"left_children":[1,3,5,7,9,11,13,-1,-1,-1,-1,-1,-1,-1,-1],"loss_changes":[2.6345538E2,7.6503525E1,1.1698767E2,2.871423E1,3.0404488E1,3.4532223E1,2.4093292E1,0E0,0E0,0E0,0E0,0E0,0E0,0E0,0E0],"parents":[2147483647,0,0,1,1,2,2,3,3,4,4,5,5,6,6],"right_children":[2,4,6,8,10,12,14,-1,-1,-1,-1,-1,-1,-1,-1],"split_conditions":[4.64E-1,-2E0,1.4E1,-4.8E0,2.4E1,1E1,2.3E1,7.103059E-4,-3.0945276E-3,7.9792854E-4,3.4686916E-3,-2.5056368E-3,-1.8960754E-5,-3.7332734E-3,-5.957887E-3],"split_indices":[3,77,80,25,51,51,80,0,0,0,0,0,0,0,0],"split_type":[0,0,0,0,0,0,0,0,0,0,0,0,0,0,0],"sum_hessian":[6.798885E3,2.5422869E3,4.2565977E3,8.0231085E2,1.739976E3,2.245134E3,2.0114639E3,3.5548294E2,4.4682788E2,7.484006E2,9.9157544E2,1.205147E3,1.0399869E3,1.1618881E3,8.4957574E2],"tree_param":{"num_deleted":"0","num_feature":"106","num_nodes":"15","size_leaf_vector":"1"}},{"base_weights":[1.4033496E-1,-1.1435214E-1,2.9244E-1,1.40992E-1,-2.3210584E-1,1.3542849E-1,4.67537E-1,-7.1030564E-4,3.0945276E-3,-7.979284E-4,-3.4686925E-3,2.505637E-3,1.896152E-5,3.7332731E-3,5.9578866E-3],"categories":[],"categories_nodes":[],"categories_segments":[],"categories_sizes":[],"default_left":[0,0,0,0,0,0,0,0,0,0,0,0,0,0,0],"id":13,"left_children":[1,3,5,7,9,11,13,-1,-1,-1,-1,-1,-1,-1,-1],"loss_changes":[2.6345538E2,7.6503555E1,1.1698761E2,2.8714222E1,3.0404503E1,3.45322E1,2.4093292E1,0E0,0E0,0E0,0E0,0E0,0E0,0E0,0E0],"parents":[2147483647,0,0,1,1,2,2,3,3,4,4,5,5,6,6],"right_children":[2,4,6,8,10,12,14,-1,-1,-1,-1,-1,-1,-1,-1],"split_conditions":[4.64E-1,-2E0,1.4E1,-4.8E0,2.4E1,1E1,2.3E1,-7.1030564E-4,3.0945276E-3,-7.979284E-4,-3.4686925E-3,2.505637E-3,1.896152E-5,3.7332731E-3,5.9578866E-3],"split_indices":[3,77,80,25,51,51,80,0,0,0,0,0,0,0,0],"split_type":[0,0,0,0,0,0,0,0,0,0,0,0,0,0,0],"sum_hessian":[6.7988843E3,2.5422866E3,4.2565977E3,8.023108E2,1.7399758E3,2.2451338E3,2.0114639E3,3.5548294E2,4.4682788E2,7.484005E2,9.915754E2,1.205147E3,1.0399869E3,1.1618881E3,8.495758E2],"tree_param":{"num_deleted":"0","num_feature":"106","num_nodes":"15","size_leaf_vector":"1"}},{"base_weights":[-1.3895129E-1,-2.6556963E-1,1.6122541E-1,-1.6149054E-1,-5.282639E-1,-9.375004E-2,2.7808324E-1,-3.3222097E-3,-6.093826E-4,-4.055359E-3,-6.0102777E-3,7.8606856E-4,-2.753413E-3,2.8229645E-4,3.4016334E-3],"categories":[],"categories_nodes":[],"categories_segments":[],"categories_sizes":[],"default_left":[0,0,0,0,0,0,0,0,0,0,0,0,0,0,0],"id":14,"left_children":[1,3,5,7,9,11,13,-1,-1,-1,-1,-1,-1,-1,-1],"loss_changes":[2.5845856E2,1.3066763E2,6.014521E1,5.880661E1,1.1871246E1,1.9891819E1,2.1455055E1,0E0,0E0,0E0,0E0,0E0,0E0,0E0,0E0],"parents":[2147483647,0,0,1,1,2,2,3,3,4,4,5,5,6,6],"right_children":[2,4,6,8,10,12,14,-1,-1,-1,-1,-1,-1,-1,-1],"split_conditions":[2E1,2E1,-2E0,8E0,1E0,-4.8E0,2.2E1,-3.3222097E-3,-6.093826E-4,-4.055359E-3,-6.0102777E-3,7.8606856E-4,-2.753413E-3,2.8229645E-4,3.4016334E-3],"split_indices":[28,80,77,51,25,25,51,0,0,0,0,0,0,0,0],"split_type":[0,0,0,0,0,0,0,0,0,0,0,0,0,0,0],"sum_hessian":[6.798006E3,4.7813057E3,2.0167002E3,3.4256736E3,1.3556321E3,6.3386017E2,1.38284E3,1.2688889E3,2.1567847E3,5.0702542E2,8.486066E2,3.2548965E2,3.0837054E2,2.754982E2,1.1073418E3],"tree_param":{"num_deleted":"0","num_feature":"106","num_nodes":"15","size_leaf_vector":"1"}},{"base_weights":[1.3895129E-1,2.655696E-1,-1.6122533E-1,1.614905E-1,5.282639E-1,9.37501E-2,-2.7808315E-1,3.3222092E-3,6.0938194E-4,4.0553585E-3,6.0102777E-3,-7.860674E-4,2.753413E-3,-2.8229647E-4,-3.4016322E-3],"categories":[],"categories_nodes":[],"categories_segments":[],"categories_sizes":[],"default_left":[0,0,0,0,0,0,0,0,0,0,0,0,0,0,0],"id":15,"left_children":[1,3,5,7,9,11,13,-1,-1,-1,-1,-1,-1,-1,-1],"loss_changes":[2.5845844E2,1.3066766E2,6.01452E1,5.8806618E1,1.1871216E1,1.9891806E1,2.1455048E1,0E0,0E0,0E0,0E0,0E0,0E0,0E0,0E0],"parents":[2147483647,0,0,1,1,2,2,3,3,4,4,5,5,6,6],"right_children":[2,4,6,8,10,12,14,-1,-1,-1,-1,-1,-1,-1,-1],"split_conditions":[2E1,2E1,-2E0,8E0,1E0,-4.8E0,2.2E1,3.3222092E-3,6.0938194E-4,4.0553585E-3,6.0102777E-3,-7.860674E-4,2.753413E-3,-2.8229647E-4,-3.4016322E-3],"split_indices":[28,80,77,51,25,25,51,0,0,0,0,0,0,0,0],"split_type":[0,0,0,0,0,0,0,0,0,0,0,0,0,0,0],"sum_hessian":[6.798006E3,4.7813057E3,2.0167002E3,3.4256736E3,1.3556321E3,6.3386017E2,1.38284E3,1.2688889E3,2.1567847E3,5.0702542E2,8.486066E2,3.2548965E2,3.0837054E2,2.754982E2,1.1073418E3],"tree_param":{"num_deleted":"0","num_feature":"106","num_nodes":"15","size_leaf_vector":"1"}},{"base_weights":[-1.3758467E-1,1.1227626E-1,-2.8682885E-1,-1.3823462E-1,2.2780587E-1,-1.3235761E-1,-4.5917404E-1,6.9768407E-4,-3.0354345E-3,7.846036E-4,3.4036322E-3,-2.4539493E-3,-1.2857519E-5,-3.6680144E-3,-5.8498806E-3],"categories":[],"categories_nodes":[],"categories_segments":[],"categories_sizes":[],"default_left":[0,0,0,0,0,0,0,0,0,0,0,0,0,0,0],"id":16,"left_children":[1,3,5,7,9,11,13,-1,-1,-1,-1,-1,-1,-1,-1],"loss_changes":[2.5353069E2,7.36238E1,1.1324869E2,2.7638342E1,2.9233017E1,3.327467E1,2.3160217E1,0E0,0E0,0E0,0E0,0E0,0E0,0E0,0E0],"parents":[2147483647,0,0,1,1,2,2,3,3,4,4,5,5,6,6],"right_children":[2,4,6,8,10,12,14,-1,-1,-1,-1,-1,-1,-1,-1],"split_conditions":[4.64E-1,-2E0,1.4E1,-4.8E0,2.4E1,1E1,2.3E1,6.9768407E-4,-3.0354345E-3,7.846036E-4,3.4036322E-3,-2.4539493E-3,-1.2857519E-5,-3.6680144E-3,-5.8498806E-3],"split_indices":[3,77,80,25,51,51,80,0,0,0,0,0,0,0,0],"split_type":[0,0,0,0,0,0,0,0,0,0,0,0,0,0,0],"sum_hessian":[6.7969766E3,2.541802E3,4.2551743E3,8.021809E2,1.7396211E3,2.2448796E3,2.0102948E3,3.5547528E2,4.4670563E2,7.4836206E2,9.9125903E2,1.2048961E3,1.0399834E3,1.1614639E3,8.4883093E2],"tree_param":{"num_deleted":"0","num_feature":"106","num_nodes":"15","size_leaf_vector":"1"}},{"base_weights":[1.3758464E-1,-1.1227625E-1,2.8682882E-1,1.3823466E-1,-2.2780587E-1,1.3235755E-1,4.59174E-1,-6.976839E-4,3.0354352E-3,-7.846031E-4,-3.4036322E-3,2.4539484E-3,1.2857453E-5,3.668014E-3,5.8498797E-3],"categories":[],"categories_nodes":[],"categories_segments":[],"categories_sizes":[],"default_left":[0,0,0,0,0,0,0,0,0,0,0,0,0,0,0],"id":17,"left_children":[1,3,5,7,9,11,13,-1,-1,-1,-1,-1,-1,-1,-1],"loss_changes":[2.5353065E2,7.362381E1,1.1324869E2,2.7638348E1,2.9233047E1,3.327465E1,2.3160217E1,0E0,0E0,0E0,0E0,0E0,0E0,0E0,0E0],"parents":[2147483647,0,0,1,1,2,2,3,3,4,4,5,5,6,6],"right_children":[2,4,6,8,10,12,14,-1,-1,-1,-1,-1,-1,-1,-1],"split_conditions":[4.64E-1,-2E0,1.4E1,-4.8E0,2.4E1,1E1,2.3E1,-6.976839E-4,3.0354352E-3,-7.846031E-4,-3.4036322E-3,2.4539484E-3,1.2857453E-5,3.668014E-3,5.8498797E-3],"split_indices":[3,77,80,25,51,51,80,0,0,0,0,0,0,0,0],"split_type":[0,0,0,0,0,0,0,0,0,0,0,0,0,0,0],"sum_hessian":[6.7969766E3,2.541802E3,4.2551743E3,8.0218085E2,1.7396212E3,2.2448796E3,2.0102948E3,3.5547525E2,4.467056E2,7.4836206E2,9.912591E2,1.2048961E3,1.0399834E3,1.1614639E3,8.4883093E2],"tree_param":{"num_deleted":"0","num_feature":"106","num_nodes":"15","size_leaf_vector":"1"}},{"base_weights":[-1.3623308E-1,-2.6047766E-1,1.5828417E-1,-1.5089571E-1,-5.0136346E-1,-9.167289E-2,2.7285802E-1,-2.6274798E-4,-2.9237634E-3,-3.8172202E-3,-5.727032E-3,7.712901E-4,-2.6956466E-3,2.7241142E-4,3.3390715E-3],"categories":[],"categories_nodes":[],"categories_segments":[],"categories_sizes":[],"default_left":[0,0,0,0,0,0,0,0,0,0,0,0,0,0,0],"id":18,"left_children":[1,3,5,7,9,11,13,-1,-1,-1,-1,-1,-1,-1,-1],"loss_changes":[2.4875284E2,1.2611752E2,5.7795116E1,5.795199E1,1.2535919E1,1.9081938E1,2.0735245E1,0E0,0E0,0E0,0E0,0E0,0E0,0E0,0E0],"parents":[2147483647,0,0,1,1,2,2,3,3,4,4,5,5,6,6],"right_children":[2,4,6,8,10,12,14,-1,-1,-1,-1,-1,-1,-1,-1],"split_conditions":[2E1,1.9E1,-2E0,2.8E0,1E0,-4.8E0,2.2E1,-2.6274798E-4,-2.9237634E-3,-3.8172202E-3,-5.727032E-3,7.712901E-4,-2.6956466E-3,2.7241142E-4,3.3390715E-3],"split_indices":[28,80,77,25,25,25,51,0,0,0,0,0,0,0,0],"split_type":[0,0,0,0,0,0,0,0,0,0,0,0,0,0,0],"sum_hessian":[6.7958525E3,4.7796377E3,2.0162147E3,3.28629E3,1.4933475E3,6.337691E2,1.3824457E3,1.7478821E3,1.5384081E3,5.602026E2,9.3314496E2,3.254835E2,3.0828558E2,2.7549634E2,1.1069493E3],"tree_param":{"num_deleted":"0","num_feature":"106","num_nodes":"15","size_leaf_vector":"1"}},{"base_weights":[1.3623306E-1,2.6047763E-1,-1.5828419E-1,1.5089571E-1,5.0136346E-1,9.167281E-2,-2.7285802E-1,2.62748E-4,2.9237631E-3,3.8172202E-3,5.727032E-3,-7.7129103E-4,2.6956457E-3,-2.7241054E-4,-3.3390715E-3],"categories":[],"categories_nodes":[],"categories_segments":[],"categories_sizes":[],"default_left":[0,0,0,0,0,0,0,0,0,0,0,0,0,0,0],"id":19,"left_children":[1,3,5,7,9,11,13,-1,-1,-1,-1,-1,-1,-1,-1],"loss_changes":[2.4875287E2,1.2611752E2,5.7795097E1,5.795198E1,1.253598E1,1.9081932E1,2.073526E1,0E0,0E0,0E0,0E0,0E0,0E0,0E0,0E0],"parents":[2147483647,0,0,1,1,2,2,3,3,4,4,5,5,6,6],"right_children":[2,4,6,8,10,12,14,-1,-1,-1,-1,-1,-1,-1,-1],"split_conditions":[2E1,1.9E1,-2E0,2.8E0,1E0,-4.8E0,2.2E1,2.62748E-4,2.9237631E-3,3.8172202E-3,5.727032E-3,-7.7129103E-4,2.6956457E-3,-2.7241054E-4,-3.3390715E-3],"split_indices":[28,80,77,25,25,25,51,0,0,0,0,0,0,0,0],"split_type":[0,0,0,0,0,0,0,0,0,0,0,0,0,0,0],"sum_hessian":[6.7958525E3,4.7796377E3,2.0162148E3,3.28629E3,1.4933475E3,6.3376904E2,1.3824457E3,1.7478821E3,1.5384081E3,5.602026E2,9.3314496E2,3.2548346E2,3.082856E2,2.7549637E2,1.1069493E3],"tree_param":{"num_deleted":"0","num_feature":"106","num_nodes":"15","size_leaf_vector":"1"}},{"base_weights":[-1.348979E-1,1.1021431E-1,-2.813326E-1,-1.3553233E-1,2.235528E-1,-1.2940003E-1,-4.5094573E-1,6.852682E-4,-2.9775782E-3,7.7076023E-4,3.339854E-3,-2.199192E-3,3.1558773E-4,-3.601581E-3,-5.7467823E-3],"categories":[],"categories_nodes":[],"categories_segments":[],"categories_sizes":[],"default_left":[0,0,0,0,0,0,0,0,0,0,0,0,0,0,0],"id":20,"left_children":[1,3,5,7,9,11,13,-1,-1,-1,-1,-1,-1,-1,-1],"loss_changes":[2.4394434E2,7.083702E1,1.0957605E2,2.6603256E1,2.812307E1,3.272441E1,2.2370087E1,0E0,0E0,0E0,0E0,0E0,0E0,0E0,0E0],"parents":[2147483647,0,0,1,1,2,2,3,3,4,4,5,5,6,6],"right_children":[2,4,6,8,10,12,14,-1,-1,-1,-1,-1,-1,-1,-1],"split_conditions":[4.64E-1,-2E0,1.4E1,-4.8E0,2.4E1,4.9E0,2.3E1,6.852682E-4,-2.9775782E-3,7.7076023E-4,3.339854E-3,-2.199192E-3,3.1558773E-4,-3.601581E-3,-5.7467823E-3],"split_indices":[3,77,80,25,51,77,80,0,0,0,0,0,0,0,0],"split_type":[0,0,0,0,0,0,0,0,0,0,0,0,0,0,0],"sum_hessian":[6.79458E3,2.541199E3,4.2533813E3,8.0201996E2,1.7391791E3,2.244559E3,2.0088221E3,3.554661E2,4.4655383E2,7.4831683E2,9.9086224E2,1.4363986E3,8.081606E2,1.160919E3,8.479032E2],"tree_param":{"num_deleted":"0","num_feature":"106","num_nodes":"15","size_leaf_vector":"1"}},{"base_weights":[1.3489787E-1,-1.1021436E-1,2.813326E-1,1.3553229E-1,-2.2355284E-1,1.2940003E-1,4.5094573E-1,-6.8526826E-4,2.977577E-3,-7.707603E-4,-3.339855E-3,2.199192E-3,-3.1558776E-4,3.6015813E-3,5.746782E-3],"categories":[],"categories_nodes":[],"categories_segments":[],"categories_sizes":[],"default_left":[0,0,0,0,0,0,0,0,0,0,0,0,0,0,0],"id":21,"left_children":[1,3,5,7,9,11,13,-1,-1,-1,-1,-1,-1,-1,-1],"loss_changes":[2.4394437E2,7.083703E1,1.0957605E2,2.660324E1,2.8123077E1,3.272441E1,2.2370087E1,0E0,0E0,0E0,0E0,0E0,0E0,0E0,0E0],"parents":[2147483647,0,0,1,1,2,2,3,3,4,4,5,5,6,6],"right_children":[2,4,6,8,10,12,14,-1,-1,-1,-1,-1,-1,-1,-1],"split_conditions":[4.64E-1,-2E0,1.4E1,-4.8E0,2.4E1,4.9E0,2.3E1,-6.8526826E-4,2.977577E-3,-7.707603E-4,-3.339855E-3,2.199192E-3,-3.1558776E-4,3.6015813E-3,5.746782E-3],"split_indices":[3,77,80,25,51,77,80,0,0,0,0,0,0,0,0],"split_type":[0,0,0,0,0,0,0,0,0,0,0,0,0,0,0],"sum_hessian":[6.79458E3,2.541199E3,4.2533813E3,8.0201996E2,1.739179E3,2.244559E3,2.0088221E3,3.554661E2,4.4655383E2,7.4831683E2,9.908622E2,1.4363986E3,8.081606E2,1.160919E3,8.479032E2],"tree_param":{"num_deleted":"0","num_feature":"106","num_nodes":"15","size_leaf_vector":"1"}},{"base_weights":[-1.3357596E-1,-2.555033E-1,1.5541326E-1,-1.0509683E-1,-4.2510116E-1,-8.964157E-2,2.677589E-1,-2.3969675E-3,1.829224E-4,-5.8977604E-3,-3.5132088E-3,5.428445E-4,-2.9031956E-3,3.3849862E-3,6.2267465E-4],"categories":[],"categories_nodes":[],"categories_segments":[],"categories_sizes":[],"default_left":[0,0,0,0,0,0,0,0,0,0,0,0,0,0,0],"id":22,"left_children":[1,3,5,7,9,11,13,-1,-1,-1,-1,-1,-1,-1,-1],"loss_changes":[2.3944121E2,1.2185242E2,5.5543427E1,4.208869E1,2.7077667E1,1.834644E1,2.0082314E1,0E0,0E0,0E0,0E0,0E0,0E0,0E0,0E0],"parents":[2147483647,0,0,1,1,2,2,3,3,4,4,5,5,6,6],"right_children":[2,4,6,8,10,12,14,-1,-1,-1,-1,-1,-1,-1,-1],"split_conditions":[2E1,1.4E1,-2E0,1E1,7E0,-4.1E0,-2.7E0,-2.3969675E-3,1.829224E-4,-5.8977604E-3,-3.5132088E-3,5.428445E-4,-2.9031956E-3,3.3849862E-3,6.2267465E-4],"split_indices":[28,80,77,51,51,25,25,0,0,0,0,0,0,0,0],"split_type":[0,0,0,0,0,0,0,0,0,0,0,0,0,0,0],"sum_hessian":[6.79329E3,4.7776636E3,2.0156265E3,2.5329536E3,2.2447097E3,6.336577E2,1.3819688E3,1.2109916E3,1.3219622E3,6.9237036E2,1.5523394E3,3.694314E2,2.642263E2,1.0275804E3,3.5438837E2],"tree_param":{"num_deleted":"0","num_feature":"106","num_nodes":"15","size_leaf_vector":"1"}},{"base_weights":[1.3357595E-1,2.555033E-1,-1.5541327E-1,1.05096824E-1,4.2510113E-1,8.9641586E-2,-2.677589E-1,2.3969675E-3,-1.8292242E-4,5.8977595E-3,3.5132086E-3,-5.4284424E-4,2.9031956E-3,-3.3849864E-3,-6.226749E-4],"categories":[],"categories_nodes":[],"categories_segments":[],"categories_sizes":[],"default_left":[0,0,0,0,0,0,0,0,0,0,0,0,0,0,0],"id":23,"left_children":[1,3,5,7,9,11,13,-1,-1,-1,-1,-1,-1,-1,-1],"loss_changes":[2.3944116E2,1.2185242E2,5.5543434E1,4.20887E1,2.7077606E1,1.8346437E1,2.0082336E1,0E0,0E0,0E0,0E0,0E0,0E0,0E0,0E0],"parents":[2147483647,0,0,1,1,2,2,3,3,4,4,5,5,6,6],"right_children":[2,4,6,8,10,12,14,-1,-1,-1,-1,-1,-1,-1,-1],"split_conditions":[2E1,1.4E1,-2E0,1E1,7E0,-4.1E0,-2.7E0,2.3969675E-3,-1.8292242E-4,5.8977595E-3,3.5132086E-3,-5.4284424E-4,2.9031956E-3,-3.3849864E-3,-6.226749E-4],"split_indices":[28,80,77,51,51,25,25,0,0,0,0,0,0,0,0],"split_type":[0,0,0,0,0,0,0,0,0,0,0,0,0,0,0],"sum_hessian":[6.79329E3,4.7776636E3,2.0156266E3,2.5329536E3,2.2447097E3,6.3365765E2,1.3819689E3,1.2109916E3,1.3219622E3,6.9237036E2,1.5523394E3,3.694314E2,2.642263E2,1.0275804E3,3.543884E2],"tree_param":{"num_deleted":"0","num_feature":"106","num_nodes":"15","size_leaf_vector":"1"}},{"base_weights":[-1.322699E-1,1.0823736E-1,-2.7598214E-1,-1.3282456E-1,2.1942295E-1,-3.8579753E-1,-4.9023617E-2,6.757774E-4,-2.9220097E-3,7.584036E-4,3.277189E-3,-3.101969E-3,-5.6534177E-3,7.735472E-4,-1.7590221E-3],"categories":[],"categories_nodes":[],"categories_segments":[],"categories_sizes":[],"default_left":[0,0,0,0,0,0,0,0,0,0,0,0,0,0,0],"id":24,"left_children":[1,3,5,7,9,11,13,-1,-1,-1,-1,-1,-1,-1,-1],"loss_changes":[2.3481697E2,6.814787E1,1.05964935E2,2.5661865E1,2.7025833E1,3.8721313E1,2.2265877E1,0E0,0E0,0E0,0E0,0E0,0E0,0E0,0E0],"parents":[2147483647,0,0,1,1,2,2,3,3,4,4,5,5,6,6],"right_children":[2,4,6,8,10,12,14,-1,-1,-1,-1,-1,-1,-1,-1],"split_conditions":[4.64E-1,-2E0,2.9E0,-4.8E0,2.4E1,2.3E1,3.2E0,6.757774E-4,-2.9220097E-3,7.584036E-4,3.277189E-3,-3.101969E-3,-5.6534177E-3,7.735472E-4,-1.7590221E-3],"split_indices":[3,77,77,25,51,80,25,0,0,0,0,0,0,0,0],"split_type":[0,0,0,0,0,0,0,0,0,0,0,0,0,0,0],"sum_hessian":[6.7918545E3,2.540496E3,4.251359E3,8.018365E2,1.7386595E3,2.864602E3,1.3867566E3,3.5545633E2,4.4638016E2,7.48273E2,9.903865E2,2.0177264E3,8.468757E2,6.949435E2,6.918131E2],"tree_param":{"num_deleted":"0","num_feature":"106","num_nodes":"15","size_leaf_vector":"1"}},{"base_weights":[1.322699E-1,-1.0823738E-1,2.7598214E-1,1.3282453E-1,-2.1942295E-1,3.8579756E-1,4.9023606E-2,-6.7577773E-4,2.9220094E-3,-7.5840316E-4,-3.277189E-3,3.1019694E-3,5.6534177E-3,-7.735469E-4,1.7590215E-3],"categories":[],"categories_nodes":[],"categories_segments":[],"categories_sizes":[],"default_left":[0,0,0,0,0,0,0,0,0,0,0,0,0,0,0],"id":25,"left_children":[1,3,5,7,9,11,13,-1,-1,-1,-1,-1,-1,-1,-1],"loss_changes":[2.3481705E2,6.814787E1,1.05964966E2,2.5661865E1,2.7025833E1,3.8721283E1,2.2265862E1,0E0,0E0,0E0,0E0,0E0,0E0,0E0,0E0],"parents":[2147483647,0,0,1,1,2,2,3,3,4,4,5,5,6,6],"right_children":[2,4,6,8,10,12,14,-1,-1,-1,-1,-1,-1,-1,-1],"split_conditions":[4.64E-1,-2E0,2.9E0,-4.8E0,2.4E1,2.3E1,3.2E0,-6.7577773E-4,2.9220094E-3,-7.5840316E-4,-3.277189E-3,3.1019694E-3,5.6534177E-3,-7.735469E-4,1.7590215E-3],"split_indices":[3,77,77,25,51,80,25,0,0,0,0,0,0,0,0],"split_type":[0,0,0,0,0,0,0,0,0,0,0,0,0,0,0],"sum_hessian":[6.791855E3,2.540496E3,4.251359E3,8.018365E2,1.7386595E3,2.864602E3,1.3867566E3,3.5545636E2,4.4638013E2,7.482731E2,9.9038654E2,2.0177264E3,8.4687573E2,6.949435E2,6.918131E2],"tree_param":{"num_deleted":"0","num_feature":"106","num_nodes":"15","size_leaf_vector":"1"}},{"base_weights":[-1.3097803E-1,-2.5063884E-1,1.525979E-1,-1.5166032E-1,-5.0108004E-1,-4.613411E-3,3.2362157E-1,-3.1585176E-3,-5.5037905E-4,-4.3549626E-3,-6.3076955E-3,1.5309955E-3,-1.7825676E-3,4.622521E-3,2.366201E-3],"categories":[],"categories_nodes":[],"categories_segments":[],"categories_sizes":[],"default_left":[0,0,0,0,0,0,0,0,0,0,0,0,0,0,0],"id":26,"left_children":[1,3,5,7,9,11,13,-1,-1,-1,-1,-1,-1,-1,-1],"loss_changes":[2.3048807E2,1.18322266E2,5.4204185E1,5.431608E1,1.1229462E1,2.8820175E1,1.1536476E1,0E0,0E0,0E0,0E0,0E0,0E0,0E0,0E0],"parents":[2147483647,0,0,1,1,2,2,3,3,4,4,5,5,6,6],"right_children":[2,4,6,8,10,12,14,-1,-1,-1,-1,-1,-1,-1,-1],"split_conditions":[2E1,2E1,5.14E-1,8E0,3.9E0,-4.8E0,-6.2E0,-3.1585176E-3,-5.5037905E-4,-4.3549626E-3,-6.3076955E-3,1.5309955E-3,-1.7825676E-3,4.622521E-3,2.366201E-3],"split_indices":[28,80,55,51,25,25,25,0,0,0,0,0,0,0,0],"split_type":[0,0,0,0,0,0,0,0,0,0,0,0,0,0,0],"sum_hessian":[6.790333E3,4.775378E3,2.014955E3,3.4238293E3,1.3515488E3,1.0503799E3,9.645752E2,1.2675685E3,2.1562607E3,9.005169E2,4.510319E2,5.505011E2,4.9987872E2,3.7026752E2,5.943077E2],"tree_param":{"num_deleted":"0","num_feature":"106","num_nodes":"15","size_leaf_vector":"1"}},{"base_weights":[1.3097805E-1,2.5063887E-1,-1.5259786E-1,1.5166034E-1,5.0108004E-1,4.6134386E-3,-3.236215E-1,3.1585174E-3,5.503794E-4,4.3549626E-3,6.307696E-3,-1.530995E-3,1.7825677E-3,-4.62252E-3,-2.3662006E-3],"categories":[],"categories_nodes":[],"categories_segments":[],"categories_sizes":[],"default_left":[0,0,0,0,0,0,0,0,0,0,0,0,0,0,0],"id":27,"left_children":[1,3,5,7,9,11,13,-1,-1,-1,-1,-1,-1,-1,-1],"loss_changes":[2.3048804E2,1.18322296E2,5.4204178E1,5.4316055E1,1.1229431E1,2.8820173E1,1.1536476E1,0E0,0E0,0E0,0E0,0E0,0E0,0E0,0E0],"parents":[2147483647,0,0,1,1,2,2,3,3,4,4,5,5,6,6],"right_children":[2,4,6,8,10,12,14,-1,-1,-1,-1,-1,-1,-1,-1],"split_conditions":[2E1,2E1,5.14E-1,8E0,3.9E0,-4.8E0,-6.2E0,3.1585174E-3,5.503794E-4,4.3549626E-3,6.307696E-3,-1.530995E-3,1.7825677E-3,-4.62252E-3,-2.3662006E-3],"split_indices":[28,80,55,51,25,25,25,0,0,0,0,0,0,0,0],"split_type":[0,0,0,0,0,0,0,0,0,0,0,0,0,0,0],"sum_hessian":[6.790333E3,4.775378E3,2.0149551E3,3.4238293E3,1.3515487E3,1.0503799E3,9.645752E2,1.2675685E3,2.1562607E3,9.005169E2,4.5103186E2,5.5050116E2,4.9987872E2,3.7026752E2,5.943077E2],"tree_param":{"num_deleted":"0","num_feature":"106","num_nodes":"15","size_leaf_vector":"1"}},{"base_weights":[-1.2970021E-1,-3.1464574E-1,5.0754987E-2,-9.210286E-2,-4.151632E-1,-2.0033328E-1,1.6266403E-1,-1.9511358E-3,2.1529749E-4,-3.398472E-3,-6.0655335E-3,5.6074973E-4,-3.4214118E-3,4.986446E-4,3.129866E-3],"categories":[],"categories_nodes":[],"categories_segments":[],"categories_sizes":[],"default_left":[0,0,0,0,0,0,0,0,0,0,0,0,0,0,0],"id":28,"left_children":[1,3,5,7,9,11,13,-1,-1,-1,-1,-1,-1,-1,-1],"loss_changes":[2.2661926E2,7.497299E1,9.662163E1,1.2232017E1,3.3086975E1,3.8568268E1,4.031101E1,0E0,0E0,0E0,0E0,0E0,0E0,0E0,0E0],"parents":[2147483647,0,0,1,1,2,2,3,3,4,4,5,5,6,6],"right_children":[2,4,6,8,10,12,14,-1,-1,-1,-1,-1,-1,-1,-1],"split_conditions":[1.5E1,9E0,-2E0,6E0,2.3E1,-4.6E0,2.4E1,-1.9511358E-3,2.1529749E-4,-3.398472E-3,-6.0655335E-3,5.6074973E-4,-3.4214118E-3,4.986446E-4,3.129866E-3],"split_indices":[51,103,77,77,80,25,51,0,0,0,0,0,0,0,0],"split_type":[0,0,0,0,0,0,0,0,0,0,0,0,0,0,0],"sum_hessian":[6.7887383E3,3.3522893E3,3.4364492E3,1.0436324E3,2.308657E3,1.059185E3,2.3772642E3,5.470245E2,4.9660797E2,1.6587E3,6.49957E2,3.7739938E2,6.8178564E2,1.3589E3,1.01836414E3],"tree_param":{"num_deleted":"0","num_feature":"106","num_nodes":"15","size_leaf_vector":"1"}},{"base_weights":[1.2970021E-1,3.1464574E-1,-5.0754976E-2,9.210283E-2,4.151632E-1,2.0033328E-1,-1.6266401E-1,1.9511353E-3,-2.1529767E-4,3.3984717E-3,6.0655335E-3,-5.6074985E-4,3.421412E-3,-4.9864466E-4,-3.1298657E-3],"categories":[],"categories_nodes":[],"categories_segments":[],"categories_sizes":[],"default_left":[0,0,0,0,0,0,0,0,0,0,0,0,0,0,0],"id":29,"left_children":[1,3,5,7,9,11,13,-1,-1,-1,-1,-1,-1,-1,-1],"loss_changes":[2.2661926E2,7.497299E1,9.662163E1,1.2232014E1,3.3086975E1,3.856828E1,4.0311E1,0E0,0E0,0E0,0E0,0E0,0E0,0E0,0E0],"parents":[2147483647,0,0,1,1,2,2,3,3,4,4,5,5,6,6],"right_children":[2,4,6,8,10,12,14,-1,-1,-1,-1,-1,-1,-1,-1],"split_conditions":[1.5E1,9E0,-2E0,6E0,2.3E1,-4.6E0,2.4E1,1.9511353E-3,-2.1529767E-4,3.3984717E-3,6.0655335E-3,-5.6074985E-4,3.421412E-3,-4.9864466E-4,-3.1298657E-3],"split_indices":[51,103,77,77,80,25,51,0,0,0,0,0,0,0,0],"split_type":[0,0,0,0,0,0,0,0,0,0,0,0,0,0,0],"sum_hessian":[6.788739E3,3.3522893E3,3.4364492E3,1.0436324E3,2.308657E3,1.059185E3,2.3772642E3,5.470245E2,4.9660794E2,1.6587E3,6.4995703E2,3.773994E2,6.8178564E2,1.3589E3,1.0183642E3],"tree_param":{"num_deleted":"0","num_feature":"106","num_nodes":"15","size_leaf_vector":"1"}},{"base_weights":[-1.2843695E-1,1.0558069E-1,-2.6832524E-1,-1.292163E-1,2.1388203E-1,-3.7590572E-1,-4.6201624E-2,6.505669E-4,-2.838196E-3,7.4533856E-4,3.1906103E-3,-3.0242566E-3,-5.5070673E-3,7.746471E-4,-1.7040713E-3],"categories":[],"categories_nodes":[],"categories_segments":[],"categories_sizes":[],"default_left":[0,0,0,0,0,0,0,0,0,0,0,0,0,0,0],"id":30,"left_children":[1,3,5,7,9,11,13,-1,-1,-1,-1,-1,-1,-1,-1],"loss_changes":[2.2224431E2,6.46248E1,1.0151132E2,2.412146E1,2.5461266E1,3.6597504E1,2.132495E1,0E0,0E0,0E0,0E0,0E0,0E0,0E0,0E0],"parents":[2147483647,0,0,1,1,2,2,3,3,4,4,5,5,6,6],"right_children":[2,4,6,8,10,12,14,-1,-1,-1,-1,-1,-1,-1,-1],"split_conditions":[4.64E-1,-2E0,2.9E0,-4.8E0,2.4E1,2.3E1,3.2E0,6.505669E-4,-2.838196E-3,7.4533856E-4,3.1906103E-3,-3.0242566E-3,-5.5070673E-3,7.746471E-4,-1.7040713E-3],"split_indices":[3,77,77,25,51,80,25,0,0,0,0,0,0,0,0],"split_type":[0,0,0,0,0,0,0,0,0,0,0,0,0,0,0],"sum_hessian":[6.7870557E3,2.5393123E3,4.2477437E3,8.014904E2,1.7378218E3,2.8612637E3,1.3864801E3,3.5543433E2,4.4605606E2,7.482281E2,9.8959375E2,2.0163798E3,8.448838E2,6.949365E2,6.915435E2],"tree_param":{"num_deleted":"0","num_feature":"106","num_nodes":"15","size_leaf_vector":"1"}},{"base_weights":[1.2843697E-1,-1.05580665E-1,2.6832524E-1,1.2921633E-1,-2.1388201E-1,3.7590575E-1,4.6201635E-2,-6.505669E-4,2.8381965E-3,-7.453382E-4,-3.1906103E-3,3.024256E-3,5.507068E-3,-7.74647E-4,1.7040714E-3],"categories":[],"categories_nodes":[],"categories_segments":[],"categories_sizes":[],"default_left":[0,0,0,0,0,0,0,0,0,0,0,0,0,0,0],"id":31,"left_children":[1,3,5,7,9,11,13,-1,-1,-1,-1,-1,-1,-1,-1],"loss_changes":[2.2224432E2,6.46248E1,1.0151132E2,2.4121468E1,2.5461266E1,3.6597504E1,2.1324951E1,0E0,0E0,0E0,0E0,0E0,0E0,0E0,0E0],"parents":[2147483647,0,0,1,1,2,2,3,3,4,4,5,5,6,6],"right_children":[2,4,6,8,10,12,14,-1,-1,-1,-1,-1,-1,-1,-1],"split_conditions":[4.64E-1,-2E0,2.9E0,-4.8E0,2.4E1,2.3E1,3.2E0,-6.505669E-4,2.8381965E-3,-7.453382E-4,-3.1906103E-3,3.024256E-3,5.507068E-3,-7.74647E-4,1.7040714E-3],"split_indices":[3,77,77,25,51,80,25,0,0,0,0,0,0,0,0],"split_type":[0,0,0,0,0,0,0,0,0,0,0,0,0,0,0],"sum_hessian":[6.7870557E3,2.5393123E3,4.2477437E3,8.014904E2,1.7378218E3,2.8612637E3,1.3864801E3,3.5543433E2,4.4605606E2,7.482281E2,9.8959375E2,2.0163799E3,8.448837E2,6.949365E2,6.915435E2],"tree_param":{"num_deleted":"0","num_feature":"106","num_nodes":"15","size_leaf_vector":"1"}},{"base_weights":[-1.2718815E-1,-3.0902568E-1,5.017499E-2,-9.038013E-2,-4.0786335E-1,-1.9625264E-1,1.599832E-1,-1.9235639E-3,2.2096433E-4,-3.3382967E-3,-5.9625464E-3,5.5102794E-4,-3.3536595E-3,4.972559E-4,3.0699712E-3],"categories":[],"categories_nodes":[],"categories_segments":[],"categories_sizes":[],"default_left":[0,0,0,0,0,0,0,0,0,0,0,0,0,0,0],"id":32,"left_children":[1,3,5,7,9,11,13,-1,-1,-1,-1,-1,-1,-1,-1],"loss_changes":[2.188804E2,7.2379486E1,9.301547E1,1.1984635E1,3.1984192E1,3.707142E1,3.852404E1,0E0,0E0,0E0,0E0,0E0,0E0,0E0,0E0],"parents":[2147483647,0,0,1,1,2,2,3,3,4,4,5,5,6,6],"right_children":[2,4,6,8,10,12,14,-1,-1,-1,-1,-1,-1,-1,-1],"split_conditions":[1.5E1,9E0,-2E0,6E0,2.3E1,-4.6E0,2.4E1,-1.9235639E-3,2.2096433E-4,-3.3382967E-3,-5.9625464E-3,5.5102794E-4,-3.3536595E-3,4.972559E-4,3.0699712E-3],"split_indices":[51,103,77,77,80,25,51,0,0,0,0,0,0,0,0],"split_type":[0,0,0,0,0,0,0,0,0,0,0,0,0,0,0],"sum_hessian":[6.7852397E3,3.349993E3,3.4352468E3,1.043503E3,2.30649E3,1.0586578E3,2.3765889E3,5.469257E2,4.9657736E2,1.6577875E3,6.4870245E2,3.773859E2,6.812719E2,1.3588304E3,1.0177585E3],"tree_param":{"num_deleted":"0","num_feature":"106","num_nodes":"15","size_leaf_vector":"1"}},{"base_weights":[1.2718813E-1,3.0902565E-1,-5.0175E-2,9.0380125E-2,4.0786332E-1,1.9625261E-1,-1.599832E-1,1.9235634E-3,-2.209641E-4,3.3382964E-3,5.9625464E-3,-5.510282E-4,3.353659E-3,-4.9725594E-4,-3.0699712E-3],"categories":[],"categories_nodes":[],"categories_segments":[],"categories_sizes":[],"default_left":[0,0,0,0,0,0,0,0,0,0,0,0,0,0,0],"id":33,"left_children":[1,3,5,7,9,11,13,-1,-1,-1,-1,-1,-1,-1,-1],"loss_changes":[2.188804E2,7.2379456E1,9.3015465E1,1.1984629E1,3.1984222E1,3.707141E1,3.8524033E1,0E0,0E0,0E0,0E0,0E0,0E0,0E0,0E0],"parents":[2147483647,0,0,1,1,2,2,3,3,4,4,5,5,6,6],"right_children":[2,4,6,8,10,12,14,-1,-1,-1,-1,-1,-1,-1,-1],"split_conditions":[1.5E1,9E0,-2E0,6E0,2.3E1,-4.6E0,2.4E1,1.9235634E-3,-2.209641E-4,3.3382964E-3,5.9625464E-3,-5.510282E-4,3.353659E-3,-4.9725594E-4,-3.0699712E-3],"split_indices":[51,103,77,77,80,25,51,0,0,0,0,0,0,0,0],"split_type":[0,0,0,0,0,0,0,0,0,0,0,0,0,0,0],"sum_hessian":[6.7852397E3,3.349993E3,3.4352468E3,1.043503E3,2.30649E3,1.0586578E3,2.3765889E3,5.469257E2,4.9657736E2,1.6577875E3,6.4870245E2,3.7738593E2,6.81272E2,1.3588304E3,1.0177585E3],"tree_param":{"num_deleted":"0","num_feature":"106","num_nodes":"15","size_leaf_vector":"1"}},{"base_weights":[-1.2595315E-1,-2.4150632E-1,1.477831E-1,-9.7892426E-2,-4.0383148E-1,-5.105696E-3,3.1416002E-1,-2.268336E-3,2.0204045E-4,-5.642693E-3,-3.3206623E-3,1.4670683E-3,-1.7228472E-3,4.4910884E-3,2.2953742E-3],"categories":[],"categories_nodes":[],"categories_segments":[],"categories_sizes":[],"default_left":[0,0,0,0,0,0,0,0,0,0,0,0,0,0,0],"id":34,"left_children":[1,3,5,7,9,11,13,-1,-1,-1,-1,-1,-1,-1,-1],"loss_changes":[2.1463231E2,1.1118106E2,5.1242947E1,3.8570957E1,2.5595062E1,2.6693178E1,1.0913261E1,0E0,0E0,0E0,0E0,0E0,0E0,0E0,0E0],"parents":[2147483647,0,0,1,1,2,2,3,3,4,4,5,5,6,6],"right_children":[2,4,6,8,10,12,14,-1,-1,-1,-1,-1,-1,-1,-1],"split_conditions":[2E1,1.4E1,5.14E-1,1E1,7E0,-4.8E0,-6.2E0,-2.268336E-3,2.0204045E-4,-5.642693E-3,-3.3206623E-3,1.4670683E-3,-1.7228472E-3,4.4910884E-3,2.2953742E-3],"split_indices":[28,80,55,51,51,25,25,0,0,0,0,0,0,0,0],"split_type":[0,0,0,0,0,0,0,0,0,0,0,0,0,0,0],"sum_hessian":[6.783357E3,4.769929E3,2.0134281E3,2.5316797E3,2.2382495E3,1.0497501E3,9.636779E2,1.2098306E3,1.3218491E3,6.896377E2,1.5486117E3,5.5022363E2,4.9952655E2,3.697405E2,5.939374E2],"tree_param":{"num_deleted":"0","num_feature":"106","num_nodes":"15","size_leaf_vector":"1"}},{"base_weights":[1.2595314E-1,2.4150632E-1,-1.477831E-1,9.789241E-2,4.0383148E-1,5.1056882E-3,-3.1416002E-1,2.268336E-3,-2.0204076E-4,5.642693E-3,3.3206625E-3,-1.4670683E-3,1.722847E-3,-4.491088E-3,-2.2953742E-3],"categories":[],"categories_nodes":[],"categories_segments":[],"categories_sizes":[],"default_left":[0,0,0,0,0,0,0,0,0,0,0,0,0,0,0],"id":35,"left_children":[1,3,5,7,9,11,13,-1,-1,-1,-1,-1,-1,-1,-1],"loss_changes":[2.146323E2,1.1118112E2,5.124294E1,3.857097E1,2.5595032E1,2.6693174E1,1.0913261E1,0E0,0E0,0E0,0E0,0E0,0E0,0E0,0E0],"parents":[2147483647,0,0,1,1,2,2,3,3,4,4,5,5,6,6],"right_children":[2,4,6,8,10,12,14,-1,-1,-1,-1,-1,-1,-1,-1],"split_conditions":[2E1,1.4E1,5.14E-1,1E1,7E0,-4.8E0,-6.2E0,2.268336E-3,-2.0204076E-4,5.642693E-3,3.3206625E-3,-1.4670683E-3,1.722847E-3,-4.491088E-3,-2.2953742E-3],"split_indices":[28,80,55,51,51,25,25,0,0,0,0,0,0,0,0],"split_type":[0,0,0,0,0,0,0,0,0,0,0,0,0,0,0],"sum_hessian":[6.783357E3,4.769929E3,2.013428E3,2.5316797E3,2.2382493E3,1.0497501E3,9.6367786E2,1.2098306E3,1.3218492E3,6.8963763E2,1.5486117E3,5.5022363E2,4.9952652E2,3.6974048E2,5.939374E2],"tree_param":{"num_deleted":"0","num_feature":"106","num_nodes":"15","size_leaf_vector":"1"}},{"base_weights":[-1.24730065E-1,-3.033909E-1,4.94607E-2,-8.804746E-2,-4.0082154E-1,-1.9311124E-1,1.5753119E-1,-1.8901576E-3,2.3298667E-4,-3.2768613E-3,-5.8716484E-3,1.9132745E-4,-3.521581E-3,4.9433653E-4,3.0174244E-3],"categories":[],"categories_nodes":[],"categories_segments":[],"categories_sizes":[],"default_left":[0,0,0,0,0,0,0,0,0,0,0,0,0,0,0],"id":36,"left_children":[1,3,5,7,9,11,13,-1,-1,-1,-1,-1,-1,-1,-1],"loss_changes":[2.1109152E2,7.021753E1,9.007945E1,1.1745133E1,3.1221832E1,3.576026E1,3.7038055E1,0E0,0E0,0E0,0E0,0E0,0E0,0E0,0E0],"parents":[2147483647,0,0,1,1,2,2,3,3,4,4,5,5,6,6],"right_children":[2,4,6,8,10,12,14,-1,-1,-1,-1,-1,-1,-1,-1],"split_conditions":[1.5E1,9E0,-2E0,6E0,2.3E1,-3.7E0,2.4E1,-1.8901576E-3,2.3298667E-4,-3.2768613E-3,-5.8716484E-3,1.9132745E-4,-3.521581E-3,4.9433653E-4,3.0174244E-3],"split_indices":[51,103,77,77,80,25,51,0,0,0,0,0,0,0,0],"split_type":[0,0,0,0,0,0,0,0,0,0,0,0,0,0,0],"sum_hessian":[6.781432E3,3.347395E3,3.434037E3,1.0433229E3,2.304072E3,1.0581521E3,2.375885E3,5.467941E2,4.9652872E2,1.6566387E3,6.474334E2,4.536489E2,6.045032E2,1.3587438E3,1.0171412E3],"tree_param":{"num_deleted":"0","num_feature":"106","num_nodes":"15","size_leaf_vector":"1"}},{"base_weights":[1.2473007E-1,3.033909E-1,-4.9460698E-2,8.804749E-2,4.0082154E-1,1.9311126E-1,-1.5753119E-1,1.8901582E-3,-2.3298674E-4,3.276861E-3,5.8716494E-3,-1.9132679E-4,3.521581E-3,-4.943364E-4,-3.0174246E-3],"categories":[],"categories_nodes":[],"categories_segments":[],"categories_sizes":[],"default_left":[0,0,0,0,0,0,0,0,0,0,0,0,0,0,0],"id":37,"left_children":[1,3,5,7,9,11,13,-1,-1,-1,-1,-1,-1,-1,-1],"loss_changes":[2.1109154E2,7.021756E1,9.007947E1,1.1745139E1,3.1221802E1,3.576025E1,3.703807E1,0E0,0E0,0E0,0E0,0E0,0E0,0E0,0E0],"parents":[2147483647,0,0,1,1,2,2,3,3,4,4,5,5,6,6],"right_children":[2,4,6,8,10,12,14,-1,-1,-1,-1,-1,-1,-1,-1],"split_conditions":[1.5E1,9E0,-2E0,6E0,2.3E1,-3.7E0,2.4E1,1.8901582E-3,-2.3298674E-4,3.276861E-3,5.8716494E-3,-1.9132679E-4,3.521581E-3,-4.943364E-4,-3.0174246E-3],"split_indices":[51,103,77,77,80,25,51,0,0,0,0,0,0,0,0],"split_type":[0,0,0,0,0,0,0,0,0,0,0,0,0,0,0],"sum_hessian":[6.781432E3,3.347395E3,3.434037E3,1.0433229E3,2.304072E3,1.0581521E3,2.375885E3,5.467941E2,4.9652872E2,1.6566387E3,6.474334E2,4.5364893E2,6.045032E2,1.3587438E3,1.0171412E3],"tree_param":{"num_deleted":"0","num_feature":"106","num_nodes":"15","size_leaf_vector":"1"}},{"base_weights":[-1.2352212E-1,-3.0048963E-1,4.8974957E-2,-8.7173656E-2,-3.9705485E-1,-1.0287327E-1,2.1947843E-1,-1.8715172E-3,2.3065867E-4,-3.2452745E-3,-5.8200615E-3,1.2281657E-3,-2.2639136E-3,1.1443743E-3,3.4306613E-3],"categories":[],"categories_nodes":[],"categories_segments":[],"categories_sizes":[],"default_left":[0,0,0,0,0,0,0,0,0,0,0,0,0,0,0],"id":38,"left_children":[1,3,5,7,9,11,13,-1,-1,-1,-1,-1,-1,-1,-1],"loss_changes":[2.0699524E2,6.890915E1,8.894194E1,1.1513695E1,3.0713074E1,5.068743E1,2.0967201E1,0E0,0E0,0E0,0E0,0E0,0E0,0E0,0E0],"parents":[2147483647,0,0,1,1,2,2,3,3,4,4,5,5,6,6],"right_children":[2,4,6,8,10,12,14,-1,-1,-1,-1,-1,-1,-1,-1],"split_conditions":[1.5E1,9E0,5.21E-1,6E0,2.3E1,-4.6E0,2.2E1,-1.8715172E-3,2.3065867E-4,-3.2452745E-3,-5.8200615E-3,1.2281657E-3,-2.2639136E-3,1.1443743E-3,3.4306613E-3],"split_indices":[51,103,55,77,80,25,28,0,0,0,0,0,0,0,0],"split_type":[0,0,0,0,0,0,0,0,0,0,0,0,0,0,0],"sum_hessian":[6.779384E3,3.3459639E3,3.43342E3,1.0432628E3,2.3027012E3,1.8162697E3,1.6171501E3,5.467282E2,4.9653458E2,1.6560479E3,6.466532E2,6.424334E2,1.1738362E3,8.752091E2,7.419411E2],"tree_param":{"num_deleted":"0","num_feature":"106","num_nodes":"15","size_leaf_vector":"1"}},{"base_weights":[1.2352211E-1,3.004896E-1,-4.8974954E-2,8.717365E-2,3.9705485E-1,1.0287329E-1,-2.1947843E-1,1.8715172E-3,-2.30659E-4,3.2452745E-3,5.8200606E-3,-1.2281657E-3,2.2639136E-3,-1.1443748E-3,-3.4306608E-3],"categories":[],"categories_nodes":[],"categories_segments":[],"categories_sizes":[],"default_left":[0,0,0,0,0,0,0,0,0,0,0,0,0,0,0],"id":39,"left_children":[1,3,5,7,9,11,13,-1,-1,-1,-1,-1,-1,-1,-1],"loss_changes":[2.0699525E2,6.890915E1,8.8941956E1,1.1513696E1,3.0713074E1,5.0687435E1,2.0967186E1,0E0,0E0,0E0,0E0,0E0,0E0,0E0,0E0],"parents":[2147483647,0,0,1,1,2,2,3,3,4,4,5,5,6,6],"right_children":[2,4,6,8,10,12,14,-1,-1,-1,-1,-1,-1,-1,-1],"split_conditions":[1.5E1,9E0,5.21E-1,6E0,2.3E1,-4.6E0,2.2E1,1.8715172E-3,-2.30659E-4,3.2452745E-3,5.8200606E-3,-1.2281657E-3,2.2639136E-3,-1.1443748E-3,-3.4306608E-3],"split_indices":[51,103,55,77,80,25,28,0,0,0,0,0,0,0,0],"split_type":[0,0,0,0,0,0,0,0,0,0,0,0,0,0,0],"sum_hessian":[6.779384E3,3.3459639E3,3.43342E3,1.0432627E3,2.3027012E3,1.8162697E3,1.6171501E3,5.467282E2,4.9653455E2,1.6560479E3,6.466532E2,6.424334E2,1.1738362E3,8.752091E2,7.419411E2],"tree_param":{"num_deleted":"0","num_feature":"106","num_nodes":"15","size_leaf_vector":"1"}},{"base_weights":[-1.2232575E-1,-2.3489577E-1,1.4423904E-1,-1.4113443E-1,-4.7313258E-1,-4.743412E-3,3.064488E-1,-2.9859128E-3,-4.8599276E-4,-4.1004377E-3,-5.9822225E-3,1.4269358E-3,-1.6711733E-3,4.3899803E-3,2.2339826E-3],"categories":[],"categories_nodes":[],"categories_segments":[],"categories_sizes":[],"default_left":[0,0,0,0,0,0,0,0,0,0,0,0,0,0,0],"id":40,"left_children":[1,3,5,7,9,11,13,-1,-1,-1,-1,-1,-1,-1,-1],"loss_changes":[2.034321E2,1.0639612E2,4.8652992E1,4.9838104E1,1.0373901E1,2.516949E1,1.0511978E1,0E0,0E0,0E0,0E0,0E0,0E0,0E0,0E0],"parents":[2147483647,0,0,1,1,2,2,3,3,4,4,5,5,6,6],"right_children":[2,4,6,8,10,12,14,-1,-1,-1,-1,-1,-1,-1,-1],"split_conditions":[2E1,2E1,5.14E-1,8E0,3.9E0,-4.8E0,-6.2E0,-2.9859128E-3,-4.8599276E-4,-4.1004377E-3,-5.9822225E-3,1.4269358E-3,-1.6711733E-3,4.3899803E-3,2.2339826E-3],"split_indices":[28,80,55,51,25,25,25,0,0,0,0,0,0,0,0],"split_type":[0,0,0,0,0,0,0,0,0,0,0,0,0,0,0],"sum_hessian":[6.7773145E3,4.765126E3,2.0121886E3,3.4205242E3,1.3446016E3,1.0493645E3,9.6282404E2,1.265291E3,2.1552332E3,8.9665375E2,4.4794778E2,5.500423E2,4.9932224E2,3.6923553E2,5.935885E2],"tree_param":{"num_deleted":"0","num_feature":"106","num_nodes":"15","size_leaf_vector":"1"}},{"base_weights":[1.2232574E-1,2.3489577E-1,-1.4423907E-1,1.4113443E-1,4.7313255E-1,4.743405E-3,-3.0644885E-1,2.9859128E-3,4.8599284E-4,4.1004377E-3,5.9822225E-3,-1.4269358E-3,1.6711731E-3,-4.3899813E-3,-2.2339826E-3],"categories":[],"categories_nodes":[],"categories_segments":[],"categories_sizes":[],"default_left":[0,0,0,0,0,0,0,0,0,0,0,0,0,0,0],"id":41,"left_children":[1,3,5,7,9,11,13,-1,-1,-1,-1,-1,-1,-1,-1],"loss_changes":[2.0343216E2,1.0639609E2,4.8653004E1,4.9838097E1,1.0373871E1,2.5169489E1,1.0511986E1,0E0,0E0,0E0,0E0,0E0,0E0,0E0,0E0],"parents":[2147483647,0,0,1,1,2,2,3,3,4,4,5,5,6,6],"right_children":[2,4,6,8,10,12,14,-1,-1,-1,-1,-1,-1,-1,-1],"split_conditions":[2E1,2E1,5.14E-1,8E0,3.9E0,-4.8E0,-6.2E0,2.9859128E-3,4.8599284E-4,4.1004377E-3,5.9822225E-3,-1.4269358E-3,1.6711731E-3,-4.3899813E-3,-2.2339826E-3],"split_indices":[28,80,55,51,25,25,25,0,0,0,0,0,0,0,0],"split_type":[0,0,0,0,0,0,0,0,0,0,0,0,0,0,0],"sum_hessian":[6.7773145E3,4.765126E3,2.0121886E3,3.4205242E3,1.3446016E3,1.0493645E3,9.6282404E2,1.265291E3,2.1552332E3,8.966538E2,4.4794778E2,5.500423E2,4.9932224E2,3.6923553E2,5.935885E2],"tree_param":{"num_deleted":"0","num_feature":"106","num_nodes":"15","size_leaf_vector":"1"}},{"base_weights":[-1.2114311E-1,-2.950867E-1,4.8319492E-2,-8.460809E-2,-3.9046228E-1,-1.8900535E-1,1.5402442E-1,-1.8364611E-3,2.4572664E-4,-3.191487E-3,-5.7262373E-3,1.7726078E-4,-3.4407806E-3,4.8789682E-4,2.9453456E-3],"categories":[],"categories_nodes":[],"categories_segments":[],"categories_sizes":[],"default_left":[0,0,0,0,0,0,0,0,0,0,0,0,0,0,0],"id":42,"left_children":[1,3,5,7,9,11,13,-1,-1,-1,-1,-1,-1,-1,-1],"loss_changes":[1.9975371E2,6.709604E1,8.615406E1,1.1293829E1,2.9707947E1,3.393581E1,3.5114925E1,0E0,0E0,0E0,0E0,0E0,0E0,0E0,0E0],"parents":[2147483647,0,0,1,1,2,2,3,3,4,4,5,5,6,6],"right_children":[2,4,6,8,10,12,14,-1,-1,-1,-1,-1,-1,-1,-1],"split_conditions":[1.5E1,9E0,-2E0,6E0,2.3E1,-3.7E0,2.4E1,-1.8364611E-3,2.4572664E-4,-3.191487E-3,-5.7262373E-3,1.7726078E-4,-3.4407806E-3,4.8789682E-4,2.9453456E-3],"split_indices":[51,103,77,77,80,25,51,0,0,0,0,0,0,0,0],"split_type":[0,0,0,0,0,0,0,0,0,0,0,0,0,0,0],"sum_hessian":[6.7751265E3,3.342994E3,3.4321323E3,1.0430458E3,2.2999482E3,1.0573717E3,2.3747605E3,5.4656964E2,4.9647617E2,1.65485E3,6.4509814E2,4.5357925E2,6.037925E2,1.358593E3,1.0161676E3],"tree_param":{"num_deleted":"0","num_feature":"106","num_nodes":"15","size_leaf_vector":"1"}},{"base_weights":[1.2114312E-1,2.950867E-1,-4.831948E-2,8.46081E-2,3.9046228E-1,1.8900539E-1,-1.540244E-1,1.8364612E-3,-2.4572667E-4,3.191487E-3,5.7262364E-3,-1.7726076E-4,3.4407813E-3,-4.8789688E-4,-2.9453456E-3],"categories":[],"categories_nodes":[],"categories_segments":[],"categories_sizes":[],"default_left":[0,0,0,0,0,0,0,0,0,0,0,0,0,0,0],"id":43,"left_children":[1,3,5,7,9,11,13,-1,-1,-1,-1,-1,-1,-1,-1],"loss_changes":[1.997537E2,6.709604E1,8.615408E1,1.1293831E1,2.9707947E1,3.393582E1,3.5114918E1,0E0,0E0,0E0,0E0,0E0,0E0,0E0,0E0],"parents":[2147483647,0,0,1,1,2,2,3,3,4,4,5,5,6,6],"right_children":[2,4,6,8,10,12,14,-1,-1,-1,-1,-1,-1,-1,-1],"split_conditions":[1.5E1,9E0,-2E0,6E0,2.3E1,-3.7E0,2.4E1,1.8364612E-3,-2.4572667E-4,3.191487E-3,5.7262364E-3,-1.7726076E-4,3.4407813E-3,-4.8789688E-4,-2.9453456E-3],"split_indices":[51,103,77,77,80,25,51,0,0,0,0,0,0,0,0],"split_type":[0,0,0,0,0,0,0,0,0,0,0,0,0,0,0],"sum_hessian":[6.7751265E3,3.3429941E3,3.4321323E3,1.0430458E3,2.2999482E3,1.0573717E3,2.3747605E3,5.4656964E2,4.9647617E2,1.6548501E3,6.4509814E2,4.5357925E2,6.037925E2,1.358593E3,1.0161676E3],"tree_param":{"num_deleted":"0","num_feature":"106","num_nodes":"15","size_leaf_vector":"1"}},{"base_weights":[-1.1997441E-1,9.605638E-2,-2.5408265E-1,-1.2294751E-1,1.9654426E-1,-1.1504333E-1,-4.1023263E-1,5.650367E-4,-2.6972282E-3,6.6172634E-4,3.0023295E-3,-1.9971642E-3,3.5505116E-4,-5.429177E-3,-3.389746E-3],"categories":[],"categories_nodes":[],"categories_segments":[],"categories_sizes":[],"default_left":[0,0,0,0,0,0,0,0,0,0,0,0,0,0,0],"id":44,"left_children":[1,3,5,7,9,11,13,-1,-1,-1,-1,-1,-1,-1,-1],"loss_changes":[1.9627249E2,5.713732E1,9.0696686E1,2.153073E1,2.4033234E1,2.8208694E1,1.8425903E1,0E0,0E0,0E0,0E0,0E0,0E0,0E0,0E0],"parents":[2147483647,0,0,1,1,2,2,3,3,4,4,5,5,6,6],"right_children":[2,4,6,8,10,12,14,-1,-1,-1,-1,-1,-1,-1,-1],"split_conditions":[4.69E-1,-2E0,1.4E1,-4.6E0,2.4E1,4.9E0,7E0,5.650367E-4,-2.6972282E-3,6.6172634E-4,3.0023295E-3,-1.9971642E-3,3.5505116E-4,-5.429177E-3,-3.389746E-3],"split_indices":[3,77,80,25,51,77,51,0,0,0,0,0,0,0,0],"split_type":[0,0,0,0,0,0,0,0,0,0,0,0,0,0,0],"sum_hessian":[6.7728286E3,2.5941987E3,4.17863E3,8.158679E2,1.7783308E3,2.2113408E3,1.9672892E3,3.6735074E2,4.4851718E2,7.8852606E2,9.898048E2,1.4151116E3,7.962292E2,6.850611E2,1.282228E3],"tree_param":{"num_deleted":"0","num_feature":"106","num_nodes":"15","size_leaf_vector":"1"}},{"base_weights":[1.19974434E-1,-9.605635E-2,2.5408268E-1,1.22947544E-1,-1.9654423E-1,1.15043335E-1,4.1023266E-1,-5.65036E-4,2.6972285E-3,-6.6172646E-4,-3.0023288E-3,1.9971645E-3,-3.5505084E-4,5.429177E-3,3.3897462E-3],"categories":[],"categories_nodes":[],"categories_segments":[],"categories_sizes":[],"default_left":[0,0,0,0,0,0,0,0,0,0,0,0,0,0,0],"id":45,"left_children":[1,3,5,7,9,11,13,-1,-1,-1,-1,-1,-1,-1,-1],"loss_changes":[1.9627245E2,5.713732E1,9.069672E1,2.1530724E1,2.4033226E1,2.8208687E1,1.8425934E1,0E0,0E0,0E0,0E0,0E0,0E0,0E0,0E0],"parents":[2147483647,0,0,1,1,2,2,3,3,4,4,5,5,6,6],"right_children":[2,4,6,8,10,12,14,-1,-1,-1,-1,-1,-1,-1,-1],"split_conditions":[4.69E-1,-2E0,1.4E1,-4.6E0,2.4E1,4.9E0,7E0,-5.65036E-4,2.6972285E-3,-6.6172646E-4,-3.0023288E-3,1.9971645E-3,-3.5505084E-4,5.429177E-3,3.3897462E-3],"split_indices":[3,77,80,25,51,77,51,0,0,0,0,0,0,0,0],"split_type":[0,0,0,0,0,0,0,0,0,0,0,0,0,0,0],"sum_hessian":[6.7728286E3,2.5941987E3,4.17863E3,8.158679E2,1.7783309E3,2.2113408E3,1.9672892E3,3.6735074E2,4.4851718E2,7.8852606E2,9.898048E2,1.4151116E3,7.9622925E2,6.850611E2,1.282228E3],"tree_param":{"num_deleted":"0","num_feature":"106","num_nodes":"15","size_leaf_vector":"1"}},{"base_weights":[-1.1881712E-1,-2.8988832E-1,4.7763173E-2,-8.325392E-2,-3.8363317E-1,-9.976852E-2,2.1340398E-1,-1.8055087E-3,2.39774E-4,-3.1311004E-3,-5.6405943E-3,1.1773619E-3,-2.1886965E-3,1.1268229E-3,3.3207103E-3],"categories":[],"categories_nodes":[],"categories_segments":[],"categories_sizes":[],"default_left":[0,0,0,0,0,0,0,0,0,0,0,0,0,0,0],"id":46,"left_children":[1,3,5,7,9,11,13,-1,-1,-1,-1,-1,-1,-1,-1],"loss_changes":[1.9298221E2,6.4683624E1,8.388135E1,1.0895861E1,2.9062927E1,4.7062134E1,1.9288612E1,0E0,0E0,0E0,0E0,0E0,0E0,0E0,0E0],"parents":[2147483647,0,0,1,1,2,2,3,3,4,4,5,5,6,6],"right_children":[2,4,6,8,10,12,14,-1,-1,-1,-1,-1,-1,-1,-1],"split_conditions":[1.5E1,9E0,5.21E-1,6E0,2.3E1,-4.6E0,2.2E1,-1.8055087E-3,2.39774E-4,-3.1311004E-3,-5.6405943E-3,1.1773619E-3,-2.1886965E-3,1.1268229E-3,3.3207103E-3],"split_indices":[51,103,55,77,80,25,28,0,0,0,0,0,0,0,0],"split_type":[0,0,0,0,0,0,0,0,0,0,0,0,0,0,0],"sum_hessian":[6.7705107E3,3.339865E3,3.430646E3,1.042922E3,2.296943E3,1.8147214E3,1.6159244E3,5.4643097E2,4.9649106E2,1.6534108E3,6.435323E2,6.421063E2,1.1726151E3,8.751058E2,7.408187E2],"tree_param":{"num_deleted":"0","num_feature":"106","num_nodes":"15","size_leaf_vector":"1"}},{"base_weights":[1.1881713E-1,2.8988832E-1,-4.7763165E-2,8.325391E-2,3.8363317E-1,9.976853E-2,-2.1340398E-1,1.8055087E-3,-2.3977416E-4,3.1311004E-3,5.640594E-3,-1.1773619E-3,2.1886968E-3,-1.1268231E-3,-3.32071E-3],"categories":[],"categories_nodes":[],"categories_segments":[],"categories_sizes":[],"default_left":[0,0,0,0,0,0,0,0,0,0,0,0,0,0,0],"id":47,"left_children":[1,3,5,7,9,11,13,-1,-1,-1,-1,-1,-1,-1,-1],"loss_changes":[1.9298221E2,6.4683624E1,8.388135E1,1.0895863E1,2.9062927E1,4.706215E1,1.928862E1,0E0,0E0,0E0,0E0,0E0,0E0,0E0,0E0],"parents":[2147483647,0,0,1,1,2,2,3,3,4,4,5,5,6,6],"right_children":[2,4,6,8,10,12,14,-1,-1,-1,-1,-1,-1,-1,-1],"split_conditions":[1.5E1,9E0,5.21E-1,6E0,2.3E1,-4.6E0,2.2E1,1.8055087E-3,-2.3977416E-4,3.1311004E-3,5.640594E-3,-1.1773619E-3,2.1886968E-3,-1.1268231E-3,-3.32071E-3],"split_indices":[51,103,55,77,80,25,28,0,0,0,0,0,0,0,0],"split_type":[0,0,0,0,0,0,0,0,0,0,0,0,0,0,0],"sum_hessian":[6.7705107E3,3.339865E3,3.430646E3,1.042922E3,2.296943E3,1.8147214E3,1.6159246E3,5.4643097E2,4.9649106E2,1.6534108E3,6.435323E2,6.421064E2,1.172615E3,8.7510583E2,7.4081866E2],"tree_param":{"num_deleted":"0","num_feature":"106","num_nodes":"15","size_leaf_vector":"1"}},{"base_weights":[-1.1767192E-1,-2.2639301E-1,1.3963307E-1,-1.3544053E-1,-4.581773E-1,-4.7334325E-3,2.9692706E-1,-2.8941205E-3,-4.5040352E-4,-3.8767688E-3,-5.68248E-3,1.3725755E-3,-1.6113722E-3,4.2650043E-3,2.1583736E-3],"categories":[],"categories_nodes":[],"categories_segments":[],"categories_sizes":[],"default_left":[0,0,0,0,0,0,0,0,0,0,0,0,0,0,0],"id":48,"left_children":[1,3,5,7,9,11,13,-1,-1,-1,-1,-1,-1,-1,-1],"loss_changes":[1.8939438E2,1.0026137E2,4.5673046E1,4.757845E1,1.0183624E1,2.333399E1,1.0021515E1,0E0,0E0,0E0,0E0,0E0,0E0,0E0,0E0],"parents":[2147483647,0,0,1,1,2,2,3,3,4,4,5,5,6,6],"right_children":[2,4,6,8,10,12,14,-1,-1,-1,-1,-1,-1,-1,-1],"split_conditions":[2E1,2E1,5.14E-1,8E0,2.7E1,-4.8E0,-6.2E0,-2.8941205E-3,-4.5040352E-4,-3.8767688E-3,-5.68248E-3,1.3725755E-3,-1.6113722E-3,4.2650043E-3,2.1583736E-3],"split_indices":[28,80,55,51,103,25,25,0,0,0,0,0,0,0,0],"split_type":[0,0,0,0,0,0,0,0,0,0,0,0,0,0,0],"sum_hessian":[6.7681265E3,4.7578677E3,2.0102588E3,3.418161E3,1.3397069E3,1.0487094E3,9.6154944E2,1.2636624E3,2.1544985E3,8.194015E2,5.2030536E2,5.497458E2,4.989636E2,3.6848578E2,5.9306366E2],"tree_param":{"num_deleted":"0","num_feature":"106","num_nodes":"15","size_leaf_vector":"1"}},{"base_weights":[1.1767193E-1,2.2639303E-1,-1.3963307E-1,1.3544053E-1,4.5817733E-1,4.7334367E-3,-2.9692703E-1,2.8941208E-3,4.5040334E-4,3.8767692E-3,5.682481E-3,-1.3725762E-3,1.6113728E-3,-4.2650043E-3,-2.1583731E-3],"categories":[],"categories_nodes":[],"categories_segments":[],"categories_sizes":[],"default_left":[0,0,0,0,0,0,0,0,0,0,0,0,0,0,0],"id":49,"left_children":[1,3,5,7,9,11,13,-1,-1,-1,-1,-1,-1,-1,-1],"loss_changes":[1.8939441E2,1.0026137E2,4.5673035E1,4.7578457E1,1.0183624E1,2.333401E1,1.002153E1,0E0,0E0,0E0,0E0,0E0,0E0,0E0,0E0],"parents":[2147483647,0,0,1,1,2,2,3,3,4,4,5,5,6,6],"right_children":[2,4,6,8,10,12,14,-1,-1,-1,-1,-1,-1,-1,-1],"split_conditions":[2E1,2E1,5.14E-1,8E0,2.7E1,-4.8E0,-6.2E0,2.8941208E-3,4.5040334E-4,3.8767692E-3,5.682481E-3,-1.3725762E-3,1.6113728E-3,-4.2650043E-3,-2.1583731E-3],"split_indices":[28,80,55,51,103,25,25,0,0,0,0,0,0,0,0],"split_type":[0,0,0,0,0,0,0,0,0,0,0,0,0,0,0],"sum_hessian":[6.7681265E3,4.7578677E3,2.0102589E3,3.418161E3,1.3397068E3,1.0487094E3,9.615495E2,1.2636624E3,2.1544985E3,8.194015E2,5.2030536E2,5.497457E2,4.9896362E2,3.684858E2,5.9306366E2],"tree_param":{"num_deleted":"0","num_feature":"106","num_nodes":"15","size_leaf_vector":"1"}},{"base_weights":[-1.1653899E-1,-2.8478205E-1,4.7196824E-2,-8.079124E-2,-3.774313E-1,-1.8311511E-1,1.4973524E-1,-1.7717872E-3,2.5412047E-4,-3.0809261E-3,-5.5517107E-3,1.6517541E-4,-3.3310088E-3,4.869834E-4,2.848136E-3],"categories":[],"categories_nodes":[],"categories_segments":[],"categories_sizes":[],"default_left":[0,0,0,0,0,0,0,0,0,0,0,0,0,0,0],"id":50,"left_children":[1,3,5,7,9,11,13,-1,-1,-1,-1,-1,-1,-1,-1],"loss_changes":[1.864177E2,6.304767E1,8.1032715E1,1.0688337E1,2.8111359E1,3.165847E1,3.2386074E1,0E0,0E0,0E0,0E0,0E0,0E0,0E0,0E0],"parents":[2147483647,0,0,1,1,2,2,3,3,4,4,5,5,6,6],"right_children":[2,4,6,8,10,12,14,-1,-1,-1,-1,-1,-1,-1,-1],"split_conditions":[1.5E1,9E0,-2E0,6E0,2.3E1,-3.7E0,2.4E1,-1.7717872E-3,2.5412047E-4,-3.0809261E-3,-5.5517107E-3,1.6517541E-4,-3.3310088E-3,4.869834E-4,2.848136E-3],"split_indices":[51,103,77,77,80,25,51,0,0,0,0,0,0,0,0],"split_type":[0,0,0,0,0,0,0,0,0,0,0,0,0,0,0],"sum_hessian":[6.76567E3,3.3365417E3,3.429128E3,1.042683E3,2.293859E3,1.0561406E3,2.3729873E3,5.4625085E2,4.964321E2,1.6520897E3,6.4176904E2,4.5346448E2,6.0267615E2,1.3583325E3,1.01465485E3],"tree_param":{"num_deleted":"0","num_feature":"106","num_nodes":"15","size_leaf_vector":"1"}},{"base_weights":[1.16539E-1,2.8478205E-1,-4.7196805E-2,8.07912E-2,3.7743133E-1,1.831151E-1,-1.4973521E-1,1.7717871E-3,-2.5412114E-4,3.0809268E-3,5.5517107E-3,-1.6517521E-4,3.3310084E-3,-4.8698328E-4,-2.8481355E-3],"categories":[],"categories_nodes":[],"categories_segments":[],"categories_sizes":[],"default_left":[0,0,0,0,0,0,0,0,0,0,0,0,0,0,0],"id":51,"left_children":[1,3,5,7,9,11,13,-1,-1,-1,-1,-1,-1,-1,-1],"loss_changes":[1.8641768E2,6.304773E1,8.103269E1,1.0688345E1,2.8111359E1,3.1658459E1,3.238606E1,0E0,0E0,0E0,0E0,0E0,0E0,0E0,0E0],"parents":[2147483647,0,0,1,1,2,2,3,3,4,4,5,5,6,6],"right_children":[2,4,6,8,10,12,14,-1,-1,-1,-1,-1,-1,-1,-1],"split_conditions":[1.5E1,9E0,-2E0,6E0,2.3E1,-3.7E0,2.4E1,1.7717871E-3,-2.5412114E-4,3.0809268E-3,5.5517107E-3,-1.6517521E-4,3.3310084E-3,-4.8698328E-4,-2.8481355E-3],"split_indices":[51,103,77,77,80,25,51,0,0,0,0,0,0,0,0],"split_type":[0,0,0,0,0,0,0,0,0,0,0,0,0,0,0],"sum_hessian":[6.76567E3,3.3365417E3,3.429128E3,1.042683E3,2.293859E3,1.0561406E3,2.3729873E3,5.4625085E2,4.964321E2,1.6520897E3,6.4176904E2,4.5346448E2,6.0267615E2,1.3583325E3,1.01465485E3],"tree_param":{"num_deleted":"0","num_feature":"106","num_nodes":"15","size_leaf_vector":"1"}},{"base_weights":[-1.1541987E-1,-2.4124983E-1,9.9477045E-2,-1.02660835E-1,-3.9789996E-1,1.844126E-1,-1.5283969E-1,-2.2160723E-3,4.933013E-5,-5.2921413E-3,-3.2963224E-3,3.379802E-3,1.0307662E-3,2.8241685E-4,-2.8898432E-3],"categories":[],"categories_nodes":[],"categories_segments":[],"categories_sizes":[],"default_left":[0,0,0,0,0,0,0,0,0,0,0,0,0,0,0],"id":52,"left_children":[1,3,5,7,9,11,13,-1,-1,-1,-1,-1,-1,-1,-1],"loss_changes":[1.8292786E2,9.258273E1,5.3576385E1,2.898896E1,1.7775696E1,2.3320614E1,1.5535452E1,0E0,0E0,0E0,0E0,0E0,0E0,0E0,0E0],"parents":[2147483647,0,0,1,1,2,2,3,3,4,4,5,5,6,6],"right_children":[2,4,6,8,10,12,14,-1,-1,-1,-1,-1,-1,-1,-1],"split_conditions":[1.8E1,1.4E1,2.2E1,9E0,7E0,-6E0,-4.6E0,-2.2160723E-3,4.933013E-5,-5.2921413E-3,-3.2963224E-3,3.379802E-3,1.0307662E-3,2.8241685E-4,-2.8898432E-3],"split_indices":[27,80,80,51,51,25,25,0,0,0,0,0,0,0,0],"split_type":[0,0,0,0,0,0,0,0,0,0,0,0,0,0,0],"sum_hessian":[6.7630786E3,4.265406E3,2.4976729E3,2.2640483E3,2.0013573E3,1.868846E3,6.288269E2,1.074792E3,1.1892563E3,6.8226196E2,1.3190953E3,6.460002E2,1.2228457E3,2.702153E2,3.586116E2],"tree_param":{"num_deleted":"0","num_feature":"106","num_nodes":"15","size_leaf_vector":"1"}},{"base_weights":[1.1541985E-1,2.412498E-1,-9.947705E-2,1.026608E-1,3.9789996E-1,-1.8441261E-1,1.5283969E-1,2.2160718E-3,-4.9330265E-5,5.292141E-3,3.2963224E-3,-3.379802E-3,-1.0307664E-3,-2.8241685E-4,2.8898434E-3],"categories":[],"categories_nodes":[],"categories_segments":[],"categories_sizes":[],"default_left":[0,0,0,0,0,0,0,0,0,0,0,0,0,0,0],"id":53,"left_children":[1,3,5,7,9,11,13,-1,-1,-1,-1,-1,-1,-1,-1],"loss_changes":[1.8292784E2,9.258276E1,5.3576397E1,2.8988949E1,1.7775726E1,2.3320599E1,1.5535452E1,0E0,0E0,0E0,0E0,0E0,0E0,0E0,0E0],"parents":[2147483647,0,0,1,1,2,2,3,3,4,4,5,5,6,6],"right_children":[2,4,6,8,10,12,14,-1,-1,-1,-1,-1,-1,-1,-1],"split_conditions":[1.8E1,1.4E1,2.2E1,9E0,7E0,-6E0,-4.6E0,2.2160718E-3,-4.9330265E-5,5.292141E-3,3.2963224E-3,-3.379802E-3,-1.0307664E-3,-2.8241685E-4,2.8898434E-3],"split_indices":[27,80,80,51,51,25,25,0,0,0,0,0,0,0,0],"split_type":[0,0,0,0,0,0,0,0,0,0,0,0,0,0,0],"sum_hessian":[6.7630786E3,4.265406E3,2.4976729E3,2.2640483E3,2.0013573E3,1.868846E3,6.288269E2,1.074792E3,1.1892563E3,6.8226196E2,1.3190953E3,6.460002E2,1.2228457E3,2.702153E2,3.586116E2],"tree_param":{"num_deleted":"0","num_feature":"106","num_nodes":"15","size_leaf_vector":"1"}},{"base_weights":[-1.143106E-1,-2.7966416E-1,4.6512745E-2,-7.8710094E-2,-3.7104878E-1,-9.534183E-2,2.0885527E-1,-1.74162E-3,2.6436461E-4,-3.0252435E-3,-5.470157E-3,1.2340646E-3,-2.10175E-3,1.0537198E-3,3.094299E-3],"categories":[],"categories_nodes":[],"categories_segments":[],"categories_sizes":[],"default_left":[0,0,0,0,0,0,0,0,0,0,0,0,0,0,0],"id":54,"left_children":[1,3,5,7,9,11,13,-1,-1,-1,-1,-1,-1,-1,-1],"loss_changes":[1.7982043E2,6.119583E1,7.897672E1,1.0477203E1,2.7465454E1,4.6005646E1,1.6610947E1,0E0,0E0,0E0,0E0,0E0,0E0,0E0,0E0],"parents":[2147483647,0,0,1,1,2,2,3,3,4,4,5,5,6,6],"right_children":[2,4,6,8,10,12,14,-1,-1,-1,-1,-1,-1,-1,-1],"split_conditions":[1.5E1,9E0,5.24E-1,6E0,2.3E1,-4.8E0,2.1E1,-1.74162E-3,2.6436461E-4,-3.0252435E-3,-5.470157E-3,1.2340646E-3,-2.10175E-3,1.0537198E-3,3.094299E-3],"split_indices":[51,103,55,77,80,25,28,0,0,0,0,0,0,0,0],"split_type":[0,0,0,0,0,0,0,0,0,0,0,0,0,0,0],"sum_hessian":[6.76053E3,3.3329524E3,3.4275771E3,1.0424576E3,2.2904949E3,1.8294341E3,1.5981431E3,5.460751E2,4.9638254E2,1.6504873E3,6.4000757E2,6.2974475E2,1.1996893E3,7.886908E2,8.0945233E2],"tree_param":{"num_deleted":"0","num_feature":"106","num_nodes":"15","size_leaf_vector":"1"}},{"base_weights":[1.1431059E-1,2.7966416E-1,-4.6512756E-2,7.871011E-2,3.7104878E-1,9.534183E-2,-2.088553E-1,1.7416197E-3,-2.643642E-4,3.0252435E-3,5.470157E-3,-1.2340643E-3,2.10175E-3,-1.0537201E-3,-3.0942995E-3],"categories":[],"categories_nodes":[],"categories_segments":[],"categories_sizes":[],"default_left":[0,0,0,0,0,0,0,0,0,0,0,0,0,0,0],"id":55,"left_children":[1,3,5,7,9,11,13,-1,-1,-1,-1,-1,-1,-1,-1],"loss_changes":[1.7982047E2,6.119583E1,7.897674E1,1.0477196E1,2.7465454E1,4.600563E1,1.6610947E1,0E0,0E0,0E0,0E0,0E0,0E0,0E0,0E0],"parents":[2147483647,0,0,1,1,2,2,3,3,4,4,5,5,6,6],"right_children":[2,4,6,8,10,12,14,-1,-1,-1,-1,-1,-1,-1,-1],"split_conditions":[1.5E1,9E0,5.24E-1,6E0,2.3E1,-4.8E0,2.1E1,1.7416197E-3,-2.643642E-4,3.0252435E-3,5.470157E-3,-1.2340643E-3,2.10175E-3,-1.0537201E-3,-3.0942995E-3],"split_indices":[51,103,55,77,80,25,28,0,0,0,0,0,0,0,0],"split_type":[0,0,0,0,0,0,0,0,0,0,0,0,0,0,0],"sum_hessian":[6.76053E3,3.3329524E3,3.4275771E3,1.0424576E3,2.2904949E3,1.8294341E3,1.5981431E3,5.460751E2,4.9638254E2,1.6504873E3,6.4000757E2,6.2974475E2,1.1996893E3,7.886908E2,8.0945233E2],"tree_param":{"num_deleted":"0","num_feature":"106","num_nodes":"15","size_leaf_vector":"1"}},{"base_weights":[-1.1321354E-1,-2.1043916E-1,1.5519468E-1,-1.1436082E-1,-4.2129275E-1,1.8254032E-2,3.0521825E-1,-4.22819E-5,-2.4925892E-3,-3.0513322E-3,-4.8673763E-3,1.3350698E-3,-1.3625438E-3,2.2820688E-3,4.1957516E-3],"categories":[],"categories_nodes":[],"categories_segments":[],"categories_sizes":[],"default_left":[0,0,0,0,0,0,0,0,0,0,0,0,0,0,0],"id":56,"left_children":[1,3,5,7,9,11,13,-1,-1,-1,-1,-1,-1,-1,-1],"loss_changes":[1.7641324E2,1.0047522E2,3.6929543E1,5.0662586E1,1.1656616E1,1.677436E1,7.459305E0,0E0,0E0,0E0,0E0,0E0,0E0,0E0,0E0],"parents":[2147483647,0,0,1,1,2,2,3,3,4,4,5,5,6,6],"right_children":[2,4,6,8,10,12,14,-1,-1,-1,-1,-1,-1,-1,-1],"split_conditions":[2.1E1,1.9E1,5.14E-1,2.8E0,5.28E-1,-4.8E0,3.5E1,-4.22819E-5,-2.4925892E-3,-3.0513322E-3,-4.8673763E-3,1.3350698E-3,-1.3625438E-3,2.2820688E-3,4.1957516E-3],"split_indices":[28,80,55,25,3,25,2,0,0,0,0,0,0,0,0],"split_type":[0,0,0,0,0,0,0,0,0,0,0,0,0,0,0],"sum_hessian":[6.7578716E3,4.961046E3,1.7968257E3,3.4091584E3,1.5518876E3,9.3995856E2,8.568671E2,1.8774303E3,1.531728E3,5.6129517E2,9.905924E2,5.384482E2,4.015104E2,5.138325E2,3.430346E2],"tree_param":{"num_deleted":"0","num_feature":"106","num_nodes":"15","size_leaf_vector":"1"}},{"base_weights":[1.1321354E-1,2.1043916E-1,-1.551947E-1,1.1436082E-1,4.2129275E-1,-1.8254023E-2,-3.052183E-1,4.2281932E-5,2.4925892E-3,3.0513322E-3,4.8673763E-3,-1.3350698E-3,1.362544E-3,-2.2820693E-3,-4.195752E-3],"categories":[],"categories_nodes":[],"categories_segments":[],"categories_sizes":[],"default_left":[0,0,0,0,0,0,0,0,0,0,0,0,0,0,0],"id":57,"left_children":[1,3,5,7,9,11,13,-1,-1,-1,-1,-1,-1,-1,-1],"loss_changes":[1.7641324E2,1.0047522E2,3.6929554E1,5.0662582E1,1.1656616E1,1.6774363E1,7.459305E0,0E0,0E0,0E0,0E0,0E0,0E0,0E0,0E0],"parents":[2147483647,0,0,1,1,2,2,3,3,4,4,5,5,6,6],"right_children":[2,4,6,8,10,12,14,-1,-1,-1,-1,-1,-1,-1,-1],"split_conditions":[2.1E1,1.9E1,5.14E-1,2.8E0,5.28E-1,-4.8E0,3.5E1,4.2281932E-5,2.4925892E-3,3.0513322E-3,4.8673763E-3,-1.3350698E-3,1.362544E-3,-2.2820693E-3,-4.195752E-3],"split_indices":[28,80,55,25,3,25,2,0,0,0,0,0,0,0,0],"split_type":[0,0,0,0,0,0,0,0,0,0,0,0,0,0,0],"sum_hessian":[6.7578716E3,4.961046E3,1.7968257E3,3.4091584E3,1.5518876E3,9.3995856E2,8.568671E2,1.8774303E3,1.531728E3,5.6129517E2,9.905924E2,5.384481E2,4.015104E2,5.138325E2,3.430346E2],"tree_param":{"num_deleted":"0","num_feature":"106","num_nodes":"15","size_leaf_vector":"1"}},{"base_weights":[-1.12127475E-1,-2.7463678E-1,4.5823853E-2,-3.5670456E-1,-5.6330893E-2,-1.7805688E-1,1.4545722E-1,-2.912694E-3,-5.386157E-3,-7.494159E-5,-2.906614E-3,1.4950728E-4,-3.2329913E-3,4.7809636E-4,2.7617484E-3],"categories":[],"categories_nodes":[],"categories_segments":[],"categories_sizes":[],"default_left":[0,0,0,0,0,0,0,0,0,0,0,0,0,0,0],"id":58,"left_children":[1,3,5,7,9,11,13,-1,-1,-1,-1,-1,-1,-1,-1],"loss_changes":[1.7343356E2,5.964296E1,7.6468216E1,2.8650787E1,1.042388E1,2.9603779E1,3.026514E1,0E0,0E0,0E0,0E0,0E0,0E0,0E0,0E0],"parents":[2147483647,0,0,1,1,2,2,3,3,4,4,5,5,6,6],"right_children":[2,4,6,8,10,12,14,-1,-1,-1,-1,-1,-1,-1,-1],"split_conditions":[1.5E1,3.8E0,-2E0,2.3E1,1.16E1,-3.7E0,2.4E1,-2.912694E-3,-5.386157E-3,-7.494159E-5,-2.906614E-3,1.4950728E-4,-3.2329913E-3,4.7809636E-4,2.7617484E-3],"split_indices":[51,77,77,80,66,25,51,0,0,0,0,0,0,0,0],"split_type":[0,0,0,0,0,0,0,0,0,0,0,0,0,0,0],"sum_hessian":[6.755163E3,3.3291772E3,3.4259856E3,2.419122E3,9.1005524E2,1.0548661E3,2.3711194E3,1.7810594E3,6.380626E2,7.5395557E2,1.5609962E2,4.5333774E2,6.015283E2,1.3580249E3,1.0130946E3],"tree_param":{"num_deleted":"0","num_feature":"106","num_nodes":"15","size_leaf_vector":"1"}},{"base_weights":[1.1212747E-1,2.7463675E-1,-4.582384E-2,3.5670453E-1,5.63309E-2,1.7805688E-1,-1.454572E-1,2.9126937E-3,5.386157E-3,7.4941636E-5,2.906614E-3,-1.4950757E-4,3.2329916E-3,-4.7809622E-4,-2.7617482E-3],"categories":[],"categories_nodes":[],"categories_segments":[],"categories_sizes":[],"default_left":[0,0,0,0,0,0,0,0,0,0,0,0,0,0,0],"id":59,"left_children":[1,3,5,7,9,11,13,-1,-1,-1,-1,-1,-1,-1,-1],"loss_changes":[1.7343353E2,5.9642944E1,7.64682E1,2.8650787E1,1.0423882E1,2.960379E1,3.0265148E1,0E0,0E0,0E0,0E0,0E0,0E0,0E0,0E0],"parents":[2147483647,0,0,1,1,2,2,3,3,4,4,5,5,6,6],"right_children":[2,4,6,8,10,12,14,-1,-1,-1,-1,-1,-1,-1,-1],"split_conditions":[1.5E1,3.8E0,-2E0,2.3E1,1.16E1,-3.7E0,2.4E1,2.9126937E-3,5.386157E-3,7.4941636E-5,2.906614E-3,-1.4950757E-4,3.2329916E-3,-4.7809622E-4,-2.7617482E-3],"split_indices":[51,77,77,80,66,25,51,0,0,0,0,0,0,0,0],"split_type":[0,0,0,0,0,0,0,0,0,0,0,0,0,0,0],"sum_hessian":[6.755163E3,3.3291772E3,3.4259856E3,2.419122E3,9.100552E2,1.0548661E3,2.3711194E3,1.7810594E3,6.380627E2,7.5395557E2,1.5609962E2,4.5333774E2,6.015283E2,1.3580249E3,1.01309454E3],"tree_param":{"num_deleted":"0","num_feature":"106","num_nodes":"15","size_leaf_vector":"1"}},{"base_weights":[-1.1105486E-1,-2.3268425E-1,9.647791E-2,-9.8130785E-2,-3.851952E-1,1.7892903E-1,-1.4848368E-1,-2.370249E-3,-1.0066643E-4,-5.1444797E-3,-3.1813E-3,3.282508E-3,9.993515E-4,-2.3923768E-3,1.0771652E-3],"categories":[],"categories_nodes":[],"categories_segments":[],"categories_sizes":[],"default_left":[0,0,0,0,0,0,0,0,0,0,0,0,0,0,0],"id":60,"left_children":[1,3,5,7,9,11,13,-1,-1,-1,-1,-1,-1,-1,-1],"loss_changes":[1.7049084E2,8.734404E1,5.044216E1,2.7685349E1,1.7134644E1,2.2001266E1,1.4654074E1,0E0,0E0,0E0,0E0,0E0,0E0,0E0,0E0],"parents":[2147483647,0,0,1,1,2,2,3,3,4,4,5,5,6,6],"right_children":[2,4,6,8,10,12,14,-1,-1,-1,-1,-1,-1,-1,-1],"split_conditions":[1.8E1,1.4E1,2.2E1,7E0,7E0,-6E0,2.7E1,-2.370249E-3,-1.0066643E-4,-5.1444797E-3,-3.1813E-3,3.282508E-3,9.993515E-4,-2.3923768E-3,1.0771652E-3],"split_indices":[27,80,80,29,51,25,28,0,0,0,0,0,0,0,0],"split_type":[0,0,0,0,0,0,0,0,0,0,0,0,0,0,0],"sum_hessian":[6.75234E3,4.2571924E3,2.4951477E3,2.2626245E3,1.9945676E3,1.8670056E3,6.281421E2,8.772852E2,1.3853394E3,6.790955E2,1.3154722E3,6.448649E2,1.2221407E3,4.638857E2,1.6425638E2],"tree_param":{"num_deleted":"0","num_feature":"106","num_nodes":"15","size_leaf_vector":"1"}},{"base_weights":[1.1105486E-1,2.3268427E-1,-9.647791E-2,9.813079E-2,3.851952E-1,-1.7892903E-1,1.484837E-1,2.370249E-3,1.0066653E-4,5.1444797E-3,3.1813001E-3,-3.282508E-3,-9.993514E-4,2.3923768E-3,-1.0771652E-3],"categories":[],"categories_nodes":[],"categories_segments":[],"categories_sizes":[],"default_left":[0,0,0,0,0,0,0,0,0,0,0,0,0,0,0],"id":61,"left_children":[1,3,5,7,9,11,13,-1,-1,-1,-1,-1,-1,-1,-1],"loss_changes":[1.7049084E2,8.7344025E1,5.044217E1,2.7685345E1,1.7134644E1,2.2001278E1,1.4654072E1,0E0,0E0,0E0,0E0,0E0,0E0,0E0,0E0],"parents":[2147483647,0,0,1,1,2,2,3,3,4,4,5,5,6,6],"right_children":[2,4,6,8,10,12,14,-1,-1,-1,-1,-1,-1,-1,-1],"split_conditions":[1.8E1,1.4E1,2.2E1,7E0,7E0,-6E0,2.7E1,2.370249E-3,1.0066653E-4,5.1444797E-3,3.1813001E-3,-3.282508E-3,-9.993514E-4,2.3923768E-3,-1.0771652E-3],"split_indices":[27,80,80,29,51,25,28,0,0,0,0,0,0,0,0],"split_type":[0,0,0,0,0,0,0,0,0,0,0,0,0,0,0],"sum_hessian":[6.75234E3,4.2571924E3,2.4951477E3,2.2626248E3,1.9945676E3,1.8670056E3,6.281421E2,8.772852E2,1.3853395E3,6.790955E2,1.3154722E3,6.448649E2,1.2221407E3,4.638857E2,1.6425638E2],"tree_param":{"num_deleted":"0","num_feature":"106","num_nodes":"15","size_leaf_vector":"1"}},{"base_weights":[-1.09990336E-1,-2.697626E-1,4.5194753E-2,-7.42216E-2,-3.5892254E-1,-9.2605956E-2,2.0288639E-1,-1.6839176E-3,2.9463336E-4,-2.9223359E-3,-5.3087543E-3,1.187044E-3,-2.0359573E-3,3.7363642E-3,1.4566539E-3],"categories":[],"categories_nodes":[],"categories_segments":[],"categories_sizes":[],"default_left":[0,0,0,0,0,0,0,0,0,0,0,0,0,0,0],"id":62,"left_children":[1,3,5,7,9,11,13,-1,-1,-1,-1,-1,-1,-1,-1],"loss_changes":[1.6738892E2,5.7965332E1,7.445119E1,1.0188428E1,2.6040161E1,4.2911705E1,1.55557785E1,0E0,0E0,0E0,0E0,0E0,0E0,0E0,0E0],"parents":[2147483647,0,0,1,1,2,2,3,3,4,4,5,5,6,6],"right_children":[2,4,6,8,10,12,14,-1,-1,-1,-1,-1,-1,-1,-1],"split_conditions":[1.5E1,9E0,5.24E-1,6E0,2.3E1,-4.8E0,-6E0,-1.6839176E-3,2.9463336E-4,-2.9223359E-3,-5.3087543E-3,1.187044E-3,-2.0359573E-3,3.7363642E-3,1.4566539E-3],"split_indices":[51,103,55,77,80,25,25,0,0,0,0,0,0,0,0],"split_type":[0,0,0,0,0,0,0,0,0,0,0,0,0,0,0],"sum_hessian":[6.7496196E3,3.3252935E3,3.424326E3,1.0419575E3,2.2833362E3,1.8276366E3,1.5966892E3,5.457054E2,4.9625214E2,1.6471982E3,6.361379E2,6.2935516E2,1.1982815E3,3.993829E2,1.1973063E3],"tree_param":{"num_deleted":"0","num_feature":"106","num_nodes":"15","size_leaf_vector":"1"}},{"base_weights":[1.0999034E-1,2.6976264E-1,-4.519475E-2,7.42216E-2,3.5892254E-1,9.2605956E-2,-2.0288639E-1,1.6839177E-3,-2.9463338E-4,2.9223359E-3,5.3087543E-3,-1.1870441E-3,2.0359573E-3,-3.736364E-3,-1.4566539E-3],"categories":[],"categories_nodes":[],"categories_segments":[],"categories_sizes":[],"default_left":[0,0,0,0,0,0,0,0,0,0,0,0,0,0,0],"id":63,"left_children":[1,3,5,7,9,11,13,-1,-1,-1,-1,-1,-1,-1,-1],"loss_changes":[1.6738892E2,5.7965363E1,7.445118E1,1.0188428E1,2.604013E1,4.291171E1,1.55557785E1,0E0,0E0,0E0,0E0,0E0,0E0,0E0,0E0],"parents":[2147483647,0,0,1,1,2,2,3,3,4,4,5,5,6,6],"right_children":[2,4,6,8,10,12,14,-1,-1,-1,-1,-1,-1,-1,-1],"split_conditions":[1.5E1,9E0,5.24E-1,6E0,2.3E1,-4.8E0,-6E0,1.6839177E-3,-2.9463338E-4,2.9223359E-3,5.3087543E-3,-1.1870441E-3,2.0359573E-3,-3.736364E-3,-1.4566539E-3],"split_indices":[51,103,55,77,80,25,25,0,0,0,0,0,0,0,0],"split_type":[0,0,0,0,0,0,0,0,0,0,0,0,0,0,0],"sum_hessian":[6.7496196E3,3.3252935E3,3.424326E3,1.0419575E3,2.283336E3,1.8276367E3,1.5966892E3,5.457054E2,4.9625214E2,1.6471982E3,6.361378E2,6.2935516E2,1.1982815E3,3.993829E2,1.1973063E3],"tree_param":{"num_deleted":"0","num_feature":"106","num_nodes":"15","size_leaf_vector":"1"}},{"base_weights":[-1.0893812E-1,-2.1056797E-1,1.3123286E-1,-1.24927394E-1,-4.303147E-1,-4.7184615E-3,2.7960107E-1,-2.7099554E-3,-3.9371732E-4,-3.6105483E-3,-5.387236E-3,1.269287E-3,-1.4977173E-3,4.0257336E-3,2.0288834E-3],"categories":[],"categories_nodes":[],"categories_segments":[],"categories_sizes":[],"default_left":[0,0,0,0,0,0,0,0,0,0,0,0,0,0,0],"id":64,"left_children":[1,3,5,7,9,11,13,-1,-1,-1,-1,-1,-1,-1,-1],"loss_changes":[1.6473032E2,8.918295E1,4.0483566E1,4.264694E1,9.786713E0,2.0037033E1,8.971466E0,0E0,0E0,0E0,0E0,0E0,0E0,0E0,0E0],"parents":[2147483647,0,0,1,1,2,2,3,3,4,4,5,5,6,6],"right_children":[2,4,6,8,10,12,14,-1,-1,-1,-1,-1,-1,-1,-1],"split_conditions":[2E1,2E1,5.14E-1,8E0,2.7E1,-4.8E0,-6.2E0,-2.7099554E-3,-3.9371732E-4,-3.6105483E-3,-5.387236E-3,1.269287E-3,-1.4977173E-3,4.0257336E-3,2.0288834E-3],"split_indices":[28,80,55,51,103,25,25,0,0,0,0,0,0,0,0],"split_type":[0,0,0,0,0,0,0,0,0,0,0,0,0,0,0],"sum_hessian":[6.7467485E3,4.740781E3,2.0059679E3,3.4124397E3,1.3283412E3,1.0472919E3,9.586761E2,1.2596637E3,2.1527761E3,8.131619E2,5.151792E2,5.4908203E2,4.982098E2,3.6666132E2,5.920148E2],"tree_param":{"num_deleted":"0","num_feature":"106","num_nodes":"15","size_leaf_vector":"1"}},{"base_weights":[1.0893813E-1,2.1056798E-1,-1.3123283E-1,1.2492741E-1,4.303147E-1,4.7184867E-3,-2.7960104E-1,2.7099554E-3,3.937175E-4,3.6105483E-3,5.387236E-3,-1.2692864E-3,1.4977172E-3,-4.0257336E-3,-2.0288834E-3],"categories":[],"categories_nodes":[],"categories_segments":[],"categories_sizes":[],"default_left":[0,0,0,0,0,0,0,0,0,0,0,0,0,0,0],"id":65,"left_children":[1,3,5,7,9,11,13,-1,-1,-1,-1,-1,-1,-1,-1],"loss_changes":[1.6473032E2,8.918294E1,4.0483574E1,4.2646935E1,9.786697E0,2.0037024E1,8.971466E0,0E0,0E0,0E0,0E0,0E0,0E0,0E0,0E0],"parents":[2147483647,0,0,1,1,2,2,3,3,4,4,5,5,6,6],"right_children":[2,4,6,8,10,12,14,-1,-1,-1,-1,-1,-1,-1,-1],"split_conditions":[2E1,2E1,5.14E-1,8E0,2.7E1,-4.8E0,-6.2E0,2.7099554E-3,3.937175E-4,3.6105483E-3,5.387236E-3,-1.2692864E-3,1.4977172E-3,-4.0257336E-3,-2.0288834E-3],"split_indices":[28,80,55,51,103,25,25,0,0,0,0,0,0,0,0],"split_type":[0,0,0,0,0,0,0,0,0,0,0,0,0,0,0],"sum_hessian":[6.7467485E3,4.740781E3,2.0059679E3,3.4124397E3,1.3283412E3,1.0472917E3,9.586761E2,1.2596637E3,2.1527761E3,8.131619E2,5.151792E2,5.4908203E2,4.982098E2,3.6666132E2,5.920148E2],"tree_param":{"num_deleted":"0","num_feature":"106","num_nodes":"15","size_leaf_vector":"1"}},{"base_weights":[-1.0789701E-1,-2.2649218E-1,9.430831E-2,-9.491154E-2,-3.759678E-1,1.7494008E-1,-1.4526238E-1,-2.3090702E-3,-8.750136E-5,-5.0374353E-3,-3.0977654E-3,3.200689E-3,9.826662E-4,-2.338779E-3,1.0469778E-3],"categories":[],"categories_nodes":[],"categories_segments":[],"categories_sizes":[],"default_left":[0,0,0,0,0,0,0,0,0,0,0,0,0,0,0],"id":66,"left_children":[1,3,5,7,9,11,13,-1,-1,-1,-1,-1,-1,-1,-1],"loss_changes":[1.6176608E2,8.358632E1,4.8205246E1,2.6509178E1,1.6675842E1,2.0738667E1,1.3948525E1,0E0,0E0,0E0,0E0,0E0,0E0,0E0,0E0],"parents":[2147483647,0,0,1,1,2,2,3,3,4,4,5,5,6,6],"right_children":[2,4,6,8,10,12,14,-1,-1,-1,-1,-1,-1,-1,-1],"split_conditions":[1.8E1,1.4E1,2.2E1,7E0,7E0,-6E0,2.7E1,-2.3090702E-3,-8.750136E-5,-5.0374353E-3,-3.0977654E-3,3.200689E-3,9.826662E-4,-2.338779E-3,1.0469778E-3],"split_indices":[27,80,80,29,51,25,28,0,0,0,0,0,0,0,0],"split_type":[0,0,0,0,0,0,0,0,0,0,0,0,0,0,0],"sum_hessian":[6.743823E3,4.2506567E3,2.4931667E3,2.2615186E3,1.9891382E3,1.865552E3,6.276148E2,8.7645654E2,1.3850619E3,6.765378E2,1.3126005E3,6.4379364E2,1.2217583E3,4.6339648E2,1.6421832E2],"tree_param":{"num_deleted":"0","num_feature":"106","num_nodes":"15","size_leaf_vector":"1"}},{"base_weights":[1.07897006E-1,2.2649217E-1,-9.430832E-2,9.491152E-2,3.759678E-1,-1.7494006E-1,1.4526235E-1,2.30907E-3,8.750121E-5,5.0374353E-3,3.0977654E-3,-3.200689E-3,-9.826663E-4,2.3387787E-3,-1.0469785E-3],"categories":[],"categories_nodes":[],"categories_segments":[],"categories_sizes":[],"default_left":[0,0,0,0,0,0,0,0,0,0,0,0,0,0,0],"id":67,"left_children":[1,3,5,7,9,11,13,-1,-1,-1,-1,-1,-1,-1,-1],"loss_changes":[1.6176608E2,8.3586334E1,4.820524E1,2.6509178E1,1.6675842E1,2.0738659E1,1.3948529E1,0E0,0E0,0E0,0E0,0E0,0E0,0E0,0E0],"parents":[2147483647,0,0,1,1,2,2,3,3,4,4,5,5,6,6],"right_children":[2,4,6,8,10,12,14,-1,-1,-1,-1,-1,-1,-1,-1],"split_conditions":[1.8E1,1.4E1,2.2E1,7E0,7E0,-6E0,2.7E1,2.30907E-3,8.750121E-5,5.0374353E-3,3.0977654E-3,-3.200689E-3,-9.826663E-4,2.3387787E-3,-1.0469785E-3],"split_indices":[27,80,80,29,51,25,28,0,0,0,0,0,0,0,0],"split_type":[0,0,0,0,0,0,0,0,0,0,0,0,0,0,0],"sum_hessian":[6.743823E3,4.2506567E3,2.4931667E3,2.2615183E3,1.9891382E3,1.865552E3,6.276148E2,8.764565E2,1.3850619E3,6.765378E2,1.3126005E3,6.4379364E2,1.2217583E3,4.6339648E2,1.6421832E2],"tree_param":{"num_deleted":"0","num_feature":"106","num_nodes":"15","size_leaf_vector":"1"}},{"base_weights":[-1.0686541E-1,-2.628363E-1,4.447275E-2,-3.4262115E-1,-5.130463E-2,-1.7172812E-1,1.4063138E-1,-2.792723E-3,-5.1966268E-3,-3.0554987E-5,-2.829377E-3,1.3726726E-4,-3.1159678E-3,4.7283998E-4,2.6581918E-3],"categories":[],"categories_nodes":[],"categories_segments":[],"categories_sizes":[],"default_left":[0,0,0,0,0,0,0,0,0,0,0,0,0,0,0],"id":68,"left_children":[1,3,5,7,9,11,13,-1,-1,-1,-1,-1,-1,-1,-1],"loss_changes":[1.5915082E2,5.6019196E1,7.1179474E1,2.6892548E1,1.0175289E1,2.7346844E1,2.7677845E1,0E0,0E0,0E0,0E0,0E0,0E0,0E0,0E0],"parents":[2147483647,0,0,1,1,2,2,3,3,4,4,5,5,6,6],"right_children":[2,4,6,8,10,12,14,-1,-1,-1,-1,-1,-1,-1,-1],"split_conditions":[1.5E1,3.8E0,-2E0,2.3E1,1.16E1,-3.7E0,2.4E1,-2.792723E-3,-5.1966268E-3,-3.0554987E-5,-2.829377E-3,1.3726726E-4,-3.1159678E-3,4.7283998E-4,2.6581918E-3],"split_indices":[51,77,77,80,66,25,51,0,0,0,0,0,0,0,0],"split_type":[0,0,0,0,0,0,0,0,0,0,0,0,0,0,0],"sum_hessian":[6.7409414E3,3.3192976E3,3.421644E3,2.4097688E3,9.095286E2,1.0530975E3,2.3685464E3,1.7766332E3,6.331357E2,7.5357275E2,1.559559E2,4.531535E2,5.999441E2,1.3576102E3,1.0109362E3],"tree_param":{"num_deleted":"0","num_feature":"106","num_nodes":"15","size_leaf_vector":"1"}},{"base_weights":[1.0686542E-1,2.628363E-1,-4.4472743E-2,3.4262115E-1,5.1304627E-2,1.7172815E-1,-1.4063138E-1,2.792723E-3,5.1966268E-3,3.0554886E-5,2.829377E-3,-1.3726696E-4,3.115968E-3,-4.7283998E-4,-2.6581918E-3],"categories":[],"categories_nodes":[],"categories_segments":[],"categories_sizes":[],"default_left":[0,0,0,0,0,0,0,0,0,0,0,0,0,0,0],"id":69,"left_children":[1,3,5,7,9,11,13,-1,-1,-1,-1,-1,-1,-1,-1],"loss_changes":[1.5915082E2,5.6019165E1,7.117949E1,2.6892578E1,1.0175291E1,2.7346851E1,2.7677845E1,0E0,0E0,0E0,0E0,0E0,0E0,0E0,0E0],"parents":[2147483647,0,0,1,1,2,2,3,3,4,4,5,5,6,6],"right_children":[2,4,6,8,10,12,14,-1,-1,-1,-1,-1,-1,-1,-1],"split_conditions":[1.5E1,3.8E0,-2E0,2.3E1,1.16E1,-3.7E0,2.4E1,2.792723E-3,5.1966268E-3,3.0554886E-5,2.829377E-3,-1.3726696E-4,3.115968E-3,-4.7283998E-4,-2.6581918E-3],"split_indices":[51,77,77,80,66,25,51,0,0,0,0,0,0,0,0],"split_type":[0,0,0,0,0,0,0,0,0,0,0,0,0,0,0],"sum_hessian":[6.7409414E3,3.3192976E3,3.421644E3,2.409769E3,9.095286E2,1.0530975E3,2.3685464E3,1.7766333E3,6.331357E2,7.5357275E2,1.559559E2,4.5315347E2,5.9994403E2,1.3576102E3,1.0109362E3],"tree_param":{"num_deleted":"0","num_feature":"106","num_nodes":"15","size_leaf_vector":"1"}},{"base_weights":[-1.0584743E-1,-1.975346E-1,1.4696763E-1,-1.1230884E-1,-4.1297966E-1,1.6694438E-2,2.8994733E-1,-1.2447899E-4,-2.3868051E-3,-3.4124493E-3,-5.23709E-3,1.2481513E-3,-1.2826734E-3,2.1032486E-3,3.9777164E-3],"categories":[],"categories_nodes":[],"categories_segments":[],"categories_sizes":[],"default_left":[0,0,0,0,0,0,0,0,0,0,0,0,0,0,0],"id":70,"left_children":[1,3,5,7,9,11,13,-1,-1,-1,-1,-1,-1,-1,-1],"loss_changes":[1.5623505E2,9.0765366E1,3.3412426E1,4.473677E1,1.095372E1,1.4746057E1,7.258995E0,0E0,0E0,0E0,0E0,0E0,0E0,0E0,0E0],"parents":[2147483647,0,0,1,1,2,2,3,3,4,4,5,5,6,6],"right_children":[2,4,6,8,10,12,14,-1,-1,-1,-1,-1,-1,-1,-1],"split_conditions":[2.1E1,2E1,5.14E-1,2.9E0,2.7E1,-4.8E0,3.4E1,-1.2447899E-4,-2.3868051E-3,-3.4124493E-3,-5.23709E-3,1.2481513E-3,-1.2826734E-3,2.1032486E-3,3.9777164E-3],"split_indices":[28,80,55,25,103,25,2,0,0,0,0,0,0,0,0],"split_type":[0,0,0,0,0,0,0,0,0,0,0,0,0,0,0],"sum_hessian":[6.7378564E3,4.944778E3,1.793079E3,3.5442603E3,1.4005173E3,9.388136E2,8.542653E2,1.9804083E3,1.563852E3,8.5238873E2,5.481286E2,5.3781775E2,4.0099588E2,4.9309323E2,3.611721E2],"tree_param":{"num_deleted":"0","num_feature":"106","num_nodes":"15","size_leaf_vector":"1"}},{"base_weights":[1.05847426E-1,1.9753459E-1,-1.4696762E-1,1.1230882E-1,4.1297966E-1,-1.6694436E-2,-2.899473E-1,1.2447893E-4,2.386805E-3,3.412449E-3,5.23709E-3,-1.2481513E-3,1.2826736E-3,-2.1032484E-3,-3.977716E-3],"categories":[],"categories_nodes":[],"categories_segments":[],"categories_sizes":[],"default_left":[0,0,0,0,0,0,0,0,0,0,0,0,0,0,0],"id":71,"left_children":[1,3,5,7,9,11,13,-1,-1,-1,-1,-1,-1,-1,-1],"loss_changes":[1.5623499E2,9.076538E1,3.3412426E1,4.473678E1,1.0953751E1,1.47460575E1,7.2589874E0,0E0,0E0,0E0,0E0,0E0,0E0,0E0,0E0],"parents":[2147483647,0,0,1,1,2,2,3,3,4,4,5,5,6,6],"right_children":[2,4,6,8,10,12,14,-1,-1,-1,-1,-1,-1,-1,-1],"split_conditions":[2.1E1,2E1,5.14E-1,2.9E0,2.7E1,-4.8E0,3.4E1,1.2447893E-4,2.386805E-3,3.412449E-3,5.23709E-3,-1.2481513E-3,1.2826736E-3,-2.1032484E-3,-3.977716E-3],"split_indices":[28,80,55,25,103,25,2,0,0,0,0,0,0,0,0],"split_type":[0,0,0,0,0,0,0,0,0,0,0,0,0,0,0],"sum_hessian":[6.7378564E3,4.944778E3,1.793079E3,3.5442603E3,1.4005173E3,9.3881366E2,8.542653E2,1.9804083E3,1.563852E3,8.5238873E2,5.481286E2,5.3781775E2,4.009959E2,4.930932E2,3.611721E2],"tree_param":{"num_deleted":"0","num_feature":"106","num_nodes":"15","size_leaf_vector":"1"}},{"base_weights":[-1.0483746E-1,-2.5825986E-1,4.3926287E-2,-3.3721992E-1,-4.9205504E-2,-7.842408E-2,2.0938331E-1,-2.7486768E-3,-5.1191663E-3,-1.4329269E-5,-2.786381E-3,1.204733E-3,-1.8649587E-3,3.641973E-3,1.5699936E-3],"categories":[],"categories_nodes":[],"categories_segments":[],"categories_sizes":[],"default_left":[0,0,0,0,0,0,0,0,0,0,0,0,0,0,0],"id":72,"left_children":[1,3,5,7,9,11,13,-1,-1,-1,-1,-1,-1,-1,-1],"loss_changes":[1.5374774E2,5.472267E1,6.92639E1,2.6076294E1,9.977022E0,4.2308693E1,1.173806E1,0E0,0E0,0E0,0E0,0E0,0E0,0E0,0E0],"parents":[2147483647,0,0,1,1,2,2,3,3,4,4,5,5,6,6],"right_children":[2,4,6,8,10,12,14,-1,-1,-1,-1,-1,-1,-1,-1],"split_conditions":[1.5E1,3.8E0,5.45E-1,2.3E1,1.16E1,-4.6E0,-6E0,-2.7486768E-3,-5.1191663E-3,-1.4329269E-5,-2.786381E-3,1.204733E-3,-1.8649587E-3,3.641973E-3,1.5699936E-3],"split_indices":[51,77,55,80,66,25,25,0,0,0,0,0,0,0,0],"split_type":[0,0,0,0,0,0,0,0,0,0,0,0,0,0,0],"sum_hessian":[6.7348247E3,3.3151362E3,3.4196885E3,2.4058362E3,9.093E2,1.9662404E3,1.4534481E3,1.774913E3,6.309233E2,7.5342725E2,1.5587277E2,6.9219556E2,1.2740447E3,3.659569E2,1.0874912E3],"tree_param":{"num_deleted":"0","num_feature":"106","num_nodes":"15","size_leaf_vector":"1"}},{"base_weights":[1.0483747E-1,2.582599E-1,-4.3926284E-2,3.3721995E-1,4.920551E-2,7.8424074E-2,-2.0938328E-1,2.748677E-3,5.1191663E-3,1.4329406E-5,2.7863805E-3,-1.2047333E-3,1.8649587E-3,-3.641973E-3,-1.5699934E-3],"categories":[],"categories_nodes":[],"categories_segments":[],"categories_sizes":[],"default_left":[0,0,0,0,0,0,0,0,0,0,0,0,0,0,0],"id":73,"left_children":[1,3,5,7,9,11,13,-1,-1,-1,-1,-1,-1,-1,-1],"loss_changes":[1.5374774E2,5.4722687E1,6.926389E1,2.6076324E1,9.977018E0,4.2308693E1,1.1738056E1,0E0,0E0,0E0,0E0,0E0,0E0,0E0,0E0],"parents":[2147483647,0,0,1,1,2,2,3,3,4,4,5,5,6,6],"right_children":[2,4,6,8,10,12,14,-1,-1,-1,-1,-1,-1,-1,-1],"split_conditions":[1.5E1,3.8E0,5.45E-1,2.3E1,1.16E1,-4.6E0,-6E0,2.748677E-3,5.1191663E-3,1.4329406E-5,2.7863805E-3,-1.2047333E-3,1.8649587E-3,-3.641973E-3,-1.5699934E-3],"split_indices":[51,77,55,80,66,25,25,0,0,0,0,0,0,0,0],"split_type":[0,0,0,0,0,0,0,0,0,0,0,0,0,0,0],"sum_hessian":[6.7348247E3,3.3151362E3,3.4196885E3,2.4058362E3,9.093E2,1.9662402E3,1.4534481E3,1.7749128E3,6.309233E2,7.5342725E2,1.5587277E2,6.9219556E2,1.2740447E3,3.659569E2,1.0874912E3],"tree_param":{"num_deleted":"0","num_feature":"106","num_nodes":"15","size_leaf_vector":"1"}},{"base_weights":[-1.0383801E-1,-2.1861812E-1,9.166225E-2,-9.073264E-2,-3.6435288E-1,1.6990796E-1,-1.4085536E-1,-1.6591363E-3,5.880953E-4,-4.90486E-3,-2.9915352E-3,3.1057724E-3,9.5706835E-4,-2.2683674E-3,1.0136418E-3],"categories":[],"categories_nodes":[],"categories_segments":[],"categories_sizes":[],"default_left":[0,0,0,0,0,0,0,0,0,0,0,0,0,0,0],"id":74,"left_children":[1,3,5,7,9,11,13,-1,-1,-1,-1,-1,-1,-1,-1],"loss_changes":[1.5109984E2,7.9034836E1,4.534958E1,2.5428741E1,1.6157074E1,1.9431454E1,1.3098254E1,0E0,0E0,0E0,0E0,0E0,0E0,0E0,0E0],"parents":[2147483647,0,0,1,1,2,2,3,3,4,4,5,5,6,6],"right_children":[2,4,6,8,10,12,14,-1,-1,-1,-1,-1,-1,-1,-1],"split_conditions":[1.8E1,1.4E1,2.2E1,5.3E0,7E0,-6E0,2.7E1,-1.6591363E-3,5.880953E-4,-4.90486E-3,-2.9915352E-3,3.1057724E-3,9.5706835E-4,-2.2683674E-3,1.0136418E-3],"split_indices":[27,80,80,77,51,25,28,0,0,0,0,0,0,0,0],"split_type":[0,0,0,0,0,0,0,0,0,0,0,0,0,0,0],"sum_hessian":[6.731749E3,4.24144E3,2.490309E3,2.2599268E3,1.9815132E3,1.8634868E3,6.268223E2,1.5037969E3,7.561299E2,6.730069E2,1.3085062E3,6.424172E2,1.2210697E3,4.6265564E2,1.6416672E2],"tree_param":{"num_deleted":"0","num_feature":"106","num_nodes":"15","size_leaf_vector":"1"}},{"base_weights":[1.0383802E-1,2.1861814E-1,-9.166224E-2,9.073267E-2,3.6435288E-1,-1.6990796E-1,1.4085537E-1,1.6591365E-3,-5.880949E-4,4.9048597E-3,2.9915352E-3,-3.1057724E-3,-9.5706835E-4,2.2683674E-3,-1.0136417E-3],"categories":[],"categories_nodes":[],"categories_segments":[],"categories_sizes":[],"default_left":[0,0,0,0,0,0,0,0,0,0,0,0,0,0,0],"id":75,"left_children":[1,3,5,7,9,11,13,-1,-1,-1,-1,-1,-1,-1,-1],"loss_changes":[1.5109985E2,7.9034775E1,4.534958E1,2.5428736E1,1.6157074E1,1.943145E1,1.3098257E1,0E0,0E0,0E0,0E0,0E0,0E0,0E0,0E0],"parents":[2147483647,0,0,1,1,2,2,3,3,4,4,5,5,6,6],"right_children":[2,4,6,8,10,12,14,-1,-1,-1,-1,-1,-1,-1,-1],"split_conditions":[1.8E1,1.4E1,2.2E1,5.3E0,7E0,-6E0,2.7E1,1.6591365E-3,-5.880949E-4,4.9048597E-3,2.9915352E-3,-3.1057724E-3,-9.5706835E-4,2.2683674E-3,-1.0136417E-3],"split_indices":[27,80,80,77,51,25,28,0,0,0,0,0,0,0,0],"split_type":[0,0,0,0,0,0,0,0,0,0,0,0,0,0,0],"sum_hessian":[6.731749E3,4.24144E3,2.490309E3,2.2599268E3,1.9815132E3,1.8634868E3,6.268224E2,1.503797E3,7.561299E2,6.730069E2,1.3085062E3,6.424172E2,1.2210697E3,4.6265564E2,1.6416672E2],"tree_param":{"num_deleted":"0","num_feature":"106","num_nodes":"15","size_leaf_vector":"1"}},{"base_weights":[-1.0284713E-1,-2.538444E-1,4.3449976E-2,-6.725212E-2,-3.3935803E-1,-7.712105E-2,2.0650336E-1,3.0461451E-5,-2.0034702E-3,-2.7570708E-3,-5.0477968E-3,1.1817752E-3,-1.8325886E-3,3.5821397E-3,1.5523909E-3],"categories":[],"categories_nodes":[],"categories_segments":[],"categories_sizes":[],"default_left":[0,0,0,0,0,0,0,0,0,0,0,0,0,0,0],"id":76,"left_children":[1,3,5,7,9,11,13,-1,-1,-1,-1,-1,-1,-1,-1],"loss_changes":[1.4867407E2,5.282112E1,6.723025E1,9.750275E0,2.3770416E1,4.0778954E1,1.1250168E1,0E0,0E0,0E0,0E0,0E0,0E0,0E0,0E0],"parents":[2147483647,0,0,1,1,2,2,3,3,4,4,5,5,6,6],"right_children":[2,4,6,8,10,12,14,-1,-1,-1,-1,-1,-1,-1,-1],"split_conditions":[1.5E1,9E0,5.45E-1,6.71E-1,2.3E1,-4.6E0,-6E0,3.0461451E-5,-2.0034702E-3,-2.7570708E-3,-5.0477968E-3,1.1817752E-3,-1.8325886E-3,3.5821397E-3,1.5523909E-3],"split_indices":[51,103,55,3,80,25,25,0,0,0,0,0,0,0,0],"split_type":[0,0,0,0,0,0,0,0,0,0,0,0,0,0,0],"sum_hessian":[6.728738E3,3.310817E3,3.417921E3,1.0410382E3,2.2697788E3,1.9652382E3,1.4526829E3,6.818662E2,3.5917203E2,1.6410156E3,6.287631E2,6.9193384E2,1.2733043E3,3.65384E2,1.0872988E3],"tree_param":{"num_deleted":"0","num_feature":"106","num_nodes":"15","size_leaf_vector":"1"}},{"base_weights":[1.0284713E-1,2.538444E-1,-4.3449976E-2,6.725215E-2,3.39358E-1,7.712106E-2,-2.0650338E-1,-3.0461166E-5,2.0034702E-3,2.7570706E-3,5.0477963E-3,-1.1817751E-3,1.8325887E-3,-3.5821395E-3,-1.5523912E-3],"categories":[],"categories_nodes":[],"categories_segments":[],"categories_sizes":[],"default_left":[0,0,0,0,0,0,0,0,0,0,0,0,0,0,0],"id":77,"left_children":[1,3,5,7,9,11,13,-1,-1,-1,-1,-1,-1,-1,-1],"loss_changes":[1.4867407E2,5.282109E1,6.723026E1,9.750275E0,2.3770416E1,4.0778954E1,1.1250164E1,0E0,0E0,0E0,0E0,0E0,0E0,0E0,0E0],"parents":[2147483647,0,0,1,1,2,2,3,3,4,4,5,5,6,6],"right_children":[2,4,6,8,10,12,14,-1,-1,-1,-1,-1,-1,-1,-1],"split_conditions":[1.5E1,9E0,5.45E-1,6.71E-1,2.3E1,-4.6E0,-6E0,-3.0461166E-5,2.0034702E-3,2.7570706E-3,5.0477963E-3,-1.1817751E-3,1.8325887E-3,-3.5821395E-3,-1.5523912E-3],"split_indices":[51,103,55,3,